0.0626189285948745
0.10175763893735294
-0.023402798364141914
0.039608454969554924
-0.1898220576316576
0.15856552120582162
-0.08382805689051485
-0.16557754825490467
-0.0069460628550757075
-0.10192641893452521
-0.15431324188870224
-0.15724955511337502
-0.08175107543131462
-0.11884659502293166
0.13998476010467725
-0.041595858592741924
0.07544648136667104
-0.05661413678632118
-0.09800237029189166
0.1514380227402919
0.06947567609278027
0.033808949614001216
0.02895657275135602
-0.024545873119132894
0.10679012525262138
0.1788443432946295
0.013088697684188577
0.15802973797312497
0.23803378046042367
0.7114415195647475
0.1646639194535226
-0.13292674529383647
-0.15923133005155546
0.05597954359372115
-0.08930611580404064
-0.04653170227945197
-0.10985765494692107
-0.05344742647586545
0.001834258469470329
-0.008943558719637867
0.43037813709313094
0.9259655461909836
0.5281196390966354
0.10395914694617923
0.17630193769077013
-0.04532054668256982
-0.15391842565142017
0.1622971489658362
-0.1995045837430559
0.047484334626386016
0.07752817516261634
-0.09627474228804818
0.8910142170427124
0.24376835300410812
1.0153543150170166
0.016966850541588765
-0.04662902601336466
0.12351480191654413
0.06867862021139948
-0.12151294017119385
0.007580800357997797
-0.0781222914360412
0.16019520313942043
0.0765028628920411
0.9977652158018978
0.024357582072753663
0.6063026054289513
0.1794079003306837
-0.058577392362419156
-0.051235671171165814
-0.11179674265032441
0.058911946099015955
0.09847511010016058
0.1988466796399881
-0.05999976255897299
0.7399510436532818
0.6950343317754146
0.1572614275355243
0.41688020282139504
1.0323215054412
-0.14265440883981395
-0.10759633686756805
0.08765518386617505
0.05734830488636716
-0.13525748846439925
-0.12731205489535324
0.06070847298605563
0.9428534162054768
0.7257600349116005
0.804083124226648
0.6395760478403825
0.822093033686573
0.05748021185980331
0.1997009784396931
-0.07863290235506448
0.06659258213292396
0.09958656034509333
0.09352735987308908
0.2524385686319769
0.7149145258226779
-0.14363270222110877
-0.16221341425478883
-0.1439912950621993
0.3961616678836375
0.5494698006455743
-0.04350302709558651
-0.04410243968429178
-0.19548188806556388
0.0097261219256779
0.10962771236894181
0.506096843618186
0.36145846576858237
-0.15666013566861672
0.13390659745655825
0.09588467428409958
0.16839372024099655
0.835041016578218
0.14487986574071235
0.09680817899733335
-0.0523301155754449
0.17110363270688028
0.02445800033304249
0.11654120939619027
-0.05883642041066677
-0.17751150868697252
0.13114934309673193
0.1914097301454139
-0.17267790106985342
0.1384794208590817
0.05006120224143401
-0.017617736771704168
-0.17788736135902172
0.04703322201422591
-0.10214698485146717
0.16336125537601873
0.119235482549653
0.002943889471378386
-0.179523766150761
-0.12018944651420145
0.05202306998063111
-0.15153338601364982
0.18509793317256906
0.19021638462354384
-0.003490094538831867
-5.537560431415585
-5.537560431415585
-7.488159081135752
-7.488159028776329
-7.488159063512502
-7.488159076345585
-7.488159065861915
-7.48815906213916
-7.4881590279597345
-7.488159056273224
-7.4881590276823236
-7.48815904897314
-7.48815902924124
-7.488159049842054
-7.488159041693227
-7.488159030482381
-7.488159041348431
-5.537560431415585
-7.4881590462736325
-7.48815903056099
-7.488159074055405
-7.488159030170037
-7.48815903709907
-7.48815905364359
-7.488159055488383
-7.4881590425316285
-7.4881590354162
-7.488159058226108
-2.772701383086583
0.2922706147892795
-2.1757138681118087
-7.488159032322686
-7.488159066809917
-7.488159048679784
-7.488159074406963
-7.488159069594618
-7.488159068455675
-7.488159036929956
-7.488159041655565
-7.488159063215646
-0.7108756414084699
1.0116420159517443
0.11778782151832341
-5.537560431415585
-7.488159079541954
-7.488159066377791
-7.488159052764014
-7.4881590577148325
-7.4881590489377094
-7.488159052152111
-7.4881590609137865
-3.9121819943234484
0.8566872738151582
-1.338030149722033
1.1787028885229922
-3.008277027918334
-7.488159074415966
-7.488159053946774
-7.488159033625042
-7.4881590341051325
-7.488159028237298
-7.488159052365715
-7.488159040135461
-1.681826908891998
0.8194742021303022
-4.139326816854647
0.19671828714873243
-0.8566872738151589
-7.488159076700187
-7.488159029753404
-7.488159042254619
-7.488159070900051
-7.488159027973395
-7.488159043343935
-7.488159048674948
0.10205340090748806
0.149302367698699
-1.011642015951745
-0.2602936743116927
0.8566872738151582
-4.430996936040894
-7.488159063321074
-7.488159060130912
-7.488159038092579
-7.488159030739139
-7.488159035928941
-2.8458552375140185
1.3143742661949975
0.149302367698699
0.07062043660772829
0.07062043660772829
1.6524710904182927
-2.2192936574058506
-7.488159037758989
-7.48815908324896
-7.488159035037318
-7.488159036785295
-7.488159039372275
-0.9719000725348633
0.5045765123112721
-7.488159076647531
-7.488159077395248
-7.488159054403399
-0.27626460159441785
0.007772394137338171
-7.48815904865314
-7.488159065769255
-7.488159036211668
-7.488159063477988
-7.48815906783024
-0.3729040892201824
-1.4361142218531688
-7.488159028606394
-7.488159043449345
-7.48815903022791
-1.977739205745144
0.3083138868223131
-4.840439227935266
-7.48815903939905
-7.4881590524843995
-7.488159069477673
-7.488159049636824
-5.537560431415585
-5.537560431415585
-7.488159083228373
-7.488159058341788
-7.488159059567043
-5.537560431415585
-5.537560431415585
-7.488159049549696
-7.488159034759437
-7.48815905724636
-7.4881590488107905
-7.488159047497816
-5.537560431415585
-7.488159067936539
-7.488159065391302
-7.488159059181869
-5.537560431415585
-7.4881590540687615
-7.488159069123315
-7.48815907208832
-7.4881590622499274
-7.488159027646833
