4.494149551221223
6.301577661243039
4.071341488629655
3.9491517737003012
-6.584852862381499
-3.790216765262374
-6.279479127578886
-6.021888880865111
1.6417589123960328
-2.0139646579888666
-1.3765502941608843
-1.0268066016608148
-2.3300517843225745
-1.161612845964727
3.5534028530038104
1.4413303490173586
1.0153074912509745
-1.5938786532629297
3.2418889107664417
-1.1724985221369548
1.0457311581109576
-1.4479692552719876
-1.197343185123168
-0.16146635045351193
-2.2319608377433022
-0.38172749099537007
0.873144516820565
-0.9031092089991806
-1.3573556858579507
-0.049044352296045306
-1.8410702523134446
-0.3204030318403991
-9.722659676881891
5.926236639093854
-4.296089346497383
-1.7778233246671133
4.630305704710217
2.3512297828687374
-3.4040634893460813
2.8722460322909598
-1.1436572962067688
-8.19269180823976
2.6419288230880444
-2.785992512560401
2.994603864875746
-1.7375953030976568
-8.06359633378916
5.571391374376809
-1.2061470556826115
2.173956652872577
-0.9015385137721511
-8.485773787592596
0.5853561153460825
-4.64346774156829
4.672099732007303
-2.0656794440425292
-8.369917654786745
5.407167128238402
-2.004905716624048
2.707446138468551
-1.0776384997941422
-7.901430375915233
-10.237931670562437
5.161392176421326
10.429509885661979
-6.1496151177732505
-6.3462175306733
-4.02261535346233
5.178247961277325
4.954391325232852
-5.054991379000717
-3.8058213442284083
1.6686482329421077
-1.044085217912063
-6.231725224637256
11.553111424108685
9.68244411329359
