-1.853775611086566
-3.1433623290505888
-6.114306433819919
3.3845384544290757
-2.4624752872953604
0.683824783494555
5.232187986254825
-2.8812607407558746
2.525485444926674
2.9996366006275745
-1.5921461447785537
-3.7140500771416853
4.834873122445262
-1.8698678483116253
-2.206147875577115
-3.1630615588613638
0.20345116268165128
0.12670626197011536
-2.4545211485708327
1.9138795734155256
4.030064523181935
-2.2957683513555507
-5.111700087224339
0.40460683646781564
-7.079065761031786
1.477015302197515
3.353821664495889
4.1030988890377555
-0.5439954745360064
1.8349757084154168
-0.9464913995518777
-1.3138943277715533
-3.696486855622703
0.9754424242486609
4.864812494868289
-1.3923653707613364
-3.245925978734505
2.1251255788133836
1.5993085077885814
-1.0636921399912425
-2.872192073633658
0.34887320180017684
-3.746324240333193
-0.33376888513808955
2.5261247272264313
2.2413793441286005
-2.2134945011595124
2.2124457348927353
6.160923233030926
3.4897935723014433
-11.490383712839328
-1.4353731202079654
-2.725345551988896
-1.7682067294717716
-8.10116518460075
-4.504749061276839
-5.846794896614548
-5.2080714513775215
-0.19513015198464845
3.5349899813972274
1.405092683881118
7.627009964614835
5.552514349778307
-3.4024356770106263
0.009017653246015146
-1.5757787827286491
