173
0.06747098632369873
0.2556190349168933
0.46870309539305605
0.4559114358300467
0.2771728118251299
0.3835830141872974
-0.39754579548817587
-0.24474274279192593
-0.3377183739385055
-0.1554181480487816
-0.3716680636744639
-0.5045305936170627
0.2618660346039157
-0.2699934532461535
0.17026424349890038
0.2427192706668873
-0.0070488952878818255
-0.11258623560449145
0.40771714791627534
0.3492737883461583
0.2529876626257116
0.12199335265837083
-0.21319652042772674
-0.14615066624185077
0.49234008037714877
0.2370427178697143
-0.2892637866545711
-0.1909516305843575
-0.443092250903048
-0.44796105591069685
0.17170185739825963
-0.16553022404517279
-0.11770337135185903
-0.13348882929889355
0.2813189247153813
0.08777532408276192
-0.15739977400482139
-0.13204787869774445
0.4985925665993812
-0.1319803236399004
-0.1482274132868582
0.13081250076642326
0.21665493340459402
0.1457712367697698
0.037439148324578925
-0.2672449102036114
0.4588906532667912
0.10730855790473766
0.2132751718026659
0.25161911978807894
-0.438487086147139
-0.17020866560844472
-0.3979575290797529
-0.4541460592723989
0.057936894267479305
0.06543216966214231
-0.4759862557802245
0.2927701625963652
0.3068252212888058
-0.03960864021027972
0.036836731268840774
-0.4090195768713694
0.010517391582896137
-0.3254953445493554
-0.06491935649101356
-0.3781310742469213
0.16851763797752553
-0.49230928130539636
-0.311080133143534
0.21712860560288488
-0.18166596259586326
-0.38839328234180415
-0.08064283291804847
-0.43576996607063023
-0.04023197092156505
0.1406282720728993
-0.1846761112673425
-0.07502254608319459
0.029935035762411088
-0.4824487414053314
0.11644388996641954
-0.11135767430108075
0.11760067041362424
-0.46503276135788074
0.41359784400975363
-0.11083521102840597
-0.2603967924994521
0.5011422767606273
0.07831519040710451
-0.19056691859113845
0.04506597936247989
0.03377433470375166
0.31923384121284887
0.47052593170528023
-0.44890633519040973
0.4033788604496701
-0.4534704141148863
-0.3397363751189974
-0.38199149438736024
0.3279014186195561
0.09181409809504992
0.26322195554546773
0.2593244425278911
-0.4209264424020078
0.3661166783033144
0.3108249488537734
-0.16648480237767374
0.044261783379503095
-0.09473323843731368
-0.1832251067381929
0.2040563735484562
0.2537289560882236
-0.2639554376594172
0.38850333149015925
-0.41344975503884257
-0.4725388485500653
-0.028545452440436044
-0.03217411049316119
-0.021574660677344117
0.014939551132507532
0.033637262235598986
-0.11302549097025066
0.0722200453509767
-0.32339237915293295
0.31083989176028937
0.04903746529670201
-0.3951333778510704
0.38711004655469716
0.06195281887369373
-0.330103122402788
-0.1554790318311636
0.4157359388031273
-0.4809746620829999
-0.4715703852101515
0.4167300132099214
0.041413892666022606
0.35158601787819055
0.023838099194715547
-0.32004811718121384
0.0696506761925422
-0.012599422982583892
-0.40933014646406235
0.04508798883935875
-0.26692618212412295
-0.4224487093188597
0.40172535047167657
0.3485544056899802
0.04357821659185746
-0.10960652741079237
0.03300916319239996
-0.08436136635438445
0.07440503140944495
0.140941619664188
-0.09461896763768629
0.11366685371842468
-0.49628618398190044
-0.2924752234389713
-0.0949964929005809
-0.08709048168754004
0.43619246319753086
-0.4871032022599785
-0.19071055928534955
-0.2879512314877315
0.34299069387634473
-0.20747489802356525
-0.2796814398297252
-0.4363888810513761
-0.07233523264656237
0.23759681546373726
-0.22841878113389244
0.13170025136992386
-0.29770771141020597
-0.3788164830395226
-0.31811693272410424
0.10195875156142276
0.36488888150637927
0.07532860795380507
-0.024736989175305653
0.33710848068503685
-0.17721823987456192
-0.2459902633940305
0.22789716662161005
-0.12044383154299397
0.27118236657567646
-0.43847367032077056
0.06860104991554065
-0.12465628701286226
0.17755857114345933
0.48458558849736916
-0.18562731001725247
-0.40122926351989546
0.21549828868363693
0.37931069747961355
0.4822767206652669
-0.3852571688464217
-0.42554295801021874
-0.11252834127781808
0.47962318862569936
0.3848454976673387
-0.008189891778459855
-0.21212526215319882
-0.015358386797255475
-0.3904819645391417
0.04183800720638485
-0.40227406834230706
-0.429394114509254
-0.005922369606042861
0.33142167550213336
-0.3981957831157093
0.36300543977788485
-0.4333270508138144
0.3782754771662574
0.22531953208708497
0.33321553536244125
0.4179598234106674
0.3327532906204789
0.15860576790850178
0.3418262066646132
0.1832372125627154
0.04042568395853191
0.10374751447243359
0.020081202277922722
-0.17028832082513076
-0.22286015309600876
0.08252735764675476
-0.15625489437609177
-0.20406529624375913
0.21700813752433445
0.13448400469628433
-0.34031066617416217
-0.10017918300675578
0.47213700855758495
-0.06558639674581324
-0.1740918876006983
-0.4369333956007332
-0.3530543941452723
-0.31036874971665857
-0.44370285863786113
-0.08691866737054142
0.033371607430105824
-0.3013139931798552
0.2400559330351705
0.3268850633031414
0.459123255481545
0.5078100690070321
-0.10915565738648843
-0.038726719354213665
0.19524684219860797
-0.40910909378931815
0.15295428062085406
-0.15540281818822435
0.4764952717827688
0.2542785136024958
0.07548582078948178
-0.33389631112975954
0.30501380305004
-0.13198110447202568
0.1344252255865599
0.2658749285115028
-0.4409756711413663
0.11616436435875055
-0.36284357708933257
-0.16779714146549907
-0.36113882157065663
0.28713159360570856
-0.006040731251903117
-0.483918047975312
0.32563168999268616
-0.45546275567148736
-0.3383904485122464
0.3452934964178299
-0.04239541806864606
-0.07388120375078328
0.1765645939690383
0.21718440553516002
0.08527343299366989
0.48012592454022696
-0.18441373462501542
0.3149044291476493
0.2514271150203275
0.1796814552421536
0.4745468581642819
0.16066555313792485
-0.09064161475099215
0.1496397117900471
-0.41826934003194904
-0.0215752828841073
-0.12932823895166054
0.20784680450909943
0.47493913472617755
0.04321827069196688
0.3981943943533851
0.3249503661233594
0.3264112648789548
-0.12772241479333177
-0.4713554277286953
-0.2328482147589606
0.18580100779989178
-0.059291715631832644
0.2841914034764237
0.05798679267151647
0.44156184206737664
0.41857883290210546
-0.2909223588894657
0.03183422994362345
-0.30435458248399705
0.32499263737355916
0.14108586865557118
-0.3034593476715373
0.3248900566198417
0.3083601039979058
0.3327515794235985
0.2086009510057681
-0.4133201291144552
0.4833075843365783
0.44108896769344247
0.32185698893434406
0.17500378573078818
0.19239668975906835
0.28932747348407606
0.37912620727521706
-0.01834277132311887
0.0877973545050858
0.34593559060145657
0.2903751994632191
0.05549500386985261
0.0673038222845498
-0.4184063825934918
0.0757683330752016
0.3047395791129448
0.2097365821155721
0.1670708744138741
0.33403304921469856
0.41988682210331696
0.1680286975481467
-0.011744943979942118
0.17268404175827087
0.0745648829655418
0.0846718246327612
0.09626785468410003
-0.3644807622955627
0.42267565205021984
-0.14384480840326577
0.3803216336960427
-0.48610549303503403
0.3328232358004808
-0.2276632332933351
-0.3841561710882905
-0.15261879597629743
0.14611264182652248
-0.34465573444235986
-0.3756956774798946
-0.3722799120112631
-0.2582954960258965
0.5047021626844396
0.19691926195965842
0.43706599554036313
-0.4045458721131611
-0.10720883459360979
-0.07672378465394833
0.0978598528968315
0.0361147403718702
0.05650414023916426
0.42368189596894096
0.20681307335114155
-0.0017803638076160195
-0.11816603089190625
-0.15769870584940066
-0.38612692991808983
0.37451292357794025
-0.4230364365608865
-0.49993612491434136
-0.08536919444807835
0.08667052549712898
0.38279715001696935
0.17956269951008558
-0.11211278815827147
-0.06392847153700833
0.08335098174575306
-0.0040100270971142665
0.37679837826823703
0.3929127683137676
-0.4793262054718895
-0.32659842090821395
0.2397718521146001
0.2244612106726675
-0.08230506330342058
-0.198760256779052
-0.45292117713519786
0.3002535185951308
0.3327249527359939
-0.32658182544204767
0.09236590380134595
0.3104411031883355
0.1842066371743925
0.0416464110034559
-0.3022421475130898
-0.08969034684176536
-0.3269725975413856
0.48001987053444517
-0.04001149388508315
-0.47722692877661294
0.2530916848690043
0.10004450138879299
0.1453618132949246
0.34756424644052786
-0.2250814339813481
0.3616500623911034
-0.13008808832632007
-0.2227133593554372
-0.2702956859157238
-0.3889617139813142
0.4373344162242524
0.08059583053720784
0.4441181099177922
-0.3833090968778092
0.40290640823979834
-0.3059952925991837
-0.18285292364095682
0.3353400619487572
-0.4610290325560072
-0.40994465486159026
0.35829623475241223
0.4941182124848592
0.32497128270287085
0.46771663907350586
-0.32798510729562685
0.16057708597209183
0.08142402327085906
-0.2652229652547146
0.23617333578457694
0.4244147199849758
0.1313866018182398
-0.12127178718352072
0.22108427693092533
0.4250172966041443
-0.360935041519305
0.16083954036283593
0.04909735652703331
0.27188062278578856
0.16957404760334793
0.2556055766659113
-0.336043841895539
0.1400932135976173
0.386621772650243
-0.3463685092984823
0.061104331862111234
0.4343142630946546
0.19783345250692913
-0.2692081871588402
0.15910586939467664
-0.301196647039453
0.11935645441408743
0.061116000310796184
0.0433625075323215
-0.009591115836163936
-0.13556194461613713
-0.04737779954758055
-0.4878670301127325
0.410467578500673
0.2875820060715472
-0.377042328896569
-0.11011001944201153
-0.033119899489626604
-0.2542315270573678
0.3359478246434061
-0.1954178947658499
-0.027895334980472548
-0.0738300913283332
0.16655308560461457
-0.359147872081871
-0.2344695206043894
0.04734239092000585
0.36973085972150754
0.38581947170227704
-0.46423396972360825
-0.43464847724952554
0.3821849806150586
-0.08402070197279563
-0.09128112443297091
0.1878053710046248
-0.2698646825179283
0.39835315346193806
0.15452831130067543
0.47280394555229927
-0.29493178114002033
0.4927682144143674
0.052293695484242245
-0.38630934311427395
0.26330488745871616
0.1271694671018631
-0.24537032876075532
-0.3477019813304109
-0.14343014712098648
-0.14525189849048176
-0.49610555031602865
0.11683086479632747
0.09720329898642097
0.4788117809378617
-0.4107715979246632
-0.3300989039153034
0.05334344647669336
-0.18330842142580528
-0.34634587191424093
0.12343527539308492
-0.4430673224504078
0.11885928831116788
-0.2544546580568014
0.4817876453885999
-0.17843019514197844
-0.2002865616123696
-0.3413124165067627
0.38733275526105
0.3518700707377443
-0.39872596631853807
-0.2909867574128776
0.14771144199229505
-0.3728306996059997
-0.4518341302879417
-0.08937490408634578
-0.1385178387848325
0.12646659767433807
0.1993902272070845
0.07488273793136761
-0.18131637767317543
-0.49608649465836735
-0.36443757645954145
-0.07716187700387865
0.31277093258941246
-0.04114081423332874
-0.17418821349118027
-0.0069841351835309
0.04266410047287506
0.19615289193249777
-0.11873287265068806
0.3809267671619383
0.3023305474405992
-0.21566787193410042
0.359791754746239
-0.3670575873438801
0.12036672503326137
-0.37205927335262967
0.0952262479874125
-0.15289248991554535
0.20236003095937227
-0.26988123013484333
0.40654429139029513
0.3648367852161173
0.39968189257358694
-0.46007653793634357
0.07032301146521984
0.23791546634903257
0.320024255140814
0.11599125214600085
-0.04845921192701603
0.25856472125395313
-0.45768884022545153
0.2662868678871132
0.1860287924776021
-0.26230472802077104
0.4270470863312266
-0.145297478820466
0.4707684579866525
0.3162703427538218
0.020813422098909764
0.44474758295276645
0.1975626196435498
-0.41514447114196323
0.3128008599106871
0.45496292118956916
-0.14973591886785084
0.14016064241820586
-0.284690741814506
-0.23219613800570407
0.27573473784069014
-0.3044060874108858
0.32094241192958767
0.20901674793945457
-0.13580045993115378
-0.3963719591279191
0.4293142668508316
-0.3344093033402432
-0.3797109956946494
0.28439482476352096
-0.2765205755719543
-0.37866763573404716
0.013456664021750839
-0.2888272634422964
0.4776099287552525
-0.3307927848096282
-0.1593499141782321
-0.4201845819437583
-0.010266456961751528
-0.49336308845042104
0.4340807556364872
0.07180474107696935
-0.14519585044743002
0.0035251885889761624
-0.04558182723560174
-0.3467286613889118
-0.2693913368131426
0.2827800886755947
-0.3815612767150401
-0.07309322921698276
-0.44356377242218414
-0.14376140121295128
-0.04883171265174552
-0.35629504313164967
0.212060469170494
0.2792495136947399
0.07841833170356977
-0.37351045509766995
-0.2945965163687699
0.373202320235634
0.0340488239598328
-0.4954052097608098
-0.32243206030132276
-0.3436885755009153
-0.5092276839810606
0.3342055457873557
-0.36551860188715285
0.3869034424696062
-0.47478283530332543
-0.02567878387306329
0.2510661904022997
0.502354156723131
-0.238771140556729
-0.18703081798611415
0.10022182164606425
-0.1002676266992112
0.3572642122791319
-0.13379617976745642
-0.47453048778499773
0.3474085770928476
0.11890516394004198
0.3967935244413825
0.2699403273389802
0.0932674815453488
-0.47542848933394377
0.2150192844660979
0.20173616194154054
-0.41491224856749953
0.17260021160736996
0.4538655402018317
0.4482862714301577
0.3111679138412328
0.14758532280192402
-0.3303586154081785
-0.3400179903070853
-0.10307170704597308
0.19749719378225353
-0.11912232414823655
0.22101485865320575
-0.488531099016179
0.21122581184897432
-0.4736092163038267
0.41965136293991406
0.3337942642813951
-0.048805340367980565
-0.42573198881524177
-0.20218933617385693
-0.18540797907813197
0.24821471105476434
-0.18503175812977102
0.002431458232421056
0.14258329364372285
0.23456424152628963
-0.48378410159508384
-0.19528225653321826
0.28415824658839944
-0.08465292936937512
-0.3616429614430522
0.05039602048314892
0.26281135109004655
-0.09563983062360171
-0.00934245270101837
0.12503851207221947
-0.34205228834581525
-0.3537734941827234
-0.06908336863267907
0.058107567460673956
-0.3897712750442208
0.2664324938337939
0.43447528752274994
0.1223164554905302
-0.0776908664959148
0.36114498817467156
-0.30545894843737936
-0.3533867895015641
-0.3236788638769102
0.3004820411546505
-0.3832243793690547
-0.04477168781857898
-0.33621737928063106
-0.1899632435428259
0.20265033737339516
-0.3757054592876512
0.407188961941544
-0.18956045356005624
-0.17318956882528708
-0.27940359914667506
0.4942675346707014
-0.41878035832330185
-0.121311878091802
-0.48710630991877
0.16933634955034046
0.13269448738883893
-0.13813255869631963
-0.4230919748959128
0.3669281986087927
0.18651919794401828
0.42442272455983
-0.058246152239843536
0.046380739902399194
0.21160928408926177
0.3024061318844914
-0.020291987933000778
0.07446737410502867
-0.210744511357518
-0.03720425622580739
-0.229972447416521
-0.4827350474415456
0.0626043965513796
-0.17168760752093978
-0.14912349708393302
0.013961138878163559
0.07922621626294242
0.053274453359553046
-0.03956453658111787
-0.4838705515217989
0.2496716197579713
0.3907707935830061
-0.05615376165872793
0.48868949581729537
0.2510703968553677
-0.30342565869716476
0.35717157419656453
-0.14551592847504466
0.111500238648663
0.008490451665786585
0.1369693477132705
0.26990271362966856
0.2662603896510575
0.25010469038489386
0.20878600482050566
-0.3716189891390623
-0.4799795732306518
0.45354146938534873
-0.1959484742664833
-0.10871144133655276
-0.3746759935636302
-0.2719014761820264
0.02644646506587142
0.06352171865336827
0.3020422473160084
-0.23781476234179513
-0.40078769740448483
-0.3616982445145936
-0.331944535108982
0.2881528018563848
-0.4285349971898999
-0.17589810921012733
0.006547846184565066
0.01516520187563091
-0.21390781447586601
-0.33108880279752406
0.3181044097316357
-0.3983379151631806
0.07767865682395855
-0.3682478976920235
0.3289006163524675
0.10314359782662612
-0.08745063531366755
-0.4808818625626617
0.4672478723100408
0.4725689783280469
-0.011097987065577911
-0.1374037085976696
0.24262132825935204
0.07901760456702658
0.4000543400413039
-0.20796048845919674
-0.4172596336820514
-0.4740674251223743
0.16123593359719762
-0.32233264916761883
0.32686446588970275
0.49060751774023537
0.19573299883760795
0.21201296229185887
-0.08523066877007027
0.37751580029932646
0.04302648772297202
0.2918355385434491
-0.410280628189074
-0.16134897518270672
0.31435620317163093
0.45374642659156494
0.43592920995927026
0.11278686190959325
0.30358672225376243
0.4750374312102935
-0.3043751767433391
0.3592280685572601
-0.05719518839416194
-0.20302275810592685
0.08088333881025174
-0.15052256677855505
0.43352081622028393
-0.12863059718530281
-0.11967783071184496
0.36380787788411123
0.2537854278381957
0.40671321804141014
-0.056899399197721835
-0.0720229425225789
-0.3583491374688885
-0.18299490958535256
0.08333316502461509
-0.43310670679614865
0.44363730255979206
0.22863473473030824
-0.20908984503922068
0.14130682016128576
0.34903473820680764
0.3621035885281814
-0.2980157955453336
0.26973075218540216
0.1786817614682881
-0.412241919137642
0.06487186295698306
-0.3873999515789537
0.07472773625765479
0.25946978999538395
0.39501419262467624
0.2556815847704566
-0.018097208267207142
0.34312237323393063
0.09581848132488276
0.08695299187003414
0.13019868194044518
-0.0892174404315456
0.22307177134300787
0.3406583020417751
-0.3855703357361242
-0.02128315114307566
0.230591064629283
-0.4491450042509233
-0.35702187307048106
0.05481053303129076
-0.0427354834610619
0.391494848301375
-0.4772613447187737
0.14308867068625536
-0.41113578274836377
-0.385583495975347
0.4078671792085573
0.11373782712672979
-0.29372324216577655
0.28692897970408765
0.04493808513286695
-0.2413504007125193
-0.39904680034581713
-0.2841669495852679
0.1786732067934334
0.4069786462656033
0.06001204951025639
0.07917411347886036
0.3374608240008028
-0.32061209781755023
0.09752549066481395
0.009111924688057146
-0.313516583843413
0.10312571841674248
0.38040548777371413
0.21364823898907562
-0.12283231916793406
0.01403563711913403
0.2505472765370452
-0.287141648910788
0.043439947352436704
-0.33717453398660135
-0.44211970777489573
0.4448497334555479
0.09304894488015625
0.2505415669050647
0.15492441208699856
-0.23324438935193095
0.2918664753130211
-0.2969123293567224
0.20733158705508245
-0.46467408307535824
-0.007410553989992219
-0.4383728164057593
-0.03173126240614314
-0.3751036485222031
0.06809519974930335
-0.2583426426896552
0.030605218408821775
0.21124853542569444
-0.3218966006561721
-0.27600365406694466
-0.08320870198527756
-0.23035425331395354
-0.17768739962073932
0.23413133135263423
0.4344015290718627
-0.4515649489323374
-0.07631958195132021
-0.44019815114781463
-0.4119014998593259
-0.3509703658595065
-0.37512076395774624
-0.10269937844985326
0.019472203036385756
-0.2152383615102994
-0.0020029845048019817
-0.025215123798705375
0.2973736801554341
0.07935852793269146
-0.3721204446885303
0.19892797522571706
-0.17487922487616311
0.2260652206426819
0.10160133031308184
0.09981111902688425
0.3373657061793053
0.34618798775669607
-0.37750286150017315
0.0028576133727924043
0.11522212809688114
0.4300192358724292
0.009737679005802736
0.39450854976140887
-0.023483753800929385
0.3448009260095436
-0.2350667359145416
0.19265949781657846
0.3654116020976997
0.4659799898822142
0.4639123291596712
0.20814640985896468
-0.3342776842198281
0.43569930675928026
0.3562135282283817
0.14365191038251504
0.10962492515866881
-0.09597122003780807
0.006446770158356621
0.23046638877008202
-0.4361612844059728
-0.18263640878936005
0.41438161368022464
0.2294843404093899
-0.3516984600404007
-0.1970800321276458
0.1919726669020768
-0.19885733053785365
0.2437044880901483
-0.09105712633221531
-0.18476420254878725
-0.10089466166571857
0.22763483706938403
-0.32927244325905547
-0.34820729844431114
-0.13998371185203237
-0.1431191610026358
0.08682663468696222
-0.13241886386521345
-0.4571404846284437
0.5042040441165473
-0.37311995270333737
-0.4033585130007278
-0.12640332826271555
-0.26003300824251385
0.4941030879179771
-0.35556257675835173
0.10837512223041411
0.22840909676152701
-0.32164971768155676
0.051594428146366444
-0.41381785133092214
2.3482230627067224e-05
0.47759974554946
-0.14683232806465452
-0.4405784554090213
-0.005526960516328016
0.25039010850502824
0.1480519977562161
0.47416844032714983
-0.4978124769467196
0.3549103679861483
-0.2768648324721837
0.3910260252007204
0.34664689944523097
0.4240871276640801
0.08887764749308039
-0.22135687043387367
0.08016729658069142
0.06867446938542252
-0.3751930600220638
-0.380311313256724
-0.05865864673360608
0.2851642435760801
-0.46080120445290434
-0.4092663506902858
0.1627952964046979
-0.4719121303213864
-0.22408026664939745
-0.06712428658709368
0.12917262344720717
0.10719169139781064
-0.3467416169342155
-0.16285575107907463
-0.10240031379113727
0.3585520710467047
0.21790258122776265
-0.46025019246668347
0.005213950249541393
-0.14001665582799439
0.06575377902735455
-0.06571816337406393
-0.22819471628663474
0.17261758372998837
0.22557958254830993
-0.11718663121721815
0.07424816327033865
0.46851564205826274
-0.18218333796551037
-0.23616834468244147
-0.012726707234639848
-0.08545440446055266
0.47600328958180116
-0.1160268256913481
-0.2845810543381327
-0.3762914023641402
0.30387599586775754
0.28205042006789816
-0.26987755127388047
0.22622504078464073
0.04408488110582351
0.026243795749064647
0.35229323825121617
0.18712548837468862
-0.3892086031220945
0.11329568873696957
-0.06565207899063713
-0.11168935188178492
0.0003888736393618483
0.08287697734262527
0.0710904467082158
0.06764561077514655
-0.4363705613136822
0.2592593235394367
0.3523948739000764
-0.3564507545891455
-0.12885226406028427
0.09784837467088776
-0.5162643165279132
0.46240512602220435
-0.2676635861216019
0.19933437039105184
-0.14514858794226954
-0.005699873988501819
0.4934283433636643
-0.27138227603647774
-0.37143222048766794
0.05587219097628394
-0.23532014643365287
-0.4197453361063597
-0.44487217216482017
-0.2553187017013905
-0.3724025746766815
-0.15177734001920762
0.3510121926895061
-0.1288218163902094
0.3778531848527828
-0.2923381409873512
-0.17712614537312873
0.040340226597724384
-0.06892842705134188
0.13087948795814106
0.19608796654604302
-0.45167947322503527
-0.2560830818319903
0.3267707628651104
-0.24653673410701055
-0.45740954520350613
-0.25350907989239174
-0.2736617127080027
0.13150570477863383
0.026859442294629474
-0.09902558156408588
0.337456283748486
0.3766542863392963
0.20081062388227036
0.30536281366522755
-0.31611791280056545
-0.15225397598668228
-0.1538307802822626
-0.21409839258167732
-0.3977319145716658
-0.37833713855418516
-0.06008213922979231
-0.24378238540840239
0.08258236172944851
-0.5023177577046986
-0.233879481561953
0.36288243035178286
-0.15967639980598544
0.16463931627470246
0.12346129363809395
-0.09362194292425692
0.16195502128284878
0.25212621897132576
-0.47508450935297647
-0.1648509202308981
-0.17183160048026122
-0.3022014684185223
-0.05706032774912269
-0.4614453649477602
-0.1591115546892371
0.3662948522128901
0.06452619919118549
-0.2937176681024419
-0.19333104898466832
-0.249213661108229
0.43971008104711357
0.10470121011031383
-0.005598396455369607
0.49786661513870023
-0.44278525767652616
-0.04481494918766436
-0.2401258948956112
-0.31817946648185946
-0.4206548946910055
-0.465050550870308
-0.488044289887641
0.006785659625599547
0.26151894912870566
0.12945298289152865
-0.4999519561340878
-0.3563931388471896
-0.016638926344845234
-0.16641087020156958
-0.24398214737101162
0.14116721828314652
0.28264240551287123
-0.14932431540546365
0.16211556756626933
-0.16741966846352577
-0.31522225452162284
-0.2078589719183363
0.012938138412039365
0.09590469178097696
0.358983425591104
0.38042259573577386
-0.40732666318109556
-0.3617836400755062
0.39334271515641306
-0.4752380312465144
-0.2026576889968798
0.013484925928299878
0.2257539310883587
-0.3742302810659542
-0.2253199199755774
0.2818145859836027
0.38306803369207576
-0.08387392758639559
0.4770680158679117
0.06277297915579172
0.24634443486049368
-0.23566277977454447
0.048201778946274434
0.3530452646761144
0.33419956132239553
0.0909323773052853
-0.03019070378530694
0.035306450410778935
-0.12023850344313748
-0.08749313868397808
-0.13374337729093147
0.0985796528357329
0.35456547133474015
-0.05258394002044391
-0.2310016701826712
-0.4176038760791049
0.06364378685035683
0.2069427163774839
0.16112655013523838
-0.35221325616983123
-0.4195524993885245
0.3691278181714962
-0.02095551195525122
0.10454228204867481
-0.44608932966213466
0.1813467732900559
-0.2493384580161903
-0.30508170994155054
-0.09467975581139004
-0.4838268173944483
0.25715011330240317
-0.34495508540588854
0.28560146337287934
-0.41116933445909787
0.18703722103741813
-0.04880460736680741
0.478419061701705
0.22300090836701916
0.17127833463034015
-0.20674270900004227
0.3795268937133683
-0.10123559463254145
0.2995587226956488
-0.015141814935597513
-0.43719810486138994
-0.4541368272252498
0.4776240012529779
0.02508498810589875
-0.23000858130045695
-0.05407592375546658
0.04034867559833725
0.010680864764779203
0.37279249893361477
0.4195201348522991
0.29525248884930466
0.29400166634050023
-0.053453724342568655
-0.4338941082413083
-0.0945909940997594
-0.18839945491463583
-0.3454509756314902
-0.00385229614689687
0.3331702520008666
-0.17784897513527
-0.19843270374933883
0.4031566590299522
-0.2006159606163537
-0.058389472887716204
0.31137800570853785
0.14158575300429282
-0.05295573908877073
0.4571375323411985
-0.06316647587102232
0.46158991513408554
-0.010790833005972257
-0.4870140745207469
0.32743033192132276
-0.4786975368310306
0.2832926822102174
0.06625479340311884
0.1665107425522396
0.32424666912221173
-0.3204955918633212
-0.27509642631808784
0.08570617611993199
-0.014174785567015322
0.026108869432236545
-0.27285175043921617
0.2442770850439056
-0.32643531744681775
0.009574853886218197
-0.0991808086660439
-0.3061569345784886
0.2808325536405052
0.2155031584376597
0.26041778073538163
0.2885981958704015
-0.48098693205640786
-0.13363049322243828
-0.18527538935164561
0.271120369225624
-0.05491908395102648
-0.27490774520832767
-0.31227372368615675
-0.11210189890657667
0.2555121399206103
0.3748715513549357
-0.4268339706244374
0.45981925840490295
-0.15811774535038478
0.21721543473047905
-0.32187981671260263
0.11883643716921807
0.35516322953114837
-0.03137050882706908
-0.4879939161993638
0.40961549804862357
-0.1839714380990926
-0.42103730893074265
-0.14188149789755589
0.36187488610314456
0.22123381847189963
-0.08332724381631246
-0.15316782844122523
0.11483910050802902
-0.24520411271850806
-0.3712161233195972
0.3147637210017762
0.14657050624381787
0.48096537813495976
0.2942357796450231
-0.05241939978721888
0.449877565303479
-0.29970536788039015
-0.1924184410087322
0.010826645675980356
0.47683206530714967
-0.21143859246855085
-0.44319314778421326
-0.23640590527457436
0.09556580787447941
0.2818697437123647
0.3432334285159396
0.4712218584660544
-0.35587555474336624
0.18436337926769011
-0.17844116437207128
0.3321856982781355
0.06950543214187152
-0.4639196505395573
0.014863996976031203
0.23815399676861526
-0.06432755963148408
0.42434665617438955
0.03938821784887874
0.40051090518646604
0.10688081832316501
0.2765573345724323
0.02721139087756287
0.010478353282660412
0.3900379326424104
0.27740201917898105
-0.18341264714094974
0.2019956764798517
-0.444732755363074
0.456960893168727
0.48562679301797834
0.17830168414079534
-0.22505429249936
-0.3245426775023822
-0.4885906101222204
0.27813507161056117
-0.31333717762461755
-0.46192583197752685
0.07980441448903634
0.36310591782686813
0.05542555600016172
-0.08753733481080143
-0.2944734629522176
0.3697361538994535
0.4694395860302203
-0.318555470958822
0.3524238005720222
-0.02893578154665025
-0.14686314627628055
0.2327084495188227
-0.2783271578960161
-0.17438659631720765
-0.1188737138541415
0.4394842193343639
0.24187900391570175
-0.1644003843622625
0.29829558006350115
-0.053550853775200226
0.43736849159476354
-0.1988548955652358
-0.3838373108683283
-0.16426008105628417
-0.3093501103532256
0.18690968560816906
0.2249081335621609
0.037403049318141576
0.27538050945418974
-0.39157641544701
0.2966637072451025
-0.10389002519906598
0.10798257198895264
-0.351086252387408
-0.41429592387645847
-0.07429686003354646
0.30809483419172207
0.3443745738416723
0.07124861762731305
0.2593077793727172
-0.29712164656890794
0.03979919930691602
-0.2330118930644402
0.4201811793638956
-0.3921409642311313
0.17933721182112752
-0.317129495880541
-0.38154080368922566
-0.1447318008600722
-0.16366372736852006
-0.17926752949911257
0.04428548441563069
0.12260460741096751
0.05308035474541138
-0.3494720504451419
0.035112752164654586
0.4429061361163688
-0.20361901454496803
-0.3045091287021872
-0.3738538011855286
0.4145986708620092
-0.3587578237115671
0.12116858511924579
0.22824488822020572
-0.2783187007369771
-0.1927221193085987
-0.1556550988082853
0.2770499671757455
-0.31590319794762906
0.4377548131171697
0.4753635188214559
0.24235715584837184
0.3277474077178371
0.2667425586856401
-0.2136455912338209
-0.1904254920872877
-0.4552955775018025
0.3263671088850721
0.4755702232717713
-0.4656995882127943
0.08382779045697598
0.22271176407641838
0.08839732092165746
-0.19978108292265356
0.3493952288283034
-0.37432658186999695
0.4426059185824766
0.12474299486891392
0.36415378522757647
0.026251756816420682
0.21668901805143095
0.060353696553508036
0.3169819871166504
-0.48073604986258156
0.2362568798625519
-0.014763155476964692
-0.00974273289607844
0.03875781486926247
-0.16969816185899322
-0.4309787530753678
0.119886797109255
-0.016845607775122538
-0.2462289275643618
-0.06078167488335831
0.38925987678304513
-0.005291293257041481
0.15664767248527048
-0.33399717062660833
0.21659116698781813
0.33816066201851486
-0.047082079847690084
-0.32280700467040546
-0.146737586632816
-0.005942218977221966
-0.4905372513511734
-0.3730365557550314
-0.05666948504979318
0.3670096544380002
0.39459985119800667
-0.16487292037816934
-0.027398698408262315
0.2915065158469537
-0.4581369646617118
0.40045021904061334
-0.11934254769078592
-0.3472251893397229
0.10264463134344358
-0.09698669801577191
0.14876375728334434
0.03048442732901522
0.3068821384043636
0.06394079907940428
-0.4925183145388231
-0.3258502043914291
0.23760645892465748
0.29728350833179107
0.29934733769295413
-0.3486453063009446
0.26209953143492265
0.30380465450504424
-0.37648101616222873
0.0875094289845178
-0.35212141496118216
0.4110510860204634
-0.2763910312555023
0.06232840702854684
-0.2585388260038652
0.35586136693537207
0.04151737303545287
-0.27149848547877287
-0.16413055738555052
0.3537203738911814
-0.14803715899229286
-0.3160500429800457
-0.34753481377411893
-0.42514489740779254
0.4486038882019775
-0.2969541446680614
0.3202963885829541
-0.21257041784275563
-0.0005609529638319609
-0.33874546899618085
0.26951499939743523
0.22727166927226478
-0.1220163778063028
0.23467229872088816
-0.10634726605723789
0.31751501092206946
0.1358631529171219
0.46740424436141564
0.3362850271311697
-0.004531033611039456
-0.25291958202514675
-0.23205291514927404
-0.2717144771267132
-0.4169021811704401
0.1593740034441005
-0.4517430736790904
0.198808211566598
0.27540857554686826
-0.15600299036208806
-0.3057222546359314
0.10680056202353044
0.03779950848277895
0.2502329434082105
0.49936311874230377
0.0028116368641322538
0.22573459906234689
0.3134550993538799
-0.35052702737678815
0.0953904686005069
0.3921205981418646
0.43711766328380197
-0.4344211415170842
0.42307205000489473
-0.4155736866230076
0.18473517001276987
0.38597387839583613
0.36809593542855756
-0.4105453678618185
0.31659837006822134
-0.11847857376925074
-0.18155225453753748
0.45327494770950877
-0.35673996408246433
0.2960457501912088
-0.09442024560824692
-0.3335351782460823
-0.034617584215484686
-0.2637202349004917
-0.27173143910214004
-0.41832719083362735
0.23122157064907012
0.035452372822790554
0.15742542443942736
-0.010115183990940876
0.33995033748019193
-0.058337308639450254
0.08249707229336567
-0.4940911811408225
-0.30076634687564197
-0.11067122296581838
0.39435406820981606
-0.24663456484232882
-0.4904340279762209
0.035315480949529736
-0.3512659583270709
0.12481016314919118
0.3456808029569374
0.009211555887515863
0.043803540231018526
-0.2085246463712505
0.006146747500996769
-0.2134471634777099
-0.15582542160150828
-0.12647961978248623
0.05437582885089368
0.15263531894353355
-0.16135805275939089
0.1487569217062479
-0.08936513453824423
0.22740192741603596
-0.42432030405218996
-0.025663554495139417
-0.0803144755262258
-0.3458365356614765
0.31030115527463126
0.23068401477706363
-0.10417651757698664
0.3256736151745983
0.1445839772695743
-0.008208589985400064
-0.2518105346287129
0.4240641299718939
0.33429480659553684
-0.33096379545256305
0.14774219118193113
-0.20117158502557272
0.11816756178323626
0.4938966928178106
-0.13899414056041126
-0.09608463443496007
0.2862490733670452
-0.32438402198758953
0.20250848490472625
-0.017436013398497815
-0.4271796012154934
-0.44337790979633335
-0.3644123495364997
0.2812327190270169
0.2907041643500072
0.46214391324448256
0.36242956378048446
-0.42913217779538365
-0.23426575366193578
0.05443373965091928
-0.010396759121020598
-0.10644794155687375
0.2987194979616701
0.10554713144705086
0.030680604612656922
-0.22789840544729675
-0.32899908187537125
0.39648531365708234
-0.4722081774414363
0.29187889773579173
0.3232344394290572
0.08138351113011766
0.03180530341691571
0.04367405609037039
-0.470855689061033
-0.27192551227026973
0.06809462270534747
-0.43971760673949933
-0.28689484909644203
-0.09567699815775087
-0.1476746817984881
-0.4251751492859169
-0.3103333379895613
-0.28056075769815486
0.2157774624107709
0.19312797556207079
0.19110034696429806
0.4793934220513479
0.007960031040520054
-0.28250975416434976
-0.10561811185800411
-0.058482727756828806
-0.21853222973948785
0.17413204888125652
-0.47840947675475765
0.13108759569994388
-0.3737461746442879
-0.3603881222275212
0.21589924847999795
-0.014142483778357437
-0.38288345773798094
-0.30953955484371354
0.4137005063455049
-0.15250789809954338
-0.4864000497292472
0.06309873221420349
0.35716341604902263
-0.45269029080194695
-0.1611639802262756
0.44956441049230594
0.45028724016943455
-0.13052278140267878
-0.014409460233462998
-0.1056986393566351
-0.1806012220889179
0.053624628220491855
0.25675483444833375
-0.42382054251794976
0.4338628157953977
-0.47974153730746594
-0.17365127718594178
0.07406778741794715
-0.18223430972588647
-0.4766344997432415
0.240587503772015
0.05334349186545325
0.18462228718163043
0.2978454753120384
0.07607698617153334
0.23170782647390648
-0.4014487137558345
0.44698518330808806
0.3372945977732108
-0.2547676471726931
-0.43806962667038846
0.20209185814167333
-0.2001395084575503
0.4803959855342421
-0.12575653015666996
-0.22004609360657926
0.2755269654977255
-0.25369660618090284
0.36864181720476435
0.4437532643683758
0.35210068436180036
0.15575759919772972
-0.13302973095021972
-0.22492692099116823
0.01346183162048569
0.40523784109298683
-0.4277853344359353
-0.3298125081913844
0.16503179380766672
-0.14405191504095333
-0.15327149924742142
0.2239324036766688
0.25772905100317883
0.11481627196993492
0.17582323262387622
-0.0685963911204945
0.47612839659069217
-0.4674811911372772
-0.49315081522383303
0.1308156660908504
0.08443903997235983
0.22850707173564494
0.13046149904219365
-0.3133300970669706
-0.10246574309514457
-0.2572287592124731
0.41863386165136873
-0.1390840381065415
-0.49563316555043174
0.39715368970874076
-0.30584387038617883
-0.01651438300407598
-0.20769775204761792
0.07129777553832702
-0.1981724728713403
-0.3769036326139981
0.05979335906701152
-0.21148458155818214
-0.308115556482924
0.07492975853534642
0.0700736662575098
0.4807983937290797
0.4948576400585148
-0.4647058889900883
0.1331123229880332
-0.37763085558981657
0.13934814518585306
-0.4213424487522208
-0.1154180537183973
-0.3745651432321011
0.47238706242782813
-0.2622910162499688
0.42677281081219115
-0.3711458091073522
0.06178545463623682
0.43444444296286416
-0.2998475712348393
-0.3488634242310847
0.0983367123007876
-0.41799475396379887
0.4033340712729626
0.44183043128559074
-0.037214282840083115
0.1529929369387797
0.4756979510244144
-0.12882449906949245
-0.14173873509584742
0.026760320981145846
0.3210732160538367
-0.3500407378860686
0.2318126730033765
0.1659022465005408
-0.11415640703967148
-0.4044855237007091
0.4466711567151393
-0.28147404554126
-0.2091921408707882
-0.17573366057585804
0.4812169631187621
0.012808892879124905
-0.1864874958658118
0.05350261465249819
0.002456162347139769
-0.34519726604906686
0.11845431994278269
0.46107526742653415
0.4009681342880889
-0.31520313733131605
0.316683628488025
0.010861750080686424
0.38954106224742385
0.30438480935014695
-0.2779959144011704
0.280374550576011
0.3240743996958074
0.4631740537439379
-0.33340027974578973
-0.483178648238757
-0.11096269080890037
0.3225272154903415
-0.2622199732917161
-0.49544614340539495
0.3763108576352291
-0.12430710211739311
0.16163092803161186
-0.24985927650027295
-0.02960494312530863
0.007175276543297319
-0.2107180974032566
-0.4194139873818683
0.396640789043541
-0.501319218162965
-0.044244112122623976
0.06936486888304612
-0.48193949584285234
0.4756479526874095
0.05957541395231846
-0.06463377487327736
0.40203989932167694
0.11458228135047928
0.40078168054783375
-0.2953838165601388
0.08702212655526174
-0.17253874414585135
0.15592000000521322
-0.28087280585301994
-0.017717682926815016
-0.46970807655299984
0.4055996916690095
-0.2424561241979661
0.2840353828614084
-0.30841477561357383
0.3961961436458183
0.2202175778708721
0.0004636641722851086
0.4480662982592858
-0.07906060290732526
0.0884732803869313
-0.29323375722726175
-0.1665466761958132
0.4714354738430196
0.34238389052316526
-0.22747659366314404
-0.3936509890212013
0.494345193125024
-0.3161383525859673
-0.45539223045932
-0.1122716696791732
0.11578538526592227
-0.46581875457051686
0.3526227317096193
0.09408251768230907
0.36643769264354403
0.229472565359061
-0.19489559654112756
-0.4901715885458694
-0.04681126233709289
-0.05724678342172729
0.16072359532144434
-0.4592808910221048
0.28067764888299096
-0.15559671975584136
-0.4793403768785228
0.02838597875661618
-0.3610102150930807
-0.4461682210850253
-0.06878540604644968
-0.19955655581335077
0.07990210823117369
0.3790625574093505
0.3688200283675082
0.06041055226215443
0.4870905848238979
-0.11905984731581148
0.29547685697937043
-0.27612334003358474
-0.18782356412665824
-0.07957781733265976
0.030872687025513913
0.19996762207705907
-0.01414966940457335
0.04240468603765819
0.20027537292795802
0.23786943526963225
0.24558865143627012
0.3476511471112066
-0.29321898248239936
0.2948387183224906
-0.3052730683833685
0.2811881829388199
-0.22734245372900064
0.3943171622983825
-0.4183354992080412
-0.43339239017001346
0.21168616401291204
0.4345353705619601
0.28026864309304605
0.24753543046910964
-0.47180639841176225
0.20647898499567133
-0.13485115276486737
-0.14469527005400387
-0.1364278072444196
0.41387617643660496
0.4583169950773149
-0.25869698181712536
-0.46977459386216613
0.37704970339710075
-0.050130719310288584
0.055849738080743894
-0.015880446012994463
0.031016707438782515
-0.38060941798196274
0.35676638830190205
0.07126663011396502
-0.008520197677295956
-0.22672384144691865
0.3275251644827392
-0.4092651003548816
-0.36146896158695846
0.028026810244715594
-0.15423367378084765
0.2520471479124496
0.4104527533626539
-0.0740694033213732
0.48069746118368895
-0.2894063198720242
-0.34804683644089923
-0.3736101846905578
0.021997652689197827
0.3747783149594639
0.2131558636107232
-0.30635185243802515
0.2614247479813613
0.4016249655164096
-0.1922818849827811
0.24681282255681794
-0.4336239413127052
-0.3933498057969099
-0.2272269133943463
-0.10160226420891522
0.16820549720672218
0.1617793398644394
-0.0192549977338979
-0.1998629106848525
0.3243130781538369
-0.08473464663434523
0.19153721632251386
0.35029152702277194
0.1983619077469205
0.40986617947608983
0.3592203523951514
-0.29771936763100226
0.23269904742821004
0.2676624691703111
0.029525519402156995
0.016126806398369907
0.2806103406066334
0.23661266212148938
0.2063437712000783
-0.5059993250922958
-0.08396574120299577
0.07647769415584203
0.4012322242995998
-0.02935509527881134
0.4310616321456179
0.31508427988330573
-0.28734260276081286
0.19426742852076487
-0.13956347974657624
-0.41091065619692924
-0.1488578471880466
-0.37179524154172733
-0.42409997356964463
0.33234274213337006
0.13630508512456993
-0.3518027965368199
0.042624960262930216
0.10445493851543222
0.0213173881997191
0.13929515947881418
0.03507176572199242
0.4099142310551568
0.20223144293064882
-0.3621217740454878
-0.4390785532313824
-0.36876341872710905
-0.12286868166962955
-0.4820614937373708
0.21406547399248316
0.4124500079051979
-0.49726266600495594
-0.16224085776408564
-0.06481558859098119
0.4199661222896059
0.2050683133028014
0.1750983460368118
-0.0631745404500351
0.3513922146262587
0.0660390777589246
-0.408203179475407
-0.4179785396263525
0.2652095114119926
0.35851790051767457
-0.32548277261088987
-0.14539353600019952
0.22501047426082282
0.03958013350121442
-0.470285632737457
-0.315224637075846
0.2933457586983028
-0.1246708799918893
0.03969925857612399
-0.24276596564666011
-0.35144533920079557
0.33972057274328293
-0.10280516782743875
-0.04556699055028035
-0.005306862974381443
-0.3690940745022425
-0.15645140656592188
-0.22549079703934793
0.3205070436030952
0.20487678521136246
-0.34355909980568905
0.48450868468336517
-0.2383412767375377
-0.12798348598780473
0.45897544386628714
0.12143314025480856
-0.2676608086301848
-0.2429871610369347
-0.045855048616262065
-0.05152326710837214
0.10514287832662532
0.24943241706818767
0.30298587220382955
0.3045259087971008
0.45179346218647726
0.26316931475367666
0.2791638880017013
0.0976110615651809
0.32702241910622504
0.380704090394152
0.26518883327875625
0.24028125468117192
0.3729304441347076
-0.34629896627384643
-0.09274195082151902
-0.4747982911736799
0.08511803191532971
-0.4382174506889499
0.378950516917027
-0.20787660958423948
0.40740393676720915
-0.3901365712143587
0.2924714288283903
0.0693522231619765
0.1596059211850789
-0.3748596809199637
0.09153790096000661
0.3539098228690388
-0.13373127957771075
0.22759182880011436
0.1460086898918813
-0.2868292174938321
0.053133258437970544
-0.1309459506028311
-0.05517730040675486
0.3358590975912614
-0.47933621182783226
0.10998206279049991
-0.4841601455389617
-0.008041891353833463
0.2606759488482753
0.30673819149517445
-0.0008662158492373643
0.39244069387753133
-0.1961686041965827
-0.2439465091859044
-0.4267969613017518
0.16907882252629677
0.4522401696998554
-0.3187279211675944
-0.4451436501271564
-0.1454897372406614
0.2949095510889848
-0.32706870941148863
0.19908762247227202
-0.19949130547723903
-0.4289280190501054
0.21228140222928038
-0.25922203496134194
0.14704606079378726
-0.36394258855694056
-0.4532841559370299
-0.2398936817748065
0.02297835281163878
0.2783288861402687
-0.029114757745263634
0.37850303995571905
-0.4153776671703314
-0.3191944395886657
0.35755865284635485
0.09025740842324834
-0.4726462597353962
-0.278364045864165
-0.1008961323229942
-0.06070317478165022
0.18198435117970577
0.3138653518952435
-0.19095817226499032
-0.3061496558938726
-0.3251177800324214
0.38919046356523024
-0.1398286957816867
-0.18549280043783206
-0.30645330423667694
-0.10100374342502665
-0.14594975297228857
0.38498040902991526
0.1947788044846825
-0.46349943411365907
0.45486258319604667
0.08067221184978078
-0.2612192555312268
-0.20060800367708628
0.2590182927057524
-0.41971902854596865
0.43739811084587454
0.47855367224811435
0.18707222718960564
0.39252528410088205
-0.045649156673067966
-0.07583812772587671
-0.3086519659088766
-0.439911300027765
-0.06645448712818294
0.28816559966434135
-0.22484568323212023
-0.03005798064219516
0.35366485613162285
-0.48393467972136617
0.04130717519895271
0.46577959090239385
0.11271625692567407
0.022344430623600378
-0.13977947184234665
-0.40287519601156624
-0.40967518867647057
-0.2872866135080177
0.0388766915595339
-0.24098193020598804
0.07945083661061923
-0.12392566117527767
0.17609427154135263
0.16003830838114322
0.132968392600265
0.4731562020808381
0.19313467881244875
0.10577687928500223
-0.25189632532717876
0.07282767173344407
-0.3382722976705507
-0.1554260182839596
-0.07231420326472701
0.21417660069443953
-0.24324966258000774
0.09386326215848988
-0.2510695341728374
-0.39592133722821016
0.4955176173154105
-0.25273402806512396
-0.46504548037251925
-0.3317456419320776
0.29422488016865855
0.46909218042726497
0.36377661867159616
-0.17257212109312364
0.3459127058005205
0.036111830471940255
0.26636544566995335
0.15831182894363294
0.3896714139896284
0.13001984116521736
-0.11109220678177134
0.18158101026691495
0.4116026058864859
-0.46107017657593835
0.20924128157699898
-0.04722486140248083
0.3366514146923515
0.339891727138993
0.2414467753290522
0.21514611213136403
-0.03846089859424443
-0.08378023452291998
-0.48520454084768083
-0.3784558536980368
0.10612167229073369
0.3866068688637496
0.14975143288649345
-0.43825935649075237
0.08006571121272474
0.30859205478987367
-0.0794992113728923
0.3783074131521722
0.0806170477706184
0.20844259178733235
-0.38771830422840625
-0.1537946695456119
-0.44798538763254553
0.4702928268512504
-0.18564246152551792
0.3287103874470313
0.30179292338065444
-0.06939360651524965
-0.13148167964367571
-0.26158762330189134
-0.4643720117850736
0.4635874226543304
-0.3372337199004752
-0.17015448193129742
0.19452832920664578
-0.1684374141503439
0.38822248006479215
0.3697045179660157
0.31683139071514854
-0.2715485894111654
0.1577122888257503
-0.1895050511159877
0.33096844273228193
0.43578642903536285
0.2638346019726032
0.15234325956373654
-0.09522861247077384
-0.4796458500983031
-0.3670011238552336
-0.030419723643883834
0.1892034069143105
0.1596480504724236
-0.14473645804229884
0.3571267124226781
0.10084846864237834
-0.29568372313931923
-0.4733608577044285
-0.4764470922824893
-0.20218828006036343
0.17847989271139247
0.22285601499517704
0.26390091253874487
-0.16453346024159476
0.38461641265460284
-0.14500166868267872
0.35915980646909124
-0.4083746521354301
0.4924778604839295
0.32978475399997087
-0.009692172413016056
-0.2130952842680314
-0.2108293176528883
-0.22560327573511008
-0.2973765173530664
0.34853637644456764
0.3032259497033369
0.2399676359620662
-0.47485894665288725
-0.3355816404807789
-0.4992588674196086
0.3758389576442469
-0.4464851114772174
0.25833995436328383
-0.17484066497677064
0.09680089265344237
0.26543580574872755
-0.45530204652238276
0.2745465820203371
-0.2731980166961736
-0.48473211696548235
-0.371345696601726
-0.4411867505047109
0.3560709010770562
-0.3337865358644851
0.19056230846583094
0.19259421212637
0.13952118632079372
-0.5036366811305781
-0.48074808129714824
-0.15458585289379892
0.465485350154211
0.18655121923734178
-0.26730519855873963
-0.08115340518139345
-0.20689786241737187
0.1085238294998506
0.37051813013587287
0.06600388189917103
-0.38040610476882625
-0.12679860761632944
-0.4146634620569939
-0.3860313151307071
-0.03474674181011089
-0.3817173744441917
0.2461011083985775
-0.37908508162377624
0.23332512300769054
-0.061980898273809475
0.2560458003877314
0.11837295142495292
-0.07134448952542521
0.14838046893123558
0.05164911200786793
-0.0217483578899733
-0.4414332204061089
0.28769415078612254
-0.48733956937408135
-0.05370162185345956
-0.3731141194094569
0.3145797922830711
-0.26948841977629395
-0.04465949663220792
0.4064844395088693
-0.42691576497482586
-0.3973390446287734
0.13441100352994664
0.46690513823549007
0.21743001422352112
-0.42440816705136974
0.25098630790646315
-0.09128694201204623
0.11869437752876787
-0.25386720756438425
0.11641408427826011
0.41571710975473286
-0.49456351259929016
-0.13270160067328896
0.24393473200441418
-0.11509666961215467
0.2334984909250109
-0.2603087927631637
-0.45684572271039964
-0.33145454281315756
0.13143449026855114
0.293429966590041
0.15370617293945155
0.26350375859210823
-0.031530085046109865
0.20066516546302934
-0.43993433730339676
-0.34250556996394765
-0.44649258814586984
-0.4647371624966167
-0.40943593544341034
-0.03159938876781126
-0.33899128085402447
-0.19102187393060546
0.4479293633032605
-0.11618124356143397
0.07579249653642409
-0.38971035668669696
0.3886284113436136
-0.16557129428286627
0.46031984484157623
-0.13001592940891676
-0.3103134046137413
-0.4377455411771181
-0.11834877575328008
0.2750648361886208
-0.23456201017985193
-0.00043944458420613815
-0.1888506806222839
-0.3192346053857465
-0.44096143738257787
0.17431436448760815
-0.464816592105736
0.0016763370145975204
0.42728026952891973
0.40572163190163874
0.3609743871685429
0.46960683762945066
-0.41979440753675146
-0.2781678754455013
0.4575140196672955
-0.12428430190945582
-0.2847694036998642
-0.3330475788020338
0.4730463956937581
0.4450335327656214
0.4482702537884135
0.32582972193062204
0.4672623717378936
-0.3292484374405618
-0.158646647367992
-0.11827554329696902
-0.2102789080737901
0.4865450938804624
-0.16520814377035764
0.12087097120175803
0.3886767245611873
-0.24292362486444438
-0.362499831872823
-0.31714705018727196
0.15802601546306905
-0.39428519595090256
0.16332294170936962
-0.30977627071488106
-0.10238583360659491
-0.17001826652905352
-0.47974432849460347
-0.4749484007376215
-0.26881291884039465
-0.4493601715789492
0.496943711686419
-0.22295289005383326
-0.42591238326192266
-0.4428666910734715
-0.32275000722682273
0.10419861064137163
-0.3913623222742938
0.01136804465368264
0.4613866376100477
-0.19510126497009228
0.024359450908171848
-0.25969701864979916
-0.20307291900842797
0.09450141420851396
0.4206828926714927
0.001985101352647171
0.12957587717402394
0.46771018220881017
0.12654092251204666
-0.3729229717862244
0.13161037949299648
0.33761096854195194
-0.050922851835988034
-0.327134957786646
0.3069255477292392
-0.38186898008299225
0.022853514790185724
-0.08473622568873727
-0.19451305688059803
0.24175987979650224
0.45959628026974475
-0.04373619585156227
0.18770444749048398
0.32874545358525326
-0.16651457526364744
0.2670183768632155
0.0323521360110664
0.0328868715002107
-0.057776197909463145
0.13997788830214314
-0.40306886795883295
-0.2515175379900571
-0.35592452058556256
0.22131913687740015
-0.2512539363558596
-0.08607929930062251
-0.25611972950713413
0.3288460017839712
0.24803636005986535
0.08384746686067208
-0.12346915343474406
0.10375782900202744
-0.2798643980447623
0.18117826487282665
-0.3664812173447269
0.07696926126678791
-0.001782564188247255
0.42608700884009854
-0.1530187319726164
0.03491606802805782
-0.25308833558258587
-0.05762750713063862
-0.4413827950236042
-0.12996555231090795
-0.13933536699412583
-0.2985235365308578
-0.458868764574466
0.06433792874428294
0.055345271166009014
0.06603492934297672
0.26061003990318193
-0.01309763327490236
0.4106712986508161
0.47383699306974497
0.20791908787626343
0.24946102892631616
-0.4657818780925112
0.3386946566299133
0.4446785254356645
0.4392030033954873
-0.48751745794109863
-0.41528426820900977
-0.3421059486459363
0.4129484194819733
0.0918941286975899
-0.3660056433750116
-0.0810872981840666
0.4392474418732359
0.17793801151531752
0.21232720062088353
-0.43388706304669933
0.34709195626747275
-0.2153013765217695
0.006803367575042
0.28778002265034985
-0.34262337543976223
0.17126849825945337
-0.21740581372488707
-0.3277755089222205
0.4832751677455664
0.2324398452638405
0.10230224833942704
-0.30553824823711506
-0.09304735153761987
0.10626418662273325
-0.3237911699598676
-0.10570873609306128
0.2275814647914105
0.3826958779075906
0.46371793791552746
-0.14453037970833427
-0.26402902799020656
0.06202533487433048
-0.48532544237683783
0.4105997063922184
0.3466637920148189
-0.3920172248337742
0.4724142975899569
-0.07361778038655022
-0.22710211969750765
0.2798759038182485
-0.061726225772063034
0.1754562867574776
-0.18329393430597674
0.004063366637779515
-0.1540246296604241
0.4187001804552195
-0.43259609014278005
0.43467608890520315
-0.42170358704194955
-0.13219190385369764
0.17577348040707896
0.4644932755981018
-0.1890001900596569
0.1653906947376199
0.46065736436310994
0.03375245984922045
-0.308925995256023
0.47026921080335665
-0.13453472086252444
-0.06547139841368246
0.10339854349427616
-0.48136982175548826
-0.1405109950785412
0.0038640829954134275
0.046915065879282236
-0.4557662048070938
0.4402168726905792
-0.0011153711918496473
-0.4435655679121712
-0.2584036516631671
0.47435950117428255
0.2050228910195805
0.10225739164628252
-0.3090274654459452
0.16612541898124739
0.36202826254474724
-0.07923083763913699
0.3523363628145686
-0.4707238438895431
0.4845305815152718
0.3993046151498967
-0.07184816057620982
-0.21302084822792375
0.18754205805870353
0.10226280156128803
-0.14043152679908116
-0.009577799174678029
0.1813628134265298
-0.10597274060127251
0.03589412510024235
0.3536644150921917
0.4813815151740015
0.2031053387269957
-0.08435987360003161
-0.2661940589424901
0.382133064842563
-0.16509734355879466
0.3439894150942337
-0.4373046699601481
-0.3780873007541263
0.24189250791912487
0.4392574281642266
-0.4276331457144011
0.12528875667259723
0.014903539214491165
0.314783039290297
0.24034843067973852
0.2114362524140204
0.31242928815295323
0.0877097249974686
-0.2274268938454802
-0.2344842032948185
-0.13370745676712836
0.3056212850491882
-0.39213977951544343
-0.2365248047461832
0.22745207980420912
0.1761842971046118
-0.20449981907993123
0.3450721542678284
-0.07975492047819695
0.3843081891438033
0.04963822195828442
0.3601834875520399
-0.10413594983170865
0.03394300360369928
0.36477716683598477
0.424461036741398
0.38569990166586393
0.25461368487285724
0.21025299888862556
-0.28574405501303424
-0.36939030590545197
0.11415430881563057
0.38577671638359673
0.4245277429138492
0.2589133947233686
0.4055830127552246
0.2039296751938053
0.4640765038250752
0.43483168311125436
0.4009773577258772
-0.06788222964118423
-0.11972781613859942
0.19824999343802932
0.4620062427876196
-0.2235633268978126
-0.36811620794102556
0.47447613069146105
-0.21092337924103238
0.37178938010808565
-0.45044936146322945
-0.4516458407142372
0.2548258282124088
0.2630828877449188
0.06128178265247902
0.22480593085696093
0.4366449943117229
-0.06208313674982694
-0.44893001367727964
0.3152348337604577
-0.41731283056151514
-0.3798438139763465
-0.44515551889117877
-0.08664567814759234
-0.28628562354342446
0.1900374094303804
-0.3851777489538596
0.42995013517696723
0.3483309590898987
-0.11330705319854203
-0.1329959670002736
0.4256192328298398
-0.003694248268640365
0.12206419265978936
-0.3381963207418465
0.15281956522466397
0.14838152706073537
-0.07179263465982735
-0.17490993304722324
0.05651026293806942
0.20863014258771484
-0.36347839871972315
0.2696271039479401
0.4814069517828164
0.12604056781393003
0.40038927289927806
-0.23426720890561864
0.1329364424963749
0.4297894578881219
0.2823272714969137
-0.21568420132467764
-0.17130316923305863
-0.10278137614502826
-0.14386680044567368
-0.3480376607377255
0.4819472466324185
0.08920235224406245
-0.32710414192982873
0.2445192630494044
-0.1935047762070412
0.1098649554906027
-0.032064505602676284
-0.059108930786625186
-0.2763836538970371
-0.0739860332758456
0.43577622167393204
-0.41960735411230465
0.20906361015631425
0.18382340405101355
0.40357530640500133
-0.2288039150989433
-0.2770921933812253
0.13731788614904875
-0.2401324360549617
-0.28918092036734006
0.22662393383802243
0.12313142167234827
0.25331025522123607
-0.3161836884788224
0.48383450318982923
0.22236900610351432
0.17551814761026538
0.11155067417845745
0.11841605506164622
0.12058210593816035
0.30203163812346107
0.3252586448777153
0.4343252622828302
-0.17619457773514394
-0.3610127781800285
-0.0968726170915688
-0.2764637182028963
-0.3468484710739648
0.05004946110977851
0.033241014198974635
-0.22039416062631254
0.2796421608690026
0.2654982324103236
-0.1637091681785469
-0.3692540260060298
-0.07647046255251867
-0.19997564842805693
0.10920479427593137
-0.2405359725362154
0.351780044066668
0.4530763938679591
-0.07125786923866562
0.3826520597533922
0.48190386037707983
0.02549272639440127
-0.09081622815765479
-0.24483883726890657
-0.1562783887240295
-0.4116235141831976
-0.409281232616052
0.25968660908420826
0.44685219012725574
0.2624608070384085
-0.1823694873242391
0.3256266868350248
0.11002423242418324
-0.35478797293373715
-0.12093263854125547
-0.10064005387641572
0.2634170951443064
-0.14184868068255713
0.127476493336834
0.07806465550287231
-0.10906401155182044
0.1528507667414541
-0.03464283953167771
0.22900669940421484
0.11258685931828076
-0.22640324217818372
-0.027031016051204986
-0.06638688909259095
0.1844901965691298
-0.28914621733390616
-0.3287150420847897
0.18369899501984174
-0.3416796460473253
0.19744949847201806
-0.35627839047844334
-0.2671454751701903
-0.47482610713412554
-0.28490925945415924
0.14174260596855362
-0.3156039418261948
0.35140057763760585
0.036268252008644315
-0.3746928892829439
0.24957702420407696
-0.07518827256411856
0.22537872435848658
-0.013961856538931328
0.44378615168763286
0.30141332212940825
-0.31463289743364137
-0.4240496858406444
-0.1034464862502594
-0.15237364605122133
-0.4075466329113266
0.01189248908622227
0.45576912786212376
-0.1878845959967056
-0.4330840326975856
0.28869782693841106
0.2597628722072961
-0.231315544955818
0.33717041963641503
-0.44652896578704016
-0.4200327953991557
0.2744590288195656
0.44792891537191615
0.1637159658519301
0.26135225390707045
-0.36723938162006997
0.3175853546507105
-0.501286416157212
0.4187303712345674
-0.005173125707537798
0.20737310466053838
-0.3634814494911162
0.09970392136000701
0.3931079191138804
-0.16455850932035854
0.2642412440992131
-0.13894302575583065
0.17438606407056556
-0.12754162416097253
0.09450429786510416
-0.31941385279278156
0.32280000936280984
-0.30080766311871104
-0.4466405161334278
0.2889783419254356
0.16332349437360538
-0.14651975443931628
-0.27765229561779853
-0.36733817265200885
-0.18548467541750197
0.008379488335918731
0.46787991008296387
-0.4747791946390292
-0.41713079101120437
0.1579248998143718
-0.4897455249502705
0.45628674718544004
0.4211849995682912
-0.15255665249191735
-0.42492166965178013
-0.41341321135183007
0.49365266070643543
-0.003525726483091756
-0.011366426254973392
-0.2887493412007232
0.08680536006629849
0.12728297398346225
-0.41401998754421204
0.03674683484466215
-0.09661716273711143
-0.38898804968115874
-0.43342690034030384
0.27667976190058036
0.2693657458452492
-0.03527038302787355
-0.04882598072706384
0.02528082047425371
0.13590558376893025
0.38099091710909627
-0.20352225605545332
0.06468438073843111
0.32352557534214504
-0.09371874381319163
-0.04013032035621603
-0.17376296626515517
0.2679117973966422
-0.07232337875298468
-0.4692305356615204
-0.39937655053825327
0.36018967492383974
0.3685099833703151
-0.2621894091196058
-0.1410625149392511
-0.22906434705702364
0.1193538855836588
-0.13465361828646658
0.2543843470802868
-0.08883508709015754
-0.1733814051127652
-0.38772620865523044
-0.10205917501307347
0.4885087655181813
0.05071072367154193
-0.23961055713140833
0.21062480455799654
0.1491737371934274
0.03997558794122908
-0.33167116633724164
-0.5097240970171037
0.06296265889663008
0.1811310623463062
0.4509738773545313
-0.37473803942069117
-0.2948057850909233
-0.3213883196474549
0.3170719035687392
-0.4339795043682364
0.01389450422269379
0.08784250083666827
0.16065008406802272
-0.45973639904057306
0.2250322798512327
0.40673164496760866
0.42558477491509467
0.29078945881942
-0.3737404361132736
-0.16556330161959784
-0.43313392434483133
-0.10787033603351522
0.2801222034544839
0.013741476603841812
0.4189059454356968
0.26292752540283565
-0.36555835427920513
-0.33635710699982285
0.2892819775212148
0.19579433885859993
0.3723593354784941
0.024160011099031757
0.47167329547193126
-0.1754343918667171
0.41094100762372
-0.29722529718711144
-0.4593224376927165
-0.39831144635462623
0.1916105463649584
0.3642453551074999
-0.24009133888031284
-0.5068699817330261
-0.01386586220190508
-0.2855298932329984
-0.21226264950230803
-0.20753013459005523
-0.3129852180975162
0.41773528373847646
-0.39396826268816865
-0.008871641385068902
-0.05590397839897896
-0.06265323173475204
0.07797665668953965
-0.3904449551184235
-0.28755790546545607
-0.4391628540899416
0.4837245864164461
-0.0245807957723209
-0.306849601973192
0.20719857032029956
0.3738891434529293
0.43556450996768387
-0.2976724935802767
0.26612557680072774
-0.17617058959776927
0.3877291366488184
0.08579412622435617
0.5063165232968517
-0.42081448011280104
0.004699503568960312
-0.22307268153748638
-0.49522025850541634
0.3036096496788513
-0.38680191387464324
-0.22292003727863988
-0.17285281376305198
-0.2793686909491213
-0.1501057650991067
-0.4474574912677876
-0.17356276908770008
-0.39210630256091555
-0.27557138549452015
0.15374574078813716
-0.4120897606023137
-0.18468125447901712
0.018465228239588113
-0.28020472028167903
-0.4843436208645752
-0.2259215125010144
0.42490545641405325
0.09799193328919431
0.2167931817113099
-0.1506882286451116
0.2036239741523921
-0.18136523635048582
-0.3336751314352457
-0.008844215562933484
-0.46236511581097123
-0.22796924073791036
0.44152986127859134
0.37994705038876864
-0.23557295653161503
0.44904382335298587
0.15090670620316957
0.17253346436947567
-0.13132172764831265
0.25286815720564243
-0.21164069965587637
-0.06423659561085078
-0.35716859629696535
0.3519759634666682
0.41310874954064936
0.455808882046392
-0.39353623610558847
-0.4314954623416977
0.007746292419251305
0.0478528050554623
-0.033866963174543706
0.0807328937319814
0.17838968204815378
0.4596420623256785
0.32400472850050827
0.3495452016881627
-0.4261317299054778
-0.11273022315192115
0.13818484412161752
-0.0318609151257543
0.12105517661253813
-0.4513297137175044
0.04679390190478568
-0.3656742823066568
-0.13546181173187696
-0.26580614304096506
-0.3588649170608549
-0.05432586267090787
-0.25661846862318816
-0.3657587541439448
-0.21042012058501333
-0.10831652040264123
-0.3787242233508281
-0.08040449669008835
0.3739945013484531
0.21711030902781508
0.372218238718113
0.30780079991427794
0.4582273645372995
-0.3776058713965819
-0.10477523123118013
-0.45309491560949244
0.062368250956186234
0.2204901742289331
0.3225161749035718
0.22488338806026084
-0.440957376789962
0.1341494195672155
-0.3645583642788255
-0.3604355590306106
-0.152153366091693
-0.06787410801860642
0.3423044945485577
-0.43329274994225825
-0.3134020390696344
-0.33582438776724
-0.1548579403975393
-0.14191302521632584
-0.3709111989489608
-0.49239360490071066
-0.01727476101059697
0.16863475813409812
0.44114740850179074
0.11954233078141463
0.004030482233879627
0.22171192880369608
-0.4685722385781449
-0.045533756733373364
-0.47703749044451743
-0.07760497157546041
0.4396627443390164
0.08570806639278362
-0.4973293879429627
-0.4200006833662502
0.35753525679451775
-0.33175230121779126
0.13679172074841997
-0.3046791723666284
0.14644483312679324
0.3957952852290459
0.17186355501134934
0.2521330312627118
0.29121967758772654
0.005649090215143615
0.35248649241057023
0.22012511449634095
0.4776264283981554
0.4006170797010541
0.31980130928318967
0.4328746309796876
-0.2569559223668377
-0.39636188533569733
-0.4726513344442283
0.35759335490374267
0.28797883227322857
-0.13712319700541575
-0.25657787623479394
-0.2109645343604105
0.3073609068414303
-0.1803643037252309
0.052807155572696565
-0.25878041393888346
-0.4536907012586307
0.14014434033824813
0.1036592484604522
0.03956115586963329
-0.09784059573413467
-0.4527453117183828
-0.22537052422753898
-0.46968930765786215
-0.39545268469053807
-0.22460009057608135
-0.0863528659860431
-0.10667810332925162
0.42123612956331763
-0.16782922352022978
-0.23053054512191426
-0.07375664556901523
0.23897751119585134
-0.4047846677610428
0.4651967413816822
0.3909886552842173
-0.1416223975470912
0.37702075829203796
-0.20402802651759755
-0.4519420773939464
0.07734141130126089
-0.3985357557186817
0.03941594978756656
0.25249369779501296
0.06722162199944699
0.12469917747598727
0.12303871884568618
-0.4795241553342613
-0.14620376757225095
-0.27464060352499814
-0.28729202639173407
0.4866987222331732
0.3240406232367076
0.4228618949895745
-0.06571820962759435
-0.3968550386437352
0.36467373142231757
0.4682128092106795
-0.21649314352991725
-0.3565311812102475
0.30128386658989253
-0.045035744958606745
0.1501814123069906
0.1402584407076159
-0.36404741219460535
0.18877768216963844
0.29886809659713903
0.05046609641487365
-0.45797902510178623
0.4150843950412028
-0.45919147634481533
0.277851378156652
-0.4025295192451077
0.3892087430404152
0.38101392482692514
-0.00760932259476552
0.00998055006906944
0.0679533396530537
-0.4985342255835631
-0.07905413552257885
0.4574531870427841
-0.47286375172840533
0.41000829913596176
-0.3417058505346473
0.35030088793051684
0.1251285748512459
-0.03725132363950722
-0.2589282343955997
-0.06908300723482129
0.4951301047517937
0.3331138913080005
-0.3579338946310916
0.3984840363841917
-0.14919703820253102
0.3976278814294013
0.28930029117489736
-0.46466593646357063
-0.0814745114456358
0.5095501034042276
-0.18568041970566054
-0.03533741244341843
-0.31120022195306213
-0.48181771380247296
-0.11174903523043249
-0.20918030501946733
0.08578778181545461
-0.22469461887770284
0.4714150215395774
-0.2029571289721666
-0.21914779709250198
0.228820704083349
-0.1399840790090787
-0.15042597355737317
-0.23145111841692356
-0.43006103978370264
0.41041636878092075
0.4411515798034953
0.42155102185687876
0.20119868973429986
0.3611486012712309
0.14085711623039632
0.05712146963756366
-0.46222866552694725
0.4476494737163256
-0.24805477202507845
-0.09643978317259712
-0.31151171901689756
-0.2787268472125322
-0.4032646460605345
-0.1441046627447071
0.43113578240962314
0.008246418311299315
0.4808472342220933
-0.01810694094380546
0.01572042082858747
0.44041963491356084
-0.3605668650137122
-0.4570355401433694
-0.014476529336965019
0.22621580319073398
-0.036046625809996236
-0.1492022391271924
-0.23826325279306532
-0.4813045207745548
0.2730166392983625
0.1400958123330194
-0.2116949856339913
0.25550523029979955
0.17936215043233217
-0.18786458623827038
0.2802544183250755
-0.4575572783099039
0.21205291590286024
0.0779810481828359
0.26792238797022555
0.4562923845200732
-0.43896555667117654
0.35975733428611084
0.30468318206690465
-0.21133324153166097
0.4500524289909852
0.16897963704614
-0.4334022137033092
-0.0015533717291763482
-0.43648952370881605
0.31746033662337103
-0.2578038025306901
-0.3757992068517451
0.20461539515309152
-0.3060160573652423
0.1878420861039366
0.3195482866836097
0.4270482897237715
0.2694529644439697
-0.06015783320339224
-0.09342904766595383
0.4863878418556817
-0.1269299125591216
0.352378448865823
0.45544631915792605
0.027132804105564352
0.3647658632483517
-0.014807949516110903
0.004161251645499001
0.3801586506969754
0.3066562104172826
0.10769320382454338
0.2842931824378268
-0.0708279021830583
0.0025341316881630173
0.3389334568428554
-0.1096982590590031
-0.21752965314719608
0.07220061181891956
-0.10139634472232084
-0.10307631428986892
0.158451883243989
-0.3221258763159903
-0.3537892868350392
0.03425797369076262
-0.03920885290917031
0.43547134458784376
-0.1917946595782293
0.4695891036413116
-0.05970039890077231
-0.4823453679455077
-0.395765101069805
0.195823699543647
-0.42176563525599803
0.4115848611081298
-0.25208482027175855
-0.39465942613666716
0.03820487703035173
-0.19147795858728975
0.46563417870041174
0.42601655163033403
-0.034137565953157686
-0.41961231612846756
-0.2331357082654011
0.49203612241503397
0.3753900887188633
0.352047111465627
0.3099625404126265
-0.4143585136338548
0.2986361779138922
0.3609378674264476
-0.4937225916553491
0.2504709686195407
0.09684156129701006
0.20424641940675436
0.07326304787417569
0.31074581954422786
-0.3149813005098461
-0.2155787511499537
0.07442401025417639
-0.19419765251429266
-0.31657470614911704
-0.028508882505968967
0.2637963606266439
-0.3847889643877398
0.15438234976990556
0.19964105774941684
-0.043951133812509105
0.24252985381064046
0.04059881724308814
0.13355853683456828
-0.2960356150944704
-0.26290605235835973
0.36726729791414847
-0.26274171820678854
-0.17865292281386186
0.4488958356418088
-0.05851653502089763
-0.0480549917044617
0.3812701486071679
-0.2661577535184008
0.04396175807155734
0.2437919217886471
0.16005548689979957
0.019663566114535434
0.457561523045362
0.36631490302789854
-0.23193858531148265
-0.35989188315336357
-0.25477297820172884
-0.1968461761046617
-0.026156913943293572
0.3351142292613523
0.343218092929803
0.39059981873855265
0.45056840111239604
0.21960641803646572
-0.4222702118746754
0.06958020868784405
-0.2255645377541932
-0.04208417272804578
0.10716688712578674
0.11420702921457233
0.48720577705829515
0.03197920379396612
0.36677036493547494
-0.3460259481786633
0.45831366362020454
-0.3105619791232006
-0.24843963684466347
0.12466298925284484
0.253928512392601
-0.29190908503667345
0.45225407031941944
-0.15742276280416662
0.37668673163697797
0.17203276150900443
0.05283664907164794
-0.4435446071946985
0.02003577187793933
0.3231356604265945
0.24391061380397866
0.27996464080069894
0.25227671422323905
0.013233672890593238
-0.2616304565259203
0.21831957520686027
-0.4510749410803431
-0.06343240243524957
0.14639240476192325
0.378988472445366
-0.3195111501936146
0.4217444552545269
0.4550895511463331
0.21920685943071336
0.2666555831467967
-0.1811382433860842
-0.30595515881380503
0.493818157127423
-0.07680818354526955
-0.3970673453351696
0.062244858130840706
-0.3707836177094398
0.38872916260157364
-0.05560846391915901
-0.036560837709842954
0.0087890679125324
-0.26532846702804985
0.18319656032223094
-0.28566166266143656
0.38482806070409786
0.3252672094426948
-0.4941777748876474
-0.3765516818858366
0.24351546511822833
-0.26930243155398603
0.1989227393077159
0.35709689143333795
0.04190509204388436
-0.28440771635218115
0.20401290206439454
0.4050657386481518
0.07237889767623396
-0.36347300233796864
0.2847155302422241
0.46870000326072503
0.132449493922007
-0.3400410101034363
0.30884907693253105
-0.47385102492748643
-0.07758688914558198
-0.33257213258447443
-0.28501355166927766
0.348845307279433
-0.2320596917695587
0.4764251202736253
-0.39727594740855066
0.053634078274067895
-0.4880856522189341
0.26167697431120435
0.2025319356531572
0.07357890233579206
-0.1054739427532406
0.17442785629930266
-0.251389224090356
-0.12229315563601699
0.4202755412910663
-0.5112115691927057
-0.3751681991369948
0.4299484395369604
-0.2783209405657727
-0.2834037611726427
0.004201934894678927
0.15139166715573735
0.07835960999690478
-0.1272291801899864
0.41130676262284005
0.31213611919239936
-0.3937717597496735
-0.34225465287816714
0.006321885820101029
0.011801336194727683
-0.306755331588133
-0.03549296817846014
-0.35458341449633185
-0.4859460790754484
-0.28487396480996796
-0.37908082718346653
0.18140074428225308
0.09169538633847962
-0.35266175872508665
-0.1866760668681504
-0.44287541567222843
0.03352420225774526
0.4125161250179552
-0.44679327000294417
-0.4605568898103447
-0.4742853246467447
0.21721813238668045
0.20232375175922257
-0.41976277383773314
-0.08916728234930921
0.4781413968359985
-0.45327340093638613
0.1219108541409456
-0.46152469310237143
0.3087252498234248
-0.40830820376517946
-0.1877821467577395
0.22671598353902822
-0.41575119783116243
-0.0582724757519183
0.040826582550611105
-0.4203958424827437
0.4214479530078335
0.039191772475217955
-0.4210433757797366
0.31801572335548534
0.3160692771339527
0.42141923758615085
-0.16100990463797152
0.19561783591920634
-0.16977377936521126
-0.11044407000775888
-0.47105586626738954
-0.3563659954339787
0.3684316697377569
-0.2218018226253764
0.17319244392989416
-0.4472105444684341
0.4160061295526819
0.4827185561153945
-0.04253075829097865
0.3945015472972896
-0.016177344882469965
0.37434807380150575
-0.06449593150020895
0.04704754918052957
0.22647198390825896
0.03739891754911071
-0.048188982233793684
0.2213337263267616
-0.163252450312587
0.28823495796477155
0.2683568860855652
-0.44757654089842736
0.13628273020339216
-0.14106046529916003
-0.17841655667972384
-0.05154612494948008
-0.13252121131308658
-0.16752268630094552
-0.2570377395965974
-0.05549446582368064
-0.36969794544185064
0.3557325576586443
0.375828031294786
0.0012731154153341447
-0.3514731359648872
-0.2652399837754471
-0.0011445502211542254
0.13890030051641708
-0.0941856284418486
0.18694319762687872
-0.17521788309502803
0.17720801683236054
-0.4270842005330648
-0.2791645460622117
-0.14534449456970683
-0.4593963710004123
-0.043664688322587866
0.20208546642376907
0.24286557837332295
-0.47806634844990264
0.18588358087055035
0.10176383311875006
-0.44034926558955373
-0.07063705580417515
-0.10811233120828563
-0.39761630689075245
0.08750328972209882
0.014262032265611584
-0.045988136187476665
-0.19429286266039753
-0.4382329146934738
0.006966913357255662
-0.2527109497840102
-0.379854389372478
-0.23661719333102282
-0.11632542076510437
0.09013867169279272
-0.17551036861945296
0.07893481074283884
-0.4139695882939774
0.3886381296447224
-0.3049381852696153
0.2158879511089334
-0.22618761440084206
0.09378592631775523
0.19996555314909442
-0.16188247160024774
-0.15190155631918276
0.2044072041798477
-0.3276843991920112
-0.28762225390992385
0.013580300305959032
0.2778080388443396
-0.09157765044860107
0.2238904660339074
0.15798948858624923
-0.3908695105147326
0.39242373362162586
0.36847121952731443
-0.2549836592648311
-0.10960962658050234
-0.06895332541598627
-0.24038447152605255
-0.1932081653473829
0.24338002570582384
-0.0011414549251260956
0.07887233687972384
-0.04572037717914115
0.08463932265732643
-0.25572082137800073
-0.195370772798349
-0.08635819508581608
-0.5009360858204396
0.3275943424035842
-0.3108421996935971
0.13144066156861767
-0.24297882821317696
0.4013516142388393
-0.44413993830681314
-0.4691338933696977
0.38426663362816366
0.19180046442491416
-0.4339607293995048
0.19353130209450242
-0.10571192329887344
-0.46584320862452394
-0.0485759126114785
0.05856723388954285
0.48720186251715064
-0.3972483545185465
0.3131902193587272
0.14511654818271053
0.481574906165757
-0.01622089566111994
-0.2637894519024249
-0.15616071166201625
0.13255772494320264
0.2938153693563643
0.04831675366908119
0.010270257940391598
0.1509911476236926
0.3925324360375862
-0.4477729819986257
0.3437585355466303
0.19218612749219777
-0.08261963404720626
-0.25649929449173703
-0.22127388589282054
-0.4757171726350687
-0.03130867888004703
-0.4348050407873418
-0.028874213099687938
-0.4353063139943413
-0.24083662751362678
-0.26406307044088845
-0.039976747516943495
0.37479597493328604
0.13799223135112057
0.15797900002948673
0.191756177561577
0.14428185115321782
0.41875642193819007
0.028002377766676072
-0.05394432123125153
0.1945151162060564
-0.11361478805307922
0.2103366250822848
0.147365811733194
0.455827220554848
-0.12699735426290945
-0.4590225202651546
0.32624171766936966
-0.5067434674731282
-0.31671120445874235
0.04304039425307711
0.23871000569748216
-0.4515256523635916
-0.28339833066947623
0.1725136947124815
-0.09823682978757467
-0.4575270884664057
0.27667111116974713
-0.018183544645619307
-0.221753436417837
0.30273628456988644
-0.32874332162175685
0.41147500972492457
-0.4356396946702585
0.42987153503973385
-0.3042309502687616
-0.0739506611604509
-0.4651229267894863
0.46671144243277024
0.344184091321698
0.49924351493200464
-0.055990332010310194
0.09887860045504536
-0.3664850693722615
0.42183481587653754
-0.12231187812643599
-0.43988515287699653
-0.17984535726747863
0.14285427868300205
0.008086689434521656
-0.4515580942083886
0.034059157141180935
0.018241040299788208
-0.4197582275591172
0.2741933500821618
-0.09655951334792706
0.34242482215112585
-0.3744597798640045
0.47732651004260146
0.466541126847723
-0.4908281246021576
0.419076733038953
0.30646593704596653
-0.0726368421206475
0.00862513206040556
0.3272424505057073
0.30557073721087996
-0.4640518668891906
-0.2619518549876626
-0.01066227444736093
0.3138379722681487
0.3401549453645073
0.09755681358006124
-0.19390055892363173
-0.3041871370046924
-2.0457302080309657e-05
0.14540818528222227
-0.25412866093946523
0.2069469022837584
0.2977978650129813
0.22059104010916505
0.4848747525510162
-0.16661006082301263
-0.14539378709195497
-0.02931336403383908
-0.27078092078291255
0.09721484074552175
0.40858332856646906
0.2569155908705948
-0.10909528176334818
-0.45863226873222207
-0.004452853006310489
0.3301612082063028
0.27189315768266625
-0.33839781149014164
-0.13404355280789013
0.07055516364300601
-0.16407055358446526
0.30281460781149755
0.35375941853848913
-0.041561343095875156
-0.4641744844077382
0.19541478089909214
0.4789098268030055
-0.10746954364026705
-0.2372044190711128
-0.3602324911105273
-0.46154912641859175
0.08837457397881364
-0.36029679424101035
-0.1774682208817026
-0.3741216981200125
-0.40107861148358115
-0.39338989857129364
0.22315608207774645
0.19905545017552653
-0.029026354628433233
0.2441836597707566
-0.2745301536379827
0.366527090499798
0.2361444951789901
-0.43124265626265496
0.3362645489216393
0.1404659173189148
-0.4851051120275594
-0.19700795639234253
0.3280873666714214
-0.27854509996032667
0.32708764652163
-0.4089726664171998
0.046151983831233666
-0.31587263978406344
-0.30342338796015306
0.026784794829486064
0.3770167520399148
0.029192386868873935
0.11925806354283952
-0.03826116243807849
0.4075352752263997
0.2380387836623115
0.11152124175608533
0.3767468282808196
0.21489318330887974
-0.002654361190810228
-0.4129198320710681
-0.025815228761058923
-0.1512113459575773
-0.010702025903493326
-0.3515971074189677
-0.3790471050546377
-0.30445153003698583
-0.15215968185431164
0.033920009008229425
0.31182839936485024
0.24707362044095457
-0.3299381335147592
0.323179815251038
-0.05816688790887839
0.3844085042912873
-0.41788111443218773
-0.19148151707704272
0.26671339983745684
0.3666316176713106
0.258132105809944
0.3017843090328261
0.2776707439724158
0.2071280482520438
0.07589307663632341
0.1881573951770158
0.3009111635325688
0.3111076112575869
-0.05884799214604556
0.1413502969272811
-0.3859501905372132
0.27945731889948905
0.37858146110893715
-0.47875295329335105
0.14264010664455642
0.3695895096584609
-0.08760036695466134
0.43768907457601136
0.40647112651760536
0.01707114193340168
0.09669124237451826
-0.012819715604603097
0.23013216393730473
0.32658634269066444
-0.4180959288129354
0.24391513177735594
0.1716391605884783
0.40547942538065607
-0.3729245683867386
-0.08294513113737845
-0.33164054628518885
-0.05689494596855479
0.3918562961199713
-0.45367162618405515
-0.0037011573245899583
-0.23330170856074053
0.26066015107740426
-0.15786203968336543
-0.018553811272404783
0.007739433958893723
-0.36628372682178395
0.32518895226716954
-0.2127576444745544
-0.1949563477220113
-0.23346476672415126
-0.4925997925567946
-0.46269797317971156
-0.3532404586024857
0.364679597230765
0.16891275448475623
0.3522587356419628
-0.37136166009299837
-0.004913963352229631
-0.46610003223238256
0.12649394730161329
0.3508917748717735
0.3384569297218727
-0.07670919499995857
0.19586226536713439
0.24533999020088354
0.24206276758347067
0.41133398538953136
-0.28903845316485344
-0.43304664453930586
-0.1637639878860898
-0.43608199117996027
-0.25916405434258183
-0.2497177582163976
0.4070621451938298
-0.27593473052581524
-0.21674310661621962
0.4113524706657343
-0.3963828622290466
0.3080865598718543
0.4501405524229002
0.28287704696718813
-0.5152515374507085
-0.006870703541495475
-0.35577411152203897
-0.2760226862988647
0.3820290558033716
-0.0836982904858021
0.17034711156611
-0.4368739120303281
-0.0041379373103523145
-0.10725507394823025
0.252092623978786
-0.3416834287090338
0.12076668202542074
0.1818587997699394
-0.0893763430602176
0.12871390266077365
0.05180626113479177
-0.17803025717605286
-0.1430557932589323
-0.4778839705487121
-0.2790802890556465
-0.08909870263724994
0.3493274317417064
0.06464393343457525
-0.40442400680892804
0.03301690805447641
0.10626712981572928
0.28087749986882343
0.4843763370229209
-0.13437623758044512
0.2122518882899361
0.2526411117282261
-0.001791164430847089
0.27728902381630216
-0.05136872901124913
-0.33978117482704806
0.16352415178931268
-0.02904999544612978
-0.36016943270822793
-0.22858876487891722
-0.10887759558830709
0.05831950120645683
-0.4299358584390453
0.28052649279452596
0.43289361086667116
0.08346513816102039
0.17903152277021456
-0.2628466845450256
-0.006587310182963465
0.38134318117102134
0.016525653874988167
-0.21317306986778714
-0.14258055621428478
-0.09934794464338682
0.22680364934962713
0.41246906540634254
-0.10508029141971743
0.24392448845417639
0.20743292979897937
-0.23588916675530552
0.08329410966270165
0.23964652545517
-0.3580425895864003
-0.05065287335119878
0.3827213397831964
0.044094125501348815
0.46146988925688326
0.3577864658537552
0.34748954355612766
0.40554183082519607
-0.48656707744738475
0.4057654238317124
0.15505051269299572
0.27760776169864765
-0.01222763326185083
0.34730989868122286
0.3924856420380884
-0.28113999961807035
-0.3167646835158304
-0.17813820955040993
-0.17250775236486432
0.3649279567423213
0.48803225695312236
-0.3985803335335175
0.14550756386217256
0.3777070226956911
-0.16090271966919475
-0.13414862174264658
0.3425322066895795
0.11883900303781673
-0.4877671051665908
0.16587151716591236
-0.4334785205990242
0.13536131400620552
-0.04095699754445693
-0.19774092382737324
-0.37713989066756637
0.05203108997471384
0.3025399006522228
-0.37604421682502326
0.44855488082213757
-0.2602861368711896
-0.06485569952353035
-0.4741550477220629
0.05330648058662294
-0.11001089953483963
-0.4618934575203689
-0.45174702292691604
0.3886799360750911
0.21041500344040187
-0.28039032359432264
0.44146905198637876
0.37316516575331204
-0.21269226252686302
-0.16491647344923738
-0.48042641149931836
-0.22281009450740147
0.346770896032481
0.06090695057392696
0.2440601280577679
0.006691710976767577
0.11919120526417587
-0.3654675418016011
0.2525706983921435
-0.3343560646082078
0.2394256689116025
-0.24671780435765855
0.08059600967412625
0.22664612133210568
-0.38518671545099775
-0.1469821632427897
-0.3085603695365057
0.03056583402102405
0.049458958966784886
-0.12880073358400404
-0.13502982617010925
0.4345858643345296
-0.33541878157524213
0.05484698858647163
0.257431015256111
-0.42365738838191963
-0.12214547586076831
0.4559002159744531
-0.42426370612507636
-0.42820542907896414
-0.19862552570472897
-0.1431530733563691
-0.20266415764852655
0.39224619347733336
-0.46406017492499196
-0.09079824868377098
-0.3285361903190034
0.41395644457323083
-0.30758617363707325
-0.04728967102013132
0.009170317739155947
-0.277365642955087
0.180460393979469
0.006606820852764073
0.4766998376336002
0.08063728802810828
-0.29204421225963195
-0.12013832137737052
0.04498176492430345
0.03986496801487646
0.22187074639104007
-0.5055234673365144
0.17067856015666322
0.23797490391199516
0.01583005971570562
0.18290596294971637
0.0007847839781981667
-0.4840357052035237
0.4069013705791925
0.22403481710426704
-0.4627732566568492
-0.2746026781669319
0.3220213850578609
-0.41708838464129666
-0.09671882067926377
-0.008828892861559821
0.27249033874402456
0.2943849675891224
-0.09919817344100353
0.47430584571036266
-0.09313883365391704
0.06195631654166368
-0.4574874400119574
0.18466378763198613
0.35936150430534974
-0.22544638058192829
-0.3337817514338305
-0.0948918241993255
0.49218129432715363
0.20445296535515323
0.3996842465295135
-0.012644457943615203
0.24919481384672737
-0.47239042659143704
0.005656305555749946
-0.44517604021281587
0.19166523774996186
0.027175652996997507
0.39502325691287105
0.0760431604269597
-0.353425817587625
0.16106944695430403
-0.10955081038833717
-0.23271651960292838
-0.2292588358467641
-0.2704994395460242
0.3910555466558035
0.3637699045484422
-0.4210150526889506
-0.2763604820462843
-0.25263378187863944
0.4653482331444279
0.4583873557679004
-0.03279243389858245
0.0576309486611876
-0.31673206244904273
0.3596548098648131
-0.0445309705456122
0.2818824706860727
0.15112638543178586
-0.044546836380203826
-0.1286480133617556
-0.26212081745942073
0.41115469604113525
-0.25746497660385914
-0.27483357557850185
0.4281528688402272
-0.012006119187632744
0.4353171281280436
0.05469615675617731
0.39983884182229207
-0.1799443803311777
0.2037552493065688
0.35551489466930203
0.4226472840558937
-0.4225261198144365
0.15306859482368704
0.17652295134012752
0.03473549581232491
0.17665488425855
0.17448880165757763
-0.01816037766221979
0.2890451677857875
0.19381072821642958
-0.3549920453218095
-0.43024323907864565
-0.2716517771658252
-0.25760337295547764
0.4390464283051734
0.3152444353393246
0.3668980256455984
0.3613767326411599
0.37033708785932135
-0.13623134003959897
0.19322096198736777
-0.22626511224936094
-0.4759401416489886
0.374282179342257
-0.020214303441592217
0.03646697005649536
0.34253325569618814
-0.2971070378297491
0.34269078968152605
-0.42234160381160285
-0.1898396597685542
0.2475127867413201
-0.24852281776938254
-0.025448344602363594
0.35558242108435867
-0.0762555196675657
0.2699685611738748
-0.2659420188776817
-0.1423963495378657
-0.21234991448229457
-0.4720875000398434
0.05152612733679868
-0.030055700621256422
0.1568870978020298
0.4805168523340522
0.30731172082283226
0.0996188051725459
-0.06255738906127672
0.09746350187194183
0.21322736109083296
0.18631815146531128
0.12244323525144864
-0.3587469485945853
-0.455370685152418
-0.35019419933362744
0.2297389313729895
0.13469965310130716
0.45789263251445017
-0.1704819534226223
-0.41830514587836504
0.18275807415038178
-0.18947334628129123
-0.38385180934737456
-0.024368432022898474
0.37804518776714563
0.48055816909745885
0.2430465853644459
0.19524757045695448
0.01998592219300453
-0.1908095163719782
0.4690761573789606
0.39383122281189553
-0.39868227153840585
-0.14251703244749614
0.2643376044458102
0.41763910941962834
-0.4563532152436189
0.4732114692542627
-0.19207228509290003
0.41459588862951063
-0.3296679228453475
-0.439117894203864
0.19209919153891294
0.09262935490311246
0.10936608872541348
0.4613494285870899
-0.026894695250611028
0.20067204102353262
-0.3774241711153784
-0.23765322506541536
0.42628784184150614
0.26604480187349394
0.3722366209825826
0.19472698153083862
0.18143666370041456
-0.4130252299545972
0.14162005186657792
-0.25470193160721544
0.36112483294634773
-0.33262644567884897
-0.005176327636080468
-0.3119483120259191
-0.33032658344578175
0.22916339315017156
0.42451208525391865
0.16752311377313361
-0.3964834708320159
-0.4082334195344224
-0.3947015908173776
-0.2967094397913553
-0.12531327478196552
0.34188497835148596
0.228789219209561
-0.07291639566261753
0.47057395736926555
-0.036669310926154025
-0.29986999092565103
0.22920594749929998
-0.10532029310605606
0.08787291324487714
-0.1914056248945755
0.4220863815774104
-0.017821760177331527
-0.2979298556350506
-0.213499253244537
-0.09948067555143479
0.22192810655824557
-0.2968220171746322
0.10286536802795762
-0.3773065458874656
-0.2882733359632511
-0.008154975297920513
0.3516782822758214
-0.266510262935624
-0.0515284961320804
0.3303920116620511
0.362029741175704
0.3023434268828937
-0.14373387953422667
0.1567343191475143
-0.17096106705703076
0.24210478873524519
-0.24154728642302298
-0.4282166434261845
-0.09052102957270704
-0.44480762965799614
0.47863612370018144
0.0971223225218134
0.2771992518535353
-0.05019255755700922
-0.20685409777836603
-0.186678798469501
-0.4554981958169667
-0.10965032886622925
-0.11397484702870636
0.013233487114839949
0.45825769222001317
-0.2437116300690913
-0.37146923247978664
0.2210820219118366
-0.051506561783528464
0.4235685212300842
-0.025612871289047778
0.23829694186320216
0.28697735973545485
0.32682922145150256
-0.23476256330969003
0.22513027352513812
0.4315051407131084
-0.3326113886653851
0.17470617900796864
-0.006858130039206654
0.2512662817009647
-0.046196837574320145
0.2991475586064355
-0.09919625313551443
0.4868683977996639
-0.3062522193543137
-0.4028421547506475
-0.22743151424079783
-0.08990423882697789
-0.2609951157368007
0.37448129737591934
0.18452825396726638
0.41931464472057084
-0.3014770296637758
0.33927401905217897
0.18581868623023565
0.3582326713786412
0.13270803206922246
0.0534115805239514
0.434777417226169
-0.14051094216079899
-0.24417511277907542
-0.042660757550374545
0.4148422979120501
-0.2572275447682963
-0.17833571723511984
-0.24808142580553166
-0.2849070191018992
-0.1373533810989853
-0.2183729879631517
0.18523597115318485
0.3443052119116893
-0.3807154579995918
0.3918509440742614
-0.4820009853899175
0.22502614472486185
0.23384232948429942
0.07338643312861386
0.14070068043871944
-0.4877647922651752
0.27712065530679625
0.03106512945239579
0.08200142981611047
-0.25973372648719795
-0.23267022093936104
0.05713581174082936
-0.2149738646713794
0.24531585602904338
-0.37515382252826984
-0.14522578145080212
-0.49554484342293903
0.10426180533879832
-0.14859302161143687
0.021476174342332382
0.13278601335161933
-0.22612591500991464
0.25524285236831246
-0.3844515443757706
-0.46020313287646636
-0.004734354913298155
0.27496965878542695
-0.005736893227632951
-0.2159850915161466
0.09299971428291164
-0.38370908601620163
-0.08683725832768749
0.1324336526361138
-0.0007387316890779722
-0.19491506335037986
0.08338148016469397
-0.10479185785270997
-0.09676805079157022
0.3169788048597329
-0.23017593396372332
0.1800657524192039
-0.290184445371136
-0.2856480880849755
-0.3605188625871207
0.1998362969691287
0.14985270425756395
0.09926432441482601
-0.28688728409579317
-0.16549290652024928
0.04850846420832308
0.011305754879913461
-0.004820558094481281
-0.1560496620190967
-0.06756682407619284
0.01993477151165049
0.11580670561410986
0.14615912145999962
0.34216557100287337
-0.20473702759041332
0.18998019400250876
-0.0718526013183993
-0.4306231487888526
-0.17260559759999322
0.3968898900736189
0.3482417093172373
0.47154716672096203
0.2677391446798355
-0.21091122579964378
0.4491856912412802
0.41650331136601587
0.21477224828290625
0.20447104439294292
0.020751550469797167
0.5015945283240849
0.05911405997650658
0.1699855982857777
0.3240314440974826
-0.0324486058383952
-0.468093207175444
-0.17345863591608152
0.4130592466688095
0.04062050202995615
-0.030835053142470592
-0.4847465313280256
0.07490500675956781
-0.2395038730240593
-0.28528987972349473
-0.12945891887159397
-0.07280942998792578
-0.002912361062902156
-0.06841227395118667
0.22992758289114237
0.45912100059878175
0.02847631147387817
-0.15464238242576855
0.04936054284618216
-0.04385493832156606
-0.05725986024090173
0.09743826276864778
-0.15768984916015857
-0.23480057939108034
-0.292803871612916
0.02756554374494858
0.4439163363590963
0.02839505133297335
0.288309175097239
0.3429445069927443
0.14634571952553266
-0.09053834996806451
-0.016339796045955306
0.018688052028783226
0.2753514095784013
-0.36173447465997194
-0.1274521733212682
0.47971727967117345
-0.10394074275628212
0.01940841041907529
-0.21403590082157453
0.0027635302347289413
0.36476812600807695
0.13718690957020863
-0.4522720607862822
-0.20306989069271514
0.036596241187021504
-0.4831084501574676
0.21184334488267564
-0.2994546007155171
0.1740412082711067
-0.04451724014858843
0.25705627515356166
0.368728586184328
0.1940662869181084
-0.08427371591924217
0.21249179410049412
0.3242203781554637
0.441210591025353
-0.16523611196800306
0.02770846106642067
-0.19915749020881762
0.23636000246072172
0.28725659915218116
-0.3975766804767916
0.3971884602407721
0.2763406824594929
0.29993558893707467
-0.44903019124693505
-0.21220811405507015
-0.3284158090728067
-0.4893899483717355
0.3807184493876865
0.3023705876630242
0.3295320019025525
-0.39464759523168946
-0.05305470396109104
0.2440942800173344
0.10772544849348607
0.4456870358450588
-0.3818270263353941
0.028451755881049933
0.05112010533681972
0.49266389111546377
-0.296520815435087
0.01758766343018908
0.46471116914322935
0.27531641043416377
0.05196959807709618
-0.4073695912657124
-0.01409493251807118
-0.07049018062584182
-0.060145394638485256
-0.4616250688839838
-0.2503011136087462
-0.07210221691060442
0.45490163801424255
-0.4706113629890129
-0.2556693869920987
0.31319110514110954
-0.4918499143954689
-0.12431973273253069
0.08926163734493334
-0.3289224099464516
-0.18249474712616662
0.12132035897485624
0.3379898907175106
0.17046263491415198
-0.4748438594136904
-0.0366605661166368
0.08321722546599884
-0.31757438776940755
-0.45938932287472095
-0.05098679775557741
-0.4818815255702909
0.0010795904142573618
0.46329296117312624
0.31958136828970685
-0.2726751377642318
-0.13839876040496463
-0.34010190154489317
-0.40904549817489816
-0.23741390967517878
0.21818952655661641
-0.2277182056307796
-0.1149041935641091
-0.5002402824739229
0.3358988130926923
-0.24487143546509274
-0.49964814972847843
0.36653462767715983
-0.21838987874275168
-0.30873096030257885
-0.32006252533420826
0.4871826674439964
0.17652698978622364
0.26267368319484163
0.3511025652462138
-0.37015933482154695
-0.1622381006950788
0.002243057610082111
-0.4320272293163778
0.1669198894278208
0.2931410482718659
0.009358659282806174
-0.255458117940206
0.47191503513420613
-0.2707514660129715
0.07320749636174266
-0.0699339241845805
-0.17812730654081108
0.3728927208657868
-0.08054988033419047
-0.14642626169457001
-0.3477369372922613
-0.14679637463963083
0.019619523702821356
-0.16567104061699214
0.13723521374106035
-0.14336433894253298
0.37553266839050015
-0.22800742290560433
0.3119714052089655
-0.03419591221593138
0.09685077903131814
0.18924708581970115
0.3911758779650423
-0.04881964457030573
-0.18476739089575195
0.09283836955222076
-0.3107564739200707
-0.43135952952873685
0.2655758870856519
-0.3935760820217466
0.08217946751990572
-0.28100131294118175
0.24069796188619316
-0.41942019548466514
0.3058994264069429
-0.08494728752839134
0.10245917006647924
0.38199785768010924
-0.23614755346686347
-0.1686482623028683
-0.324564577112139
0.38492762973515554
-0.38520193728808266
-0.2143347219248314
-0.1485017750545838
-0.3007151157644378
0.08524588491984375
-0.4431369083905693
0.22299509381187319
-0.04858807489725982
-0.24894315937302033
0.2795693705251459
-0.45234183420126
0.19128911688891395
-0.2349818175540162
-0.24514422900933455
-0.431013229407165
-0.3347224202983768
0.2710814887226207
0.23207928758568505
-0.23914526758775162
0.08801029469455605
0.007497255475610397
-0.3295559394441451
0.0608177364269309
0.21005420308461253
0.23300597725652825
-0.4522798999030624
-0.4260141177889629
-0.10754973262329912
0.4113855470802708
0.022386935333492695
-0.22859890581105985
-0.169283168552677
-0.3178964080608352
-0.3591001857996721
0.4818462197616322
0.3378290451236991
0.13205501558441546
0.1493495011586086
0.01469403983827959
0.014337382204100434
0.22283405176921484
-0.3368497573601902
0.19426355051560498
-0.14365003586371133
0.4300247620745098
-0.3849355495014168
0.4828398227235038
-0.47672155088742824
0.40451804438299677
0.26990234362292165
0.41715876476882663
0.10395223329987553
0.36878400348512574
0.15724668167933578
0.09206098792580275
-0.4181222278289719
0.43214269472201183
-0.39364402761822836
0.31154727482119887
-0.08224394839696392
0.28074349739044563
-0.031174850276398085
0.4425743473207059
0.31807733559922935
-0.3365463011293806
-0.3898626036558783
-0.19255066115645297
0.19828569918134634
-0.0655575898415823
-0.4065312018268162
-0.2766867540805837
-0.47307651833219727
-0.3544401722127249
-0.32960115576194027
-0.3753869719391893
-0.25693189084764834
0.004935401453965351
0.349949816861104
0.08882728851746799
0.048312405775042686
0.4689658552822658
0.17304076875134985
0.2874262588992445
-0.07800811809870367
0.3271154158382871
0.19453547167883248
0.2554039069238359
-0.046490388787371016
-0.2648189360311103
-0.06366290768726382
-0.22270770710425317
0.004522545258546472
0.27417632349473403
0.2814528468204727
-0.2503886185282295
0.29727937464339094
-0.5082016190782556
-0.436603510681058
0.19371317367762383
-0.4010190846610902
-0.06112743808839306
-0.26638131311230917
0.3422765755894569
-0.24054086311070713
-0.42510510428950826
-0.4468700022782509
-0.438535357747198
-0.1757516157127336
0.18471025385795314
0.0848586752192359
0.3664385096341999
0.36122532939404783
-0.1282818670685567
-0.31569636562332387
-0.009390779018276124
0.43923104568391597
-0.30630336749377784
-0.4220151624206271
-0.06993370135101258
-0.35488645902654387
-0.06303443795882967
0.0600557221912499
-0.37832757641547193
-0.3723525681039593
0.48234197487389335
-0.3809128021501552
0.19148215998151938
-0.36726028860642423
-0.06007637127583444
0.24628798033654267
-0.01704260491341351
-0.2999031472762161
0.07172688036906702
0.21711279416861437
0.39182364100361455
-0.3183087113201102
-0.09344720885307863
0.08965549705615869
-0.2766396553883107
-0.2932995069506202
0.2749685531456142
0.10616926626810981
0.35385606183319324
-0.3285363084487494
0.25243687034350754
0.21164444555870335
0.05181992317740971
0.1341855703971046
0.3127281759447498
-0.2809033296328014
-0.3936835793001028
-0.3222193219392326
-0.43653292252937476
-0.2631475572878831
-0.4436162352201387
-4.917999300277184e-05
0.1996390792121663
-0.32342864814348155
-0.23551627879205816
-0.4162893575768791
-0.19231663056586498
-0.24541505450972387
0.16246937343038595
0.4795270136717915
-0.3103693939362317
-0.11738717972419449
0.004090897841091627
0.1284224829548679
0.05396143338302165
-0.14632203065974111
-0.28404648456228365
-0.05460851727101868
0.44860404855244207
0.05585370090497758
0.1443642279218001
-0.21301315573619975
0.0809507635897678
-0.42150971570969376
-0.07140202999323945
-0.36963292115015267
-0.17616136756442738
0.2474949323623373
-0.3339882747547858
-0.3146857458846165
-0.12884719166832204
0.08771947909819469
0.4697619281524341
0.475344167628566
0.4697660565419635
0.23800350777424406
0.3712911110752312
0.16030922570715725
0.15835967387865377
-0.29496651413262837
-0.012844682692014721
0.2027629407761836
-0.16588346567279205
-0.007011889090789151
-0.08755020903171923
-0.49255224412559806
0.12260293295152393
0.03326861001166441
-0.06990203589137339
0.3611671948701497
0.12896956898759798
0.39278323322935854
0.028488464367715714
-0.28879917831467516
0.37833827152646965
0.2276080075789145
0.3534225679450858
0.31110957915717014
-0.4424669851465064
-0.2437221879232394
-0.33507656055664264
0.08808288327278743
0.3059627108847894
0.44588369106878206
-0.1202412937197567
0.0981207941383639
-0.017939746845861918
0.15587797754361926
0.38460459334864583
0.046273175455280376
-0.4976082449042626
0.048777466813995356
-0.24468095062783707
0.001955869065590007
0.13780921017218803
-0.23969824797280548
0.2709708100112861
0.23843680069291756
-0.02050031159520752
-0.037783182445054055
0.2413496741177345
-0.025888654640695036
0.219726430471737
0.1719892176967573
-0.09934549210966802
-0.08495751309290174
-0.2046387580459502
0.050496128776212255
0.07858149434316004
0.014577881817621697
0.3483254242078387
-0.050358757941732474
-0.3337567210799648
-0.048775609240827716
0.19557481975092392
0.21730442512161427
-0.3653653894839914
0.2727646965094793
-0.4168151275015172
-0.041516575690156696
-0.21529093315774903
0.41305541707670584
-0.11947195583306389
0.26984845688277975
0.3814148757900089
-0.40541259457449563
-0.3522839112493538
-0.26306406411870886
-0.010990098635482892
-0.09202625963295163
0.15463189946907802
-0.2673020148271442
0.4134151327014234
-0.48040681654643436
-0.006699078838400015
-0.11403591333127293
0.20009784008873202
-0.34012348829541417
-0.48218760317742576
-0.38664412347458227
0.44180140353347896
-0.39985982458960695
-0.1554002079158273
-0.24295312588635948
-0.03804217220454471
0.41405931421399045
0.2984145301058165
-0.31686326605759185
-0.4176792790181525
-0.11516083266089776
0.3574210084219527
-0.33033149260633476
-0.4949860837645756
0.16389214149543094
0.3811875785083832
0.3779297290392403
-0.2476343496289075
-0.4522021426735312
-0.42714012065094004
0.3186190009612794
0.3907721616207828
-0.0926340038659554
-0.18986581555304294
0.12997011905701972
-0.25623485395036916
-0.39040101023041646
-0.3859118882099914
0.0635786207442057
0.45320049502689863
-0.12032452351230108
-0.06637666189418336
0.11324384837584067
0.41654812556056386
-0.2948533572348787
0.3171609503280059
0.37445108796132115
-0.0324505923500264
-0.24991116568210853
-0.3113471667761458
-0.004728825951523077
0.36008684718656253
0.04890116571771225
-0.34446896541802124
0.4388524073135121
0.11388345565021851
-0.31484981308586946
0.3148669301748845
-0.35019950906396347
-0.26966468250984993
-0.3757434182501014
0.037049925250048805
0.10008839484048553
-0.30837477277257297
-0.28811442195458725
0.37322225104982104
-0.24329524245466402
0.4946377384383651
0.3247379361189101
-0.00738469011468282
0.27009182529771214
-0.09499823232075322
0.17032968822812677
-0.4213548994417934
0.04834556109051009
-0.15715719651594864
0.34112024787909084
0.11000671958021277
0.3914472204179244
0.18302643463236587
0.2316874783949844
0.18268912399987966
0.1884088179729517
-0.375251302035818
0.45937636207867466
-0.2593769348939161
-0.20186456709511846
-0.08288849968708704
-0.5079961494033561
0.3952446528335246
-0.1441390397539467
-0.30128378670121597
-0.4809688517287953
0.15262508799335636
0.09243732637798027
-0.15568124325403243
-0.029804791660809987
-0.43845520131221816
0.39757957727884163
0.013443767293925001
