2.1646020811833573
-1.941397935048251
2.7837049733283776
5.726445047498374
-5.397171060124428
4.193294995124167
-6.216349197285289
-3.2797673977823063
-3.136901089454615
-3.015872065067729
1.4508963013519254
-3.0276107289935266
-1.1881521004498528
-2.927170081775865
2.730489302685197
1.8007156555796928
-4.026266933434255
2.2128024344719046
5.007320969035057
2.81180237580002
-3.5047093000140372
-3.5262011747972535
4.062410777586865
-3.3026858523489016
-2.4753313033778577
-3.3119252449828585
0.14492010396063862
0.7217027264249547
6.556075991570489
0.14293481499248537
0.16483870880510693
0.2529958082012833
-4.148715337910069
-5.003795210049371
1.8090539064972162
-1.1151053434982106
0.9074950668477013
-3.938371000192136
-3.7801187805996253
1.9422782561168488
-0.792197929112057
0.7537178861020899
6.9854862604026335
3.9850803491374993
-2.200689084032817
-3.9446389211734063
-12.048925143358087
-4.079225549483672
-3.990331323812203
1.2411159078293479
-1.1039866455620408
1.8457612336372222
-0.8166969896148766
-7.14574263726883
0.07000003924718035
-1.1137973830842895
1.0886695817740002
-3.707882479931901
-5.632873749592679
1.5346127097082989
-1.3924900186935352
1.2631425543648376
-6.115368925351469
-6.331710521283566
-4.7554132609776465
-6.8341590309462275
10.985422157286138
10.933441969021338
4.532499009682207
5.0127323641145765
-4.56583121435234
-2.550787933652766
2.3739538494494954
0.11331697481328402
-9.21384487890041
6.300322351291346
9.263302328275584
