137
0.4492220924445958
0.008650216058522005
0.4456364896018208
-0.40657461584042776
-0.2949031957831071
0.2965750661803934
-0.32784231032562705
0.15030043350303818
-0.3874489180028703
-0.30030074709764976
0.3374041704993775
0.4012631907282935
-0.18497476798678747
-0.16419749892983723
-0.01854535437072967
-0.383324716144673
-0.3122663137882648
-0.08679577654617303
0.09433207191167808
0.30447615533967715
0.43093774077240526
0.3806011836033467
0.3255681041620734
-0.418436805143829
-0.45870874751415347
-0.14114813142072172
-0.26165831894606206
0.42719527227409393
0.2975412546237979
0.17185744764241093
0.07856862595268028
0.35000263242957413
0.23398782552502237
-0.1892591946258933
0.3567160854222824
0.41954666079871195
0.06309243313943037
-0.05485794486360864
0.20762163248612953
-0.416268537305461
0.21922217972064145
0.31707965204535665
-0.027238677234063164
-0.11464430914489719
-0.3720296116611919
0.4865384086078343
-0.17708441090885735
-0.00471447656051107
-0.23872873602643174
-0.26436493042795345
-0.10268197003904243
-0.11552695570944127
0.44941013223603443
-0.29526148020051907
-0.1958551999692902
0.08206036461402876
0.4751753872475672
0.3009517721862134
0.2889955147885226
0.0528062784665411
-0.27984951404162445
-0.40364499916110125
0.12573490704874007
-0.479273925247707
0.07820419286568543
-0.06199185454489147
0.08674081817085606
-0.1002897417718585
-0.1597719206111656
-0.0378065768779779
-0.4013466481302103
-0.4238789630868475
0.22065694603196645
-0.4102962643715918
-0.41725581402860557
-0.2002653839720642
0.040256655608548894
0.28175656540715155
-0.265443712069358
-0.16487314736243006
0.1657608117019596
-0.4764899238437905
0.22389789256892179
-0.33716325996205604
0.1940569199509201
-0.0018293978857439027
-0.08786130966253285
-0.20885606628137124
0.4828644294522509
-0.1834558298994091
0.41881180322561246
0.2914523092902408
-0.09067097948677572
0.2713291762173508
-0.09979007199432455
-0.27582605243821423
-0.4888538992379011
0.2795033726578678
-0.20117932660681156
-0.24918335389404975
-0.37463403777870535
-0.2232720878746643
0.2894098147956077
0.17157774723663713
0.19751916952909113
-0.12832410190013094
0.08797726232270627
-0.17142475582068162
-0.19772972910404182
0.10454504982462111
0.24688150443770301
-0.3317403526654597
-0.33694140542702666
0.0913400721837836
0.4029822099285074
0.29552733469912246
0.13144506579001747
0.29195478497573385
0.29894143620369645
0.15913110931202512
-0.37222252699407465
-0.41359025852610365
-0.5022767766547932
-0.0445953465559262
-0.458048290984254
-0.1919841113278025
-0.18541554390915585
-0.03407048282866662
-0.09453743938141618
0.19904733387195248
-0.25491784560079467
0.36296140435016117
0.3841449494319581
0.23709587616674
0.004595962049051193
-0.03170121289354465
0.08012917511423437
0.08043871420942335
0.4528356419067445
-0.1607139973992969
0.42185856000815714
0.107371250263233
-0.07519007565075438
-0.3490860685507148
0.2302896492829581
-0.08840395710403195
-0.47438593355744224
0.37811338514836346
0.018124536665154463
-0.1960899504367506
-0.2770039773645492
0.32292442756714623
0.4213760753022265
0.06601821660255353
0.3669801200301377
0.4012503302124052
0.12388461890746456
-0.3813906787407886
-0.2571176096106889
-0.07311690698915063
-0.12347560364306631
-0.5019629630288702
0.21599321119913056
-0.2675466248156357
0.4001203704183204
-0.3633205499663056
0.34994536914583896
-0.13487780937635155
-0.1863164299793304
-0.1796946143919338
-0.46547547314982385
-0.0670798687779465
-0.2882888563699612
-0.3173446567552309
-0.3033331598709798
-0.3494645587825093
-0.1834230781188661
-0.1642137376879842
0.007385460782848307
0.0036538790412136107
-0.44931604553004306
-0.031234163723828215
0.476217361553231
-0.47491004518082847
0.3566234731766996
-0.1898466054673815
-0.10760994335942425
-0.39623561553661213
0.25320123693890684
0.39311590186894746
0.3420750086300807
-0.08744330826191148
0.26368940280176245
-0.0752901583050357
-0.18996233594782688
-0.31211617675544967
-0.40121234529806127
-0.19670649138514287
-0.11639104566745608
-0.13963281265014021
0.4317321039400481
0.33988286234535103
-0.18063849057250403
0.09291422819842912
-0.4192281669261353
-0.22818230509452297
-0.2490043637893249
0.3192307488038022
0.09978865826168422
0.38177031099008196
-0.18287670563180158
0.1695924272935883
-0.2470393854564039
-0.4307873735127427
-0.47984951104612894
-0.47292774657385117
-0.13940436013177218
0.2602883001464542
-0.44296546824999394
-0.06761520251540842
0.03429885150353818
-0.11714169581415261
-0.3852611390312588
-0.35158248277941007
-0.23804188047286498
0.266921027209196
0.07511362627687955
0.2146500281024804
-0.4484193519617779
-0.22053266924723064
0.2339821457047862
-0.15980259889368068
0.40266963650398707
0.11889417001470548
0.4746646075001046
0.04219749981435167
-0.33044566609282217
0.4276667369103142
0.0032597000049710803
0.39673792853506573
-0.28600850627247965
0.4742435423669652
0.1390876399998624
-0.25232979196414007
0.354564515306047
0.294977177857745
0.4560952479390291
-0.06621889534486158
0.08598287405966508
0.2506823886662896
-0.33832372964938573
-0.4452126086878493
0.08850698828023493
-0.4870364314074652
-0.277755960136147
-0.46666308215946084
0.16859824779731697
0.4156710793459334
-0.12365877289641343
-0.48016910034225135
0.13920229193645048
-0.18207457703610888
-0.14457931639608607
0.4747003406318008
-0.07820065776205712
0.19272131699410125
-0.2527894780364158
-0.4121655286826871
-0.3735341171559102
-0.197135139983913
0.16303214802836613
0.11547911856796154
0.14493921354332107
-0.3644384366538734
-0.3387302295935739
-0.4960674623148973
0.007007685208465891
-0.07463560950242276
0.12713109799159863
-0.1447588319935331
0.24904254865045714
0.44365647703611366
-0.23545248275668154
-0.22925271453571927
0.17505655537868722
0.3905618307353972
-0.1988320710940867
0.31224054033199017
-0.42617979974099235
-0.1076484828870371
-0.2095474214400871
0.18533458057442134
0.061514024593390726
-0.0024011288430005138
0.2035080352100699
0.46957579691570595
0.4717573462036739
-0.1612184436395393
0.10870641049183179
0.48442913555414213
-0.09644080750625425
0.09013139019298405
0.14312250819918435
-0.2649897685149974
0.4693282745383545
-0.37126613642239176
0.40936101576256645
-0.21438677594178498
-0.21650370183174883
-0.4234500505184807
-0.06295756782103469
0.12485637594497137
-0.24391313974543477
-0.3908974485455305
-0.027070833613425146
0.30951854423754066
-0.4385477974526364
0.3967944049113523
0.1278625128206762
-0.33594953299281005
0.005317734392480435
0.4612960902988464
0.19627146848822627
0.35563246874173415
0.30514508018348757
0.4434573937267623
0.2876652253019772
0.0021549919192596747
-0.14323571130795576
0.4141539440637185
-0.2376280525280771
-0.16574208289953898
-0.23390164511583342
0.4058944311149131
-0.47309088268246224
0.3224863917131017
-0.4178278944581879
-0.11791786022837075
0.4478775024278904
0.06912573225440624
-0.4550700887505651
0.3243552055783956
0.3269607851332293
-0.23271699517419409
-0.3253874866024506
0.26988929569687076
0.1702520808729809
0.4778717172959312
0.024434413191333215
0.2113202764928432
-0.2699941692537635
-0.4065219918287494
-0.32849601145070084
-0.011255782387921734
-0.1289200962448024
-0.011956243928365503
-0.2504682727288227
-0.009793524313333687
-0.29715109891869657
-0.23261160328935276
0.2000870011383941
-0.47794003394048623
0.19382108333957956
0.11448172156685575
0.18764367007942587
-0.13702921073093455
-0.4711732431822958
-0.4166524832001713
0.2620792258284991
-0.10638720387904275
-0.25607421480457637
0.002773919516648677
-0.14114023635212739
-0.1261236279758227
0.4772250880916945
-0.23089881120537686
0.2286215457515214
-0.08074257479407676
0.4175408453878891
0.4573314184243905
0.36278773828368993
-0.1348177002092584
-0.2994885860411104
-0.1551195995726639
-0.2201604899242051
0.15084563396945025
-0.1313658575833523
-0.2861247795946772
-0.018364269480915206
0.3106752017997159
0.023516390635414698
0.4060911383019413
0.34884307225781086
-0.3469551091690114
-0.34101248581857374
-0.22062800162607366
-0.2455005160942487
-0.005554125922878478
0.05945374619811606
-0.254291139093846
0.4153573718258359
0.37405384954859433
-0.4672815056300183
-0.2820533177707949
-0.35243910032827536
0.4713182983999822
0.003901558215570662
0.14970084703876824
0.41772228734030964
0.0799009946385217
0.09478593567634566
-0.45668911434936255
0.15709491395037753
0.11598340647453677
-0.27974609510360826
-0.42052206376431783
-0.07296010473511953
0.013934440338928837
-0.20296456385897735
-0.25163120806779277
-0.27078046051463805
0.14238733763034397
0.23353526280174508
-0.03049648151632714
-0.4874186452254129
-0.2130306196813859
-0.28931952114392895
-0.17209285041044778
-0.3982963114652969
0.388189669955617
-0.22688135261340633
-0.30494648836645705
0.11910586665732134
0.182693871794472
0.08999957651556209
-0.10061608259034538
0.38394660631648114
0.3199850797418751
-0.11490303936461332
0.11860328919670415
0.30414304051054464
0.44088786242954714
0.22600310934014875
-0.16113145963923486
-0.4005660912003985
-0.2640170217978763
-0.003826494583082536
-0.26407863135756704
0.06498141533249804
0.06077490265925965
-0.46701710669423485
0.08187608054219454
0.22276538967606246
0.3325706930084343
-0.4668365492623152
0.12721679473000028
0.07642475829226757
-0.05619812862340998
-0.4060914342330189
0.17200148181339434
-0.43116215955846543
-0.15349368309787945
0.12992402894304406
-0.4367048214009291
0.42330969314420025
-0.2202308768621348
-0.2581506597716795
-0.12618546428040067
-0.1071921050311328
0.05927593381390897
-0.3949956638658394
-0.3141084375149966
-0.26515868096031797
0.23123586076132913
-0.45356777059980163
0.2696639697210909
0.320034237530816
0.488813318880324
-0.40869259943547653
0.05050158792360747
0.016475925544294757
0.48989510595291175
-0.38319891825224034
0.24223048642260242
0.31183726843384724
-0.17421980074369414
-0.07739116259422804
0.4097637063748353
-0.4487607492932737
0.49078960334029853
0.47524038370940347
-0.21119695516121284
0.08423309472670394
-0.4117408823366766
0.3162479875535496
0.3325201975785791
-0.29818771102949215
-0.3311346707802316
0.31165273724655546
-0.2029101706505372
-0.2385503188027872
0.3300860594310348
0.11943873424542542
-0.015453709111143566
0.28319337425717567
-0.010956942251217159
-0.11620910374180697
0.23698352196875988
0.2965538362442697
0.45690259141676465
-0.1179290686500847
0.005364581915904645
0.3264483988978401
0.05615768847902099
0.0919650877113873
-0.21251487750366893
0.4560861176951243
0.14119448153004482
-0.03405121104073519
0.4496539568361211
0.3724213177232429
0.12239954880705609
-0.3697458341296691
-0.06976037496169982
0.44964058672871104
-0.44905194754914823
-0.2696261217589251
0.40024900131874497
-0.3162895706381046
-0.4264968852132841
-0.05091871433170668
-0.14405727151017772
-0.2254112188627239
-0.07790634646622809
0.4116935009959601
0.26797450016356
-0.38473698446216553
0.29708770151392955
-0.3185368516758313
0.16499887328331192
-0.4216509042600207
-0.2656654608080237
-0.07066984608598145
0.33937012849921955
0.15458726156650304
-0.13209756058018696
0.16707027319523346
0.2054312055159798
0.037440378182214726
-0.4719658399315593
0.2699609074959868
0.4506285087854827
-0.4740923287792993
-0.02870416448831394
-0.07628323550381322
-0.23384177947081247
-0.27035859208050106
0.4751775250983311
0.4467385514931355
0.25802416012333473
-0.3991795465181594
-0.1986495287694021
-0.46648000806663054
0.30062947619978814
-0.3783644660748517
-0.32191019884105876
-0.32276890099204847
-0.044620827468281665
0.09805281947760196
0.19068245195939074
-0.433259800418346
0.47224242250693277
-0.25759499097131217
0.4082691623207767
0.48963167681538505
-0.19645884550848688
-0.49835303294747435
-0.13643332502156383
0.2278589843791842
-0.15846648479983153
-0.23796008563126847
-0.2738384181224481
0.4428329080230229
-0.15309415250681524
-0.17646282230097626
0.2725958269077449
-0.22641500924222038
-0.24286546634735723
-0.3036913129763211
0.036734190438151446
-0.1119725090953331
0.2122443210547133
-0.4092138880610376
0.2412535525425319
0.03762749724833429
0.004171883527390986
0.3400133900289509
0.23108321428739326
0.2953126046758715
-0.4824469873113232
0.04731106893453563
0.32661059411661947
-0.12311392978569682
0.2697244119306502
0.2963314314894135
0.06611979024430031
-0.25794658752733535
0.4151717955310523
0.21285207373261122
-0.12791080764039264
-0.47505529421430603
0.2621077199147268
-0.3734967544368243
-0.1738432285616737
0.27150831270576264
-0.3534504443596737
0.32880508436706923
-0.45385993855985546
0.2547714645937293
0.2378411010114489
-0.4220066817986481
0.1860706722185264
0.20551264357768162
0.025270115635842822
0.18506651497763504
0.4684054812981221
0.06638595028147497
-0.0007395813363691553
-0.41148864742827757
0.077811027761966
0.4721390993783041
-0.2545227394639649
0.0200828485110889
0.22204871143195315
-0.16756487389287333
-0.13958682096539526
-0.3205456402821867
-0.1996784175049307
0.3857105019202732
-0.4039226614816692
0.0007378712179820999
0.22933987189232588
-0.4789945856645776
-0.03814259464715225
0.4429239892780263
-0.29435526894428
-0.07753075300967313
-0.20759200728249755
0.24677538724396766
0.0010968659385093707
0.49230496628536946
-0.029773469910381097
0.1323424077269896
0.19305961868635546
0.06546093248579274
-0.2158072319036007
-0.2774855720392111
0.1195758532599207
-0.43132714600787364
0.18922137893198862
-0.13984190740270708
0.20528487277750018
-0.13873918307006933
0.3651671120175614
-0.47004835354575153
0.4531648080060264
-0.06719407940523008
0.3358819973535523
0.29744012939222264
0.2807355895695341
0.15741936877217919
0.11636162621736901
0.0012813460606105487
-0.4155089267770824
0.43540508358152125
-0.20432548343826884
0.2553094263427099
0.027055556431818173
0.46391616963773785
-0.008743274609893022
-0.0312615360153173
0.46931617210034376
-0.3310675149412261
0.13335865324301693
-0.14031638580341277
-0.18830732820781476
-0.07418721892583044
-0.3013901138789091
-0.38305949026389685
0.324173981425513
-0.4214952146531197
0.2198980423605969
0.3451834206592034
0.05498785259070261
-0.4411210320631122
0.0877386092437355
0.31499604448133167
-0.00947525864933776
-0.18078603079204056
0.4272475313973217
-0.23059248124288825
-0.2108405347802374
0.36141088409274313
0.3669226902391196
0.08125399790837459
0.1634232059578603
0.3281665002049465
-0.12061510280554749
-0.49009951898640086
-0.4020857555440336
-0.5043402338540793
0.20830547732642762
0.19865765937580002
-0.23752405292579204
-0.20219685443525948
0.05116411567438138
-0.07523911330798623
-0.31441897544867226
0.25765801032802854
0.23889861316876276
-0.2339048014167892
-0.4478526492730599
-0.21085141879361807
-0.34227984497400593
-0.0522648524211501
0.2971574162869979
0.3337999706314244
-0.45887214477144833
0.16321696757430942
0.09812423097326937
-0.1624832321012574
-0.47967240836475117
0.08726330337597119
0.46922761571456706
-0.4009714313162478
-0.014649342147047368
-0.04633017282272707
-0.09144929622772255
0.09678017920760523
-0.43732784157030796
-0.24118774951772837
0.37396618940416104
-0.10788590391969706
-0.1494586895376524
-0.13756674158655915
0.23188033997984717
-0.35924872746998754
0.027983102979230172
0.3355097707430394
0.27099277622777096
0.43492570653430257
0.25067382526889154
0.12355595656381724
0.40259783305712443
0.2174674335765097
-0.15620488025605747
-0.4563092551739324
0.4314146295342127
-0.3922499402230884
0.3524546576452699
-0.2449776907355746
-0.0054329404572673705
0.16265510496077518
-0.3931286843552178
-0.24265859785855204
0.2110491617604555
-0.17051528999171484
-0.2273900120581488
-0.14223462922330818
-0.3876155338422781
-0.4116851394099734
-0.009921570005860065
-0.4897607245388821
-0.0868353588092917
-0.02412519104546161
-0.4135820756424216
0.046206172051432674
-0.24503101563041962
-0.32237936021896707
0.4262779414114139
-0.35611240952952966
-0.41827033099449656
0.1927576647270488
-0.3356558751793771
0.03457838512237629
0.1335503709479245
-0.4155459238072626
0.4422027134602543
0.355778636402395
-0.15801175949601354
-0.25343505411776485
0.17314635289199698
-0.2950282679755564
-0.2995895857959741
-0.4049326757232285
-0.0718929100797159
-0.3119477572567654
0.14594768128549665
-0.043306776126799854
0.06673691408524064
-0.3147562406519058
0.26276118856586694
0.40314595576177664
0.45540509241254884
0.3952162176117063
-0.13706957040156562
0.4479946727609837
0.2885510863345727
0.09659343751331814
0.3095384877911861
0.1840135506077479
0.023116630922714116
0.04820095403956237
0.1398372802591903
0.14914272613161492
0.48523602670684124
0.1793620510141371
-0.349025456372205
0.25930144528190224
-0.449479167417623
0.05217444656867331
-0.30002581249788385
-0.007694962249332816
0.40581604614674777
0.0349262834823376
-0.19943058340652495
0.3148881203108254
0.4614106184866022
0.18758521434154185
-0.08515435577699215
0.44750453599214496
-0.3089574575408181
-0.24836334006250502
0.156025157027632
0.48153501626599704
0.468408439569718
0.08857313441847878
-0.12319812789164188
0.274531719858413
-0.11387735059746439
-0.4428386276388906
-0.3240824587828597
-0.2701197375623036
-0.08480108331550192
0.12050878585383987
0.383522777504587
-0.41474855505663444
0.19313602152208498
-0.17421246241348057
-0.10394785394419966
0.0771925600039058
0.3458204769440061
0.05455267136436831
-0.33636589361773767
-0.2554845050237451
0.12175919740621954
0.022544661744043765
-0.1003035923461218
0.45422748373432587
-0.37589147339975487
0.06759920496893447
0.48959584590742317
0.034210950568712345
-0.1767026020680829
-0.4723993270994305
-0.2892859571087266
0.05635464354963818
-0.39886985761333216
0.3079176539895731
-0.12559780044912688
-0.45010782716455494
0.2967321618626786
0.18773707228039968
-0.16638549808085018
0.29943740887157205
-0.3635180345360409
-0.051322288889794294
-0.28651770736828613
0.12355019908698492
0.10014712712814855
-0.42998813118589546
0.14415248909112474
-0.03498202337957878
0.3340642132123898
-0.5005344392129514
-0.1969175271613914
0.47841166803278873
-0.1065614463347315
-0.4949254346396298
0.09810388329689847
-0.04668142303029195
0.2951400598577974
0.21296679510564995
-0.24295829650153875
0.03799399657363163
0.3332310761333606
-0.3493405376679478
0.17845283905153164
-0.4610880336278626
-0.33509906519261806
-0.4573980920180205
-0.18150918247674466
0.33539262745477716
0.3083121121628922
0.1959367843397251
-0.2658754992011421
0.16896183180579424
0.04097754143283603
-0.30508626432548525
0.3575437374493703
0.3827103979322692
-0.47461302173340725
-0.4472308526925785
-0.27662719807418723
0.4708623856473359
-0.2308606222129288
-0.42475755460697473
0.07536385263078307
-0.2610621996173465
0.0039025493248329695
-0.23000100154329434
0.23865309659241973
-0.146334925369942
0.09602553282921374
0.05115816474155759
-0.13469772076349115
-0.2915559137115728
-0.03599329384352411
-0.5072330495655478
0.019541848027808593
-0.39654628613122805
0.11383849757852244
-0.3790951821022769
0.40996063240836206
-0.18513702860560066
0.18085435492579371
0.03497772331218233
0.30188805659570783
-0.371237381711536
0.3654479227267024
-0.2303872960180533
-0.3108262391861554
0.1001188366758108
0.3971067803625232
-0.38651184694328045
0.0687886434111681
-0.022886497189827243
0.4217048324501569
0.46193229564442806
-0.30042303316825103
0.3518638860023928
0.45056951212982477
-0.12968067640507944
0.3135970661095447
-0.45051326175486595
-0.12697280087201443
-0.38295973737530964
0.32429539602184
0.4343435175552397
0.3108079175685121
-0.4804955731752543
0.4400530476679162
0.31259416141305874
0.17101936784624155
0.05368201953025553
0.1284532953876422
-0.3150938190469202
-0.33877300225892326
0.11740658082549653
-0.43968193156291635
0.34779402638116763
0.020818309614527335
-0.37017932337303106
-0.41434458932380136
0.21571620870077474
-0.04913258160383756
-0.34258684193754496
-0.23588399851041209
-0.49430232262278145
-0.08558112907962759
-0.17229553332806313
-0.30444432149097916
0.2155961184002822
0.4461245395092541
0.23683376269382025
0.22098374430349013
-0.06291960444020897
-0.3179818964606161
0.18992349374213602
-0.11935332818418733
0.4776948042305201
0.33255599959285553
-0.04494275629808277
0.4852866706752911
-0.21734836627743132
0.12967715569463967
-0.28183554226875707
0.0524174836530831
0.26426977467961904
-0.47547691482710297
0.4156126664131947
0.2723240887518317
0.25585878668766066
0.2371737799660333
0.4455908930085571
0.07220688280590316
0.08922298532593156
-0.22589352319140826
-0.3099588062216154
0.35418283497127295
-0.11527825717473648
-0.3662943969873368
-0.35405419833776575
-0.08840081562251041
0.16618784032699896
-0.08987106574472621
0.14214213854044622
0.0015772914384452209
0.19913571873440658
-0.09486733532442669
-0.2501893377066785
0.1497028961142319
0.19038385661185783
-0.15961173286447428
0.2861650597303371
-0.01745248524495121
-0.0199554340738802
0.09802429372359785
-0.15947434281232023
0.349782037373465
0.250138355264197
-0.36037930446209965
-0.4765712807205217
0.024256818695162993
-0.0222296760753906
-0.16788768635233595
0.055911656950078326
0.46035694407489214
-0.02571717324781316
0.22003326536053675
-0.12963512178895356
-0.4815034022187188
-0.40753005817921706
0.1636482880613587
0.3199612852992489
-0.16851549488873288
-0.02802213508961814
-0.15939826405068053
0.12871758552709264
0.19690619574264578
-0.012752103071354104
0.06858814565238824
-0.4311842597725132
-0.3034928873056004
0.4029464763601989
-0.23973011841895986
0.2263215205197422
-0.38782938550149065
-0.1549452270535808
0.4050056809152939
-0.45190374262391486
0.05166887355192332
0.3800548590370183
-0.24135228467600156
-0.030707462044588702
0.19684445658019775
0.06309184934534094
-0.008096451419940875
-0.4408069808976858
0.4557969661635059
0.11813764124118588
0.3798245587509514
0.32171143056614593
-0.055779544999525366
0.09934373742726003
0.3532292539967785
0.0775611176771155
0.07983709021417373
0.3525813786072229
-0.43347940746024655
0.490844808987662
0.01418176292784808
0.470120522250454
0.022406296367702618
0.2330162042999458
0.030363966027747758
0.020369049222752914
0.04224001309799036
0.011384220125304087
-0.46873447955847486
0.21236903515073885
-0.2821376551595315
-0.24718689548194314
-0.13944208942855058
0.19433286390707513
-0.35744400307040186
-0.4929899091503101
-0.24665869734574772
-0.35368983136455123
0.48689073285611956
0.23496258654992647
0.32218990250187807
0.48713598313100165
-0.05941004201372098
-0.4327000649934175
-0.21114400198570354
-0.4450306062719887
-0.19270757616606862
0.3039938613938794
0.4840930574403264
-0.37945405348048183
0.40979650330364625
0.250949210707035
0.3538603130875862
0.03629045582289412
-0.3890727588396859
-0.1856204304150183
-0.1515316312802175
0.4336358018123571
0.06637721228856916
-0.13918203517821123
0.15900874572357218
0.017860348833507757
0.30553572648964195
-0.020141457079280507
-0.13592320020895887
-0.3588982609220758
-0.17568511971730014
0.033566035382507436
0.11575039896810677
-0.3296064936291323
0.17932600281831867
0.3140450676492169
-0.11323889529359406
0.3772505850487158
-0.2616497634214701
0.2742901159051809
-0.35992761542814505
-0.3075250252954274
0.43417834625943796
-0.3054814957268712
0.4488103964367943
-0.4436626715520006
-0.1546732922292817
0.4761407667112272
0.0397277666981058
-0.4288142349201861
0.3477474880343545
0.0027752977460087144
-0.06946052034588152
0.42146828358104266
-0.0619209247205508
-0.08786209535629148
-0.17304483608578605
-0.20881597677937666
0.4506025077317346
-0.46072533271228716
0.49155847223820304
0.23949610138583124
0.4552889371271002
0.41862454476476546
0.49604740112060897
0.2554975540116633
0.1005257123032952
-0.18606606366708753
0.23114888802890496
-0.47044555871696064
0.01609329022750705
-0.04783843100734043
-0.04880713668863164
0.2928458431754478
-0.13238320814610022
0.021570768950808773
-0.058109188957254664
0.4730417994720131
0.21071073789803468
-0.22318141838279404
0.1698017921522935
-0.4257330554604798
-0.4857604465599208
-0.2951549720967562
-0.45302887157391325
-0.06127384239559761
-0.3027580470257778
0.049626195792902984
0.29504523730336357
0.26755816996142345
-0.23432811224013125
-0.0919987025114027
0.2541625582049813
-0.2212143217937075
-0.09520895032787896
0.3783700403414657
-0.4204009539349259
0.031633698775065895
-0.24424329768748937
0.19280221757220004
-0.16377447320776847
-0.2934815346720993
0.014387569657205182
0.461701556166618
0.08183578256170553
0.29006985598711776
0.09358022488548062
0.05134958395425254
0.14683294158456953
-0.33831481507007666
-0.15959728515123664
0.2764324286932134
-0.3242619505647959
0.06806117432558154
0.5029076407542814
0.41645199477616324
-0.24209332465306366
0.0600220971598849
0.18134736818139308
-0.4224472081861746
0.4472405720807618
-0.4043960048137953
-0.016560913773453607
0.368424402155479
-0.1741870176368423
0.2763448434927436
0.09487496561179024
0.4101238975661717
0.35965944218412926
0.0833005016975602
-0.2052010947026388
-0.0005003543592030712
-0.264803694086311
0.21260921162449378
-0.47290272348784207
0.15863664348054873
-0.2329448251684685
0.4831467221921544
0.11876034690357821
-0.2669181041485051
-0.12046447204496133
0.25137699880721026
0.04627198246110229
-0.31037337606407317
-0.2795666674367285
0.19204716252342363
-0.34064075193283133
0.3095897351823288
0.14549497684152798
-0.2500224860141773
-0.28118308518117446
0.3495048677611267
-0.19878172675219907
-0.03363018556950292
0.27534151682069796
0.45977604546762185
-0.16615064840912439
0.2103554094612472
-0.1617180329292559
-0.42767971295982066
0.39923820302261886
0.041007692559806935
-0.3128430778468924
0.20676474924295826
-0.2020172849528659
0.17690765180738388
-0.15767863141240404
0.2721663174297696
0.06604553152936649
-0.21053841819970498
0.035922324426174046
0.25150202220600976
0.15971560459106135
0.21733915847667876
-0.11460042935172664
-0.28641650884238873
0.2588469695307219
0.14824514599627467
-0.4157425518932091
-0.07438367263885706
-0.3486660836467809
-0.3103245752239999
-0.41701486533930904
0.23589946147920818
0.4439195702845472
0.23471516088660102
0.3479661112608211
0.4936958314930552
-0.45396739819050114
0.2615372063294511
-0.22193261239523196
-0.04840062670150716
-0.16044523775111275
-0.1380508370261855
0.24176685724785762
-0.27830525025571173
0.2571185890362929
0.3443152380453474
0.0955117153716364
-0.3495652961267181
-0.16507073270246014
-0.07695833120753594
-0.4663350767484349
-0.08301625208332972
-0.08147399853769603
-0.04974834700588206
-0.17854902920906954
0.2079628459114312
0.048959994054026894
0.11037537410050703
0.28661636136051966
0.10155441634438862
0.1469690184845128
-0.11833599244801868
-0.23122684499422458
0.2920223963422268
0.2345254128496584
-0.3248246089368884
-0.5027396916222135
-0.33040941515024835
-0.1304262699701803
0.32447458954911645
-0.4625295763163901
-0.02922982565098682
0.18599354230509396
-0.1362089373876834
0.22518269996498613
-0.3092478326200041
0.3992703654738676
-0.07567507175310548
-0.1788568887882648
-0.5115321989174535
0.31099109194101177
-0.4768509722595852
-0.21515076948399184
0.3240420160060249
-0.2686198946259634
-0.025361872699862918
0.13194239625650717
0.27304655983568055
0.32614830528503813
-0.1745405163540197
-0.24826694671212338
-0.2127460079916295
0.3371367846842723
0.24867427745979062
-0.0022892884164830915
-0.3206862121258147
0.11267016737442978
0.415275985854022
-0.09229744450497086
-0.18530764921147264
-0.2846768293337693
-0.16906195493254036
-0.036907972845865125
-0.07027146941430966
-0.37045094350093405
0.36900144451568645
0.1330534941460938
-0.310719692633233
0.40520715049225436
0.32837773497267453
-0.1896009810232584
0.4466166885296287
0.3130975515635051
-0.44094965839236766
-0.021908532808244344
-0.45613975565644516
-0.42757397086017124
0.10854230132033715
0.14317685391689017
0.1969028543812768
-0.1838674225551339
-0.1047968151666742
0.24455970048880055
0.4862160874512937
-0.4976779459894671
-0.3093726361474077
0.38556723742998905
0.4614199121202857
-0.34235548605988825
-0.1927476322547431
-0.18886224977150712
0.2928229325549357
-0.23297905809462832
-0.10556099241233417
0.34089086071237906
-0.0048070545164672395
0.04943625955610878
0.37866375702974625
0.2907201984954124
0.07441124652888326
-0.49653763411077284
-0.48787099667542905
-0.014204652588900657
0.35151209400231115
0.18655143719023223
-0.19844387160617144
-0.009021211202968197
0.31182391387695463
-0.17087654599750074
0.0357527998792937
0.10642760437678352
0.3936049878901466
0.06535547621845171
0.16933607679437312
-0.027112715427073285
-0.2829095479977929
-0.14948062550641755
0.25941685873152476
0.291327671388293
0.10542932586043618
-0.07764164213113836
-0.5084732655998784
-0.19098359580503033
-0.11799205786215464
-0.48071477424981135
-0.0012746399557425172
-0.19294249988856088
0.2720727290933038
-0.2245179024599209
-0.08672946181584576
0.2206777271265278
0.4794639249301176
0.3539597304847752
0.39419659677605284
-0.11983334402008773
0.027446312591235113
-0.3791462238949588
0.17906916521408295
-0.4721973074963312
0.29917549106320385
0.35212579071840056
-0.37022473193104216
0.13307902471247218
0.12229285932501335
-0.009646166348109015
0.352672213281468
-0.1524807624887523
-0.4649256607465391
0.4723868689509054
-0.4818714737152145
-0.03749552305150519
0.2937165578045709
0.3118272395671346
-0.3186636560248095
0.06347493934125396
0.33615050801036384
0.07298084172878613
-0.41211966209723144
-0.3104739520969809
-0.10459750848657713
0.34724037392637536
0.05748968003031575
0.4493507463278262
-0.2774202006689512
0.35665611954688153
-0.4204382088139366
-0.3859872779856041
0.3374567682084994
0.3986606877787298
-0.4789662674820567
-0.2617476112178045
-0.146977102672481
-0.08698709172490186
0.08862421579201164
-0.23835792758003377
-0.11907758861869869
0.2866890558597901
-0.0703662702597108
-0.3636168694045424
0.12525525374862478
0.07297569671279498
-0.28447994613683497
-0.18413471748768248
0.32678155950061133
0.2901406330355604
-0.2986485724685231
0.48282026772613995
0.3880599599882647
-0.21510352902547664
0.49525410181796137
0.3826372699358762
-0.2878320226668352
0.4875115162232259
-0.07915719868011274
-0.17210341115789096
0.10377227771984116
-0.4401080043484089
0.28193449833609896
0.42900065290485717
0.11959277147383257
0.4318229086306254
-0.26750610733089797
0.18950474500027947
0.012933483735951426
-0.4854713724552311
0.06825563301241935
0.344263644293845
0.31207256632519764
0.1278657929224912
-0.10392029668078187
0.2239323907219574
-0.04924671134192993
0.03349130757116779
-0.4314019367766461
0.1641944529404488
-0.45440201234211175
-0.41775164192842684
-0.032321046345756964
-0.1980047569620262
0.11742679752891537
0.37304474175750857
-0.4416424870855477
-0.12823343303966434
-0.002022933922152846
0.3148689139759681
-0.38781943841444
0.0037483689953184953
0.2836846391360189
-0.03010931568107985
-0.3008838422327725
0.21570844367920444
-0.26258126097447193
0.4321078132515301
-0.2317080745592853
0.40233255766263004
0.029923882157285638
-0.11948299650146724
0.15952296053143608
0.4123330871298253
-0.08347928867242894
-0.4416951780636947
-0.10207940925867569
-0.35866597725363353
0.3511722898404294
0.09407441288912172
-0.04645820407248547
-0.426656606533701
-0.36519014375733644
-0.30758790426870525
0.4663907644702721
0.07091428135772555
-0.4497643128378496
0.3788014578501431
-0.45956540529038387
0.17773688950162975
-0.4119812316571758
-0.24380398878110648
0.14619892058471215
-0.15257792264812636
0.20624941380924758
0.3621988026697502
-0.15043237613700053
-0.4087762942428878
-0.44333796574394096
0.36792810654509783
0.25212007754157917
-0.26244541467671234
0.3427534276050026
0.11322256930497465
-0.12758954113014584
-0.22809747450101014
0.46918215014608683
0.4837098847078543
0.12576774120335465
0.06179239366030634
0.2801704034945771
0.16671241988718116
-0.36614552183445237
-0.24081303645590474
0.26414912080747877
0.11994060194713071
0.185308231046801
-0.319833210731524
-0.19816425394190126
-0.07856276902014601
0.10661634173880932
0.365570993814987
0.08524361504351168
0.37463508765310327
0.14568446533758578
0.34501732292942433
-0.5048536518047693
0.4609503224833736
0.054890962572578667
0.3340203525069385
-0.41672582200719366
-0.10374142532099599
0.07057438396447657
0.14930701297257978
0.04486864566236956
-0.410598371086658
-0.2094572187950808
-0.04948804852827277
-0.1591682856139859
0.27943730608606915
-0.2916219314660503
-0.3011870207392884
0.48762130730791425
0.3213612531865413
0.4789169884550856
-0.23082076411142366
0.46831669339944
-0.13418497782112337
0.232348802228032
0.11186357437829884
-0.02694929328867014
0.2392932751008422
0.14178550151377808
-0.48799595524644607
0.03836039980692715
0.3669942125661442
-0.12723679689552805
-0.030812501022352168
0.3678215298355207
-0.047019843872636094
0.3481927007466101
-0.02632724498307819
0.12197159438312075
-0.03209964399406526
-0.4314202901409109
0.37821229335955103
-0.12090336330303598
-0.06240782933492982
-0.4477732637085757
-0.34079726434709484
-0.25570053310331436
0.0635900208356166
0.3584665641363452
-0.44718385190623533
0.06209024485006719
-0.4302552651516348
-0.3289762512609908
0.2122147704839504
0.477651891480088
-0.4929249125500945
-0.4703802172164814
-0.27125771987097347
-0.18208638203014893
-0.33419567156975316
0.45516287504549313
-0.47441168021128194
0.39841308575232165
0.38306177500057265
-0.2260172826852316
0.31614577969604385
0.3603402810584252
0.20107226372954673
-0.059321161106653635
-0.14072440330793784
-0.09498647322383726
-0.20715793412564343
0.0025420339284225276
-0.36028548855970705
-0.13108281876633532
0.027605849518328743
0.2870417865823667
0.49286765844339997
-0.3375141235534145
-0.00809242282442084
-0.024045548975244923
-0.02956991234504099
-0.34976476946583457
0.37489787680607256
0.009552621207103573
0.1603935803223894
-0.34546180197814524
0.24698756787805468
0.2552649040805746
0.12090260052821648
-0.1011641694142212
0.4939645389377388
0.11704775136137176
0.3258285273977909
0.2739451557850426
-0.4494760349567333
0.13795084488718765
-0.13587708866523604
-0.022058181900559557
0.11692868012605999
0.12262854279245167
0.3931889866256723
0.44948346436945447
-0.4846029818874269
-0.28764287423868623
-0.007340824331494377
0.11508878960086817
0.16895853165152677
0.40466735040852253
-0.16662922611651002
-0.08925401770316908
0.0813836105171692
0.1654045726892786
0.48097310544567495
-0.2273783889313161
-0.4515906866850558
0.1822604779633718
-0.08484285917148258
0.05706121823669008
-0.13769988071421324
0.22781769741903146
0.10499507045695225
0.33684083878749954
-0.355379867253811
-0.4238047488507741
-0.13928015526430992
-0.06596279863937311
-0.29674566624525334
-0.38875641612231
-0.45277089653448443
0.27382716328795687
-0.39671861780103407
-0.29967834298131074
-0.20238586659197347
0.48637576757714485
0.48932758922576103
0.00844801241019323
-0.2747214820669467
0.15620673057506648
-0.45478706772261895
-0.017692808510757066
-0.4105221432996629
-0.24177292787565274
-0.440041023062556
-0.0786060671768053
0.2887637271048634
0.09906758015437969
-0.10686638476565442
0.13205824692802265
-0.35656051448964865
0.137904967520657
-0.46980379717693854
-0.27061472372929746
-0.29445099772901345
-0.35683281901947483
0.35512225792521085
0.49287541880564334
0.4440976699028736
-0.0400566831312445
0.28926787747001503
-0.09092648919275391
0.142503457409431
-0.21885806762625967
-0.004516364014300435
0.30451083617497654
0.0021652884387737565
-0.21957306776807747
-0.03061453058452781
0.006697097520126846
0.16027107273757696
-0.3818121000713757
-0.037065815732043296
0.2670896494527604
0.07329356061888219
-0.3684079230282687
0.359189115980219
0.46029202414384723
0.23564764976543398
0.04105499683557188
0.16204998081299032
-0.44111279393112907
-0.2662809177314356
-0.4651620783089944
-0.38787837618148857
0.3085659695205297
0.10147148639655379
0.4682176782309007
-0.339884898052118
-0.39788742566888297
-0.02693396576456809
0.1876626785259555
-0.03708464047474211
-0.3258877530070937
0.28196923775085453
-0.4811977363350243
0.23086406659634062
-0.13222461669029423
-0.29212820829879377
0.466344002890429
-0.33669720697529765
0.33606879974963577
-0.04643028072411519
0.030929046585703675
0.26570341569613
-0.054832261667764316
-0.07412299817965388
0.3906949167420144
0.40711837129197703
0.2915967266440834
0.38766147258226175
0.08543352704480013
0.2616351270507552
-0.0969231079455256
0.21382651349644002
0.3785834254196784
0.4821817158190284
0.25761390616887414
0.2374040099652614
0.31240881471080845
-0.1135140165174561
0.14172529799082714
0.3813666204204925
0.33124549054534935
-0.26308581998734754
0.061745609801344095
0.14039041938714034
0.29965515772140205
-0.2910611896497958
-0.4931379142239686
0.4287717139270846
-0.51445429921242
-0.4808323205819894
0.14182991467552117
0.1845173931452696
-0.0262247143282533
0.04695942476109814
0.4822187428467593
0.21992465605989878
-0.47447583361999585
0.2786485164775363
-0.3423423455732603
0.07341203272257525
0.17377411202054355
-0.32713674863160225
0.023831434748059262
0.3473158480360543
0.4491707557833569
0.3933508570660026
0.04634209288728071
-0.0018168239783865306
-0.4562029295620831
-0.1808247475989698
-0.37159903530650423
0.46672068848574666
0.430036158837058
-0.10538734735022681
-0.3883357076717249
-0.27310071346307835
0.4579480436477332
0.27147420662575383
0.05319262155028345
-0.4704691635642341
0.025543303431257842
-0.23747964025897153
-0.38794227683463145
-0.25678961758243657
-0.27078008730831976
0.11861675067625735
-0.4046168081451242
0.42503734938010634
-0.15668211603221688
0.30221342065250417
0.4737847927668943
0.13498229897618677
0.03697854311014946
-0.1931148828158479
0.3853771678879266
0.11907557802692226
0.15145076588239065
0.38049122729408663
0.40062247164789944
-0.4591649680547961
0.15146834715722082
-0.20716982962872552
-0.02181859883279858
0.24672197041272487
-0.4109554608198597
-0.37088036268855645
0.30840827619754535
0.3902173128025752
-0.23039528422298133
0.18174366451992785
-0.45607577850914865
0.3972254694818557
0.2196608202668611
-0.2657125573347323
0.4677687747275932
0.0478627562084981
-0.20907370404585862
-0.15115971569913172
-0.18001297892206589
0.34999395575705766
0.40434456080769454
0.11984406069183359
0.31235164964976386
0.2225419186962761
-0.19260964178003068
0.44302891712220377
0.3017890703001726
0.42788046038905214
-0.20354110455236407
-0.38242319124198226
0.12092903398149403
0.06672390300424272
-0.021225601625314644
-0.04869910894572394
0.04956203091036772
0.058616255324053367
0.159238071199466
-0.3573682040934308
0.24719492796338813
0.3387073914487716
-0.335252831628144
-0.4177772062654749
-0.19996747687731095
0.18805775303104078
-0.0944145385597391
0.19836506606088708
-0.002600152280417983
0.46144966778782526
-0.4012955995299974
0.23498573640187526
-0.09790764215437696
0.14261820632290803
-0.42603966575575464
-0.439820011709363
-0.31558689432930936
-0.4612523842666875
-0.40844466039401545
0.2651803042932888
0.14643180074813614
-0.02644647757843978
0.10383337581376569
0.15778084305244913
0.45392420794914606
-0.33495976148733736
-0.16269250438584335
-0.05245306029620487
-0.2839467093115592
-0.23976206446676857
0.024300596637910753
-0.17496112987784693
0.04821281564123079
-0.12243764455241171
0.18576371771536113
0.4878739817843969
-0.4393537369276959
-0.3020191038311726
0.41685242180947246
0.06150241966517896
-0.41339661383120546
0.15486495814161447
0.29481187507655665
-0.3696484786308097
-0.27186550621260686
-0.2458752389833062
-0.2048563178649157
-9.106712492916639e-05
0.28108575985007295
-0.3505934797404373
-0.031973883916702174
0.45258483975047353
0.47578376862944294
0.25991413977737626
-0.32803211627482315
0.4540640685543498
-0.3625004191836883
0.43126626498471493
-0.0744568126973054
0.3994651209149703
-0.44908547114048214
-0.47269594998602193
0.18595689131612111
0.46247655073018973
-0.2651630516681246
0.3741446072316752
-0.3253128728599605
-0.11540483589049072
-0.37925947686212536
0.09014563833324904
-0.40854816915419145
-0.11388122809999786
0.16341649531358338
0.20097492313556248
-0.49916292844198007
0.022873252858911258
0.500433281603972
0.17464257354997986
0.3370814734914954
0.2172068627493797
-0.2432830091034661
-0.15359732151171496
0.40181113305717664
-0.2907282615622015
0.4159690890551213
0.10381709338634126
-0.4604662000097062
0.2622034238011107
-0.2591025037191191
-0.41713097326878373
-0.2923155658103089
-0.09063244255197558
-0.050033472679694796
0.26835417591503125
0.09037141643521841
0.10228647442932307
0.23377294254732384
0.43546099380757913
0.14742460182080885
0.3023549961625456
-0.3229923323963145
-0.4782761093193312
0.39337678458408304
0.160476772310194
0.3052681036943132
-0.1135474503726738
0.0064104378988019215
0.2994862514713923
-0.2978858719178463
0.43703148662532865
0.35702872462625346
0.06715884371677312
-0.3742270602179528
-0.27427838758579987
0.4396257414227191
0.2751142050679837
0.32259321804981106
-0.08387925687021076
-0.2883036304978547
0.4574470574824816
-0.4832598149730321
-0.12235216325474826
-0.3738310770312517
0.2148431067676132
0.10289825367956909
0.43627196553806097
0.38466240043555083
-0.3350377239601848
-0.08283592436982117
-0.2037933193425649
0.23168543612202017
0.23912335180171979
0.09369898357209847
-0.4594674906575518
-0.20305545400361438
0.46582610861441365
0.11116593515210856
0.354019439704862
0.033995490109365686
-0.48048249150748973
-0.10541485788535007
-0.23538768124437778
0.3301180376191612
0.04965944561169257
-0.40172529624350295
-0.30657387723350205
0.05756041965934737
-0.17416606108753246
0.2785712213327911
0.29563392970664326
0.41003662104034644
-0.32134353584062825
-0.16947463960411757
0.4424878575383959
-0.2919639127072512
-0.258671802538588
0.3957489596396884
-0.14062808838741098
0.044803046257497425
0.1737809735921981
-0.18742487707492192
0.12491538948433645
-0.3180970346891401
0.1142474823769826
0.024078058032569724
0.25130840873448335
0.15320288551059902
-0.17808535798073388
-0.10622081930356143
-0.07884616817537965
0.0038456216029663943
-0.07764963758455148
0.2904867542572235
-0.32759642260475647
-0.2142697619485389
-0.3643859216041812
-0.3726234292977404
-0.25759872756832897
0.12538116611816746
0.23092467166793268
-0.1411829896358773
-0.30812003729902315
0.19210831543554843
-0.035178479951458536
-0.10475476455231687
-0.07608166545380671
-0.012705884072325025
0.4397129313802069
0.05039941653620347
-0.4238768630503331
0.46310047679946914
0.28211207975644265
-0.4021280690011483
0.3408734324570129
0.2977712638648926
0.42224565554584603
-0.47529337397669086
0.32389099818761463
-0.22203059764496397
0.10996029122565558
0.029542162445947786
0.32162625729013833
0.07331602486273917
0.43457376405230924
-0.09073902560746623
-0.027205956418349983
-0.36575959297954896
0.46325678077960614
-0.31047425079973934
0.43161144042210603
0.37791834459729323
0.02600066569965001
-0.4763154051657231
0.04804908154365939
-0.2567068382790167
-0.35343443050030354
0.35668794775240537
-0.2584406492011421
0.16774705241048654
0.47088332436270114
0.46388410961316695
-0.11179584361023144
-0.34683563009242635
-0.4028355184906929
0.423885357469693
0.4682053561284894
0.06008286276279488
-0.13275181641406955
0.09018159743574586
0.4964952416413978
0.3393262728813652
-0.35076496332192364
-0.10508567387721404
0.060409470172305996
-0.014753102178295365
-0.21272007068862847
0.24969066284268407
-0.17613694403947372
0.3193789131119347
0.3308212678269541
-0.3719441386891569
0.49197827925393744
-0.20527927434322193
0.5012746751312493
-0.19737890306995812
0.2980830207212741
0.11087225943796965
-0.033236203983352426
-0.35141692700791943
0.4459365019962851
0.2322239318741366
0.17132262262848255
0.14229034742836763
0.3942977909981726
-0.18868905678858972
-0.2941388738421071
-0.19692269063379797
-0.1047155183003887
0.3465173969331275
-0.042806394067555154
-0.4929665578881263
0.15599656240425147
-0.35707749997480276
0.05362687443305473
0.14993200319780617
-0.2731608611943575
0.33451499882990404
0.13311183733340703
-0.4900707257294631
0.2654302610080985
-0.03373698100577811
0.3658310824649232
0.3801998159260532
0.4693974590723058
0.015771394536524774
-0.28980505443646754
-0.02320032329282517
-0.1435629202637179
0.09317568505277127
0.017325026114524824
0.4985409594287646
0.12800341510015817
-0.1775804922481476
0.41296480852038786
-0.22284750359026728
0.2064977760708172
-0.3763195557343673
-0.35397916190235085
0.2517286947050037
-0.2686749473358313
0.23370664665067706
-0.06390595249727658
-0.4738172461543572
-0.21555803992591535
-0.29162094601945737
0.0197505322870053
0.04313005359479177
0.07318358517008963
0.02781119067585678
-0.08492473365351706
0.11896413901109285
-0.49471312898727793
0.18331640914646616
-0.3644497419569297
-0.4825330626084951
0.3843725680682902
-0.16299448317078666
-0.15926445195589453
0.40366363380261217
-0.47383423727336754
0.06658928909850505
0.46916350134206747
-0.44328701140277804
0.24236176601132584
0.46019631196227107
0.1930347519121586
-0.28567595432949006
0.450289139591631
-0.47921068858446914
-0.47862179490889767
0.339778288231927
0.17081983013193217
0.120920148231079
0.046395640430574425
-0.30396487220847784
-0.21852117974931684
-0.2375061279203006
0.15227091345182767
0.059670634052033475
-0.3021941235185279
0.4290931642436811
0.4329302116721176
0.39640952922763745
0.18013206150975436
0.4779614407965672
-0.10172456366707393
-0.2056197001574597
0.14401977907540459
0.17322646448678775
-0.10785079439290371
-0.4605823981190892
-0.01063733221909499
-0.18113897892583042
0.15292589125934763
-0.3646742224820319
0.23506292502972648
0.2982766754064076
-0.3058259410981938
-0.21345198290410547
0.025906672296480755
0.270518626842813
-0.4934778308960453
0.45419121870021734
-0.33935057883949615
0.07701229007271573
-0.0016820625847930237
-0.1555394102675709
0.24575653824425062
-0.07224650257866605
0.4852001340655669
-0.15607440889639165
-0.19475625454496753
-0.3799077470256935
0.18708526971473252
-0.36452507422638825
0.13409127898309292
-0.344455732847109
0.37036836391382205
-0.2899802695363772
0.002615850035750537
-0.49664857933519585
-0.2999884007490051
-0.07641040287297904
-0.0504904749708379
0.1821484446951071
-0.07409954828020038
-0.20434839811836922
0.2025321559874983
0.47334929959341504
-0.36247469259328924
0.3861741879449551
0.20697942013444812
-0.31062525809012287
0.31370710712807715
0.2655787647555449
-0.03513790290985588
-0.2408083907052113
-0.33820135681299257
-0.20841567795352753
0.46777768924607815
-0.30150666917356533
-0.2565792984158019
-0.330360764330048
-0.252199552335166
-0.22520745005434248
-0.28070912065736525
-0.4120418247102738
0.0457977674789145
-0.3831685684519879
0.477861759467028
0.12450512575179107
0.17176779417306323
-0.486012901628761
-0.4666668749289533
-0.19059213196098626
0.004684398186077682
-0.20898076489505615
-0.34586130929123093
0.3856539219677186
0.29779448726997526
-0.41109713540036746
-0.009438647051255494
-0.476824227160133
-0.30711299733496406
0.4296435562277434
-0.24809999457518384
0.016581348064933228
-0.03325415558139611
-0.20047552178718914
0.10067874292387577
0.47667501178859994
0.1752539248313285
0.22889300095133458
-0.16106247993834966
0.27095221505879835
0.3822977656216761
-0.41440961106898405
0.03065037267926404
0.28705149288446274
-0.0005913368005758205
-0.396863270992201
-0.3164507935942779
-0.306744874091693
0.3722173551652267
-0.16606420183228
0.23390945248258024
-0.3407040510175588
-0.38161847694440204
-0.018677525707794428
0.03459897242410909
0.2078797335637346
0.2597392964728512
0.14320397343600139
0.22528745810012088
-0.36386860145290023
0.4715710239268258
-0.2009668205946653
0.07459530796231617
-0.39547654421408823
0.3427634167766854
-0.3712278982616239
-0.21246450860681143
-0.3916075842562203
-0.3349688377560219
0.12669485185037951
-0.45306693899986916
0.14888622244091468
-0.5006737994781505
-0.39711419826698896
-0.3446156815394227
-0.3740510048767705
-0.37170527841151524
0.05655742196614526
0.4540904633984215
-0.026861937089488228
0.055026271827351515
-0.0817359513365142
-0.4019485733119411
-0.21831319945517022
0.3556120717868156
0.4356826904384378
0.3470841729612844
-0.49594610477707146
0.010265758741837699
-0.3596686193540549
-0.2554166727053216
-0.09693382250116857
0.48040328214711653
-0.27146319603958713
-0.37248665438360495
0.11176894176424373
-0.4487177128383431
-0.27548154681046655
0.31888845400306354
0.09243729775831987
0.4273499224769324
-0.13873355684106528
-0.08979093498594744
0.33186977816796376
0.19849143051336726
0.2953208477067753
0.3337811466033503
0.3537458781410244
-0.3615955864925187
0.08677652241093431
0.0015259125830940766
-0.39820257617696353
0.11546008654475577
0.35646458042829854
0.014695524341528418
-0.054360885545059384
-0.20050342760826567
-0.30256472672305396
-0.034356784589079196
0.4214225150064149
0.14633003052232918
0.10939290409266485
0.07353113123092991
0.13392731591813475
-0.27964172681936184
-0.24355605780727438
-0.0933401500086296
0.19876765583058884
-0.3561565095346694
-0.3442740172560936
-0.4517674913547399
-0.14770970980799533
0.4809454471149173
-0.3754844539514729
-0.30305961412416843
-0.40392788424171894
0.4854105611599453
0.45752012071488685
-0.13860637456722463
-0.012317426898569687
0.08882652840056099
-0.34717656687036674
0.3814957708187789
-0.3980240026513541
0.3454585674944121
0.4763600767041611
-0.14650270746547242
0.48136688461156374
-0.34952850915287936
0.025608462237675385
-0.3631780452698453
-0.19651634618318511
-0.4269454767657979
-0.11369936966084632
-0.19035117868543122
-0.47880264409093054
-0.18991062499068675
-0.34009282654627976
-0.4116171882169651
0.33977947513379997
-0.004562857914650028
-0.14680481574450369
0.18311995144364024
-0.2246428426797441
0.43591028880485533
0.09399769244475537
0.12168249038371079
-0.2769995186496065
0.09985594333273333
-0.010082294750080356
0.23006095693528958
-0.3367837183771069
0.349273114318971
-0.15305120695309765
0.19341379527198008
0.02085397931526281
0.013049196596350936
-0.05699801130855079
0.46209568459715694
-0.37750121682150395
0.47780621519215233
0.2671011361634931
-0.09064450622727568
0.20905340030394157
0.4822238991320223
-0.4113061051561335
-0.03893915184819009
-0.19056557261956358
-0.10100113930637589
0.35482812638034716
0.21171441376512226
0.4400765737419719
-0.4236168460549092
-0.37732895205315026
0.09874679756566991
0.2287544612768983
-0.41522978433460667
-0.25592604328504875
0.22151357079635262
-0.45316125245854355
-0.1212786481605318
0.11690134179689256
-0.08837860919480911
-0.26077282602248314
-0.4225430097275658
0.2520987057071577
0.27792271612828606
-0.3102580114043461
0.12373039375598303
-0.018386010605243787
0.41546644828786816
-0.0492015568967642
0.24823850634663627
0.09822598299980888
0.11020715398404195
0.039359407292045075
-0.3821974443532307
-0.36466368689088713
0.2434794934917563
0.42894284873809485
-0.40216066907321973
0.12346580201647266
-0.0788664710378369
0.1663090646545519
0.4091848874555397
0.16741424883793293
0.23779110066339637
-0.16871592686332454
0.2872759376090115
-0.48525265872186857
-0.2257611256185075
0.4594329357603359
0.21189419243600788
0.3299866495967458
-0.25106384735491216
0.07219844892433336
-0.09152968995485107
-0.03555673991237725
0.5046994384431126
-0.38370055012186594
-0.35117517981578866
-0.14045353625324491
-0.1454951801382954
0.17297494619749254
-0.21323431055860223
0.3819243639297101
-0.4777488954136187
0.3157273162668981
0.4675016456970646
0.3103772992025499
-0.05900207488217295
-0.4157345777650792
-0.22416255373429853
0.15687010452641653
-0.44302002850650835
0.035259852314318885
0.21043782442523465
0.45272959718600975
0.09724562400389775
-0.40420736275720137
0.36291986142419286
0.3224853988742221
0.014854133170664436
-0.36354183509010757
-0.4557420559867861
-0.19157653550393342
-0.047524223103601805
-0.04613544250176626
-0.22207811940652822
0.249145267083061
0.04872616510782806
-0.36041629541498815
0.33001426811246304
0.4606709489676503
0.07542965655772045
0.05618930287217475
-0.2578564512930911
-0.20556810240250226
-0.2890119882220366
0.37792959760693623
0.29735017656039814
-0.32884899268069906
-0.06289536421917884
-0.04059439015599176
0.021992550292113246
0.232187609772667
0.3849802899648017
-0.2359940941184106
0.294449683456912
0.4692716675335574
0.15211895557801847
0.17085627976789738
0.2896781810091154
0.27163321497841875
-0.4415214043654737
-0.22909500621090173
-0.3587865713335255
0.194478430671959
-0.3846995874308182
-0.36539026780869355
-0.18439035060294276
-0.17451231309896834
0.40893959173806765
-0.16547885747634383
0.08378635302094196
-0.10091107114418757
-0.36061053534523113
0.22064359193695243
0.3702733868514076
0.09135588877730338
0.14853258903079333
-0.43302509502189485
-0.22498672218650217
0.36333103976770414
0.365183038143191
-0.45968745608065187
0.4505261366517369
0.34773753510034866
-0.44781825579075574
-0.03551777967167032
-0.4676257449315531
-0.3907437098702339
-0.30581225664592426
-0.45952140815895776
0.32197179260095204
0.3178048929090204
-0.04019954265651583
-0.36055203892457266
0.4826675065894267
-0.23303900253099244
0.15553246355564118
0.07453830455096659
-0.3865291755780488
0.02976477694180644
-0.1152127984639015
-0.3047837815413399
0.4919316720506603
0.2730272700185143
0.3467527750632287
0.1444294437585249
0.3183208212152288
0.043573072742047636
-0.31701939580424987
0.37943951995987146
0.32962941845948307
-0.49011439625732656
0.44842900004713165
0.4091239210117407
-0.3633760260226896
-0.3624241657468305
0.16167816200060472
0.13759205925190449
-0.3858412455967942
-0.20427286056457317
0.17684700116756855
-0.08797657244588085
-0.26248184521314666
-0.33867125112893687
-0.18562929068871
-0.017270152580594746
-0.4512359207259366
-0.35207836828726796
0.1334298153808382
0.3732335752562901
-0.06388725088589298
-0.4708135294102672
0.32082805778198786
0.31452777859338066
0.4377997789860019
0.3807692324409208
0.3316786967895168
0.2786114813963844
-0.12330960580468193
-0.10178452596228342
-0.4873810016777431
0.09684072514456073
-0.3992081221214111
-0.12276766614858968
0.10119229130967121
-0.4318332575708944
-0.1550364981989183
0.2660457809823356
0.03744496002472871
-0.4762185241954326
0.07851565614133114
-0.03185940216247095
-0.11517733318226224
0.08223794663106129
0.08581959650607762
0.31872802409990103
-0.3387094632952897
-0.31782698658266634
0.19325103321338344
0.4937006306559406
-0.44154470397786444
0.289372570308036
0.26476784248539076
0.10512653523349462
0.03817986804519535
0.17004949580225628
-0.3190505959654756
0.38612717518051515
0.004415292190762432
-0.17228808762864556
-0.0279336237918924
-0.11468569554961239
0.44770591806486504
0.48474319269560706
-0.016686605850299317
-0.3526535483914204
0.13310904827527156
0.26488303030517096
-0.024267174044096205
0.17635468103844054
-0.33538704815509773
-0.1295354536612496
-0.2147790224412966
0.46465196245183127
0.03141548566993431
0.3651383040986197
-0.21869619109109495
0.1974156317094926
-0.14594155796669595
0.2692951429258324
0.2939169783541878
0.028546431114760892
-0.07557118507885843
-0.06882409167222803
-0.22653903306381012
0.03696306724634862
0.25574951681408337
-0.3321678804618673
-0.16306167547451805
0.025391258021618245
0.32308359691286836
0.051191837864240794
0.06615363419138792
0.42205875089963113
-0.08625230023845594
-0.33816991680272157
-0.4826687412067647
0.04194489665291001
0.18279187987566473
0.3173348135952894
0.21197436480594362
0.03288276466945897
0.3412518724058352
0.328601101544556
-0.1246512494220318
-0.16757951942690566
-0.48261153250502253
0.07982385021380468
-0.4811239100908669
-0.4322860520662657
0.00994477118962245
-0.07357996673777582
0.45486656655722985
-0.4484779130501897
-0.2713479558891911
-0.1285523880213864
0.04888014195971391
0.34522066716655786
0.048212326879001094
-0.18706622284168276
0.41533165461239224
0.25963551313510247
-0.48758214800508093
0.26597457674977437
-0.45139081610190557
0.4055357830326692
0.30068494015329394
0.18264726587465713
0.22806255077741
0.193074724612455
0.020272558265385435
0.12197032820546107
-0.09399700556172765
0.20224520322414946
0.2244715567401413
-0.26155319919893777
-0.4034128021246129
0.4810692592249339
0.39895422001589126
0.27101775581123005
-0.1988371204577039
0.17616708063223754
0.030091998664690128
0.41630016439062995
-0.25791599645232366
-0.03829674715875279
-0.24388688437061878
0.43511288106611945
-0.14254448948410203
0.26643653220481156
0.44248630255761834
-0.09178748134020297
0.3438507868915653
0.10413373653783885
-0.19206981076218024
0.3893165856075406
0.19445272866775742
-0.49589139840937224
0.1566567811985613
0.42282688770024107
-0.1523758649580972
0.4165078144545793
-0.020915835634097525
-0.15531120860363504
0.2471418845450394
-0.24885330466334113
0.3332382856140091
0.5023548245719526
0.25412494457692536
0.007100635207633429
0.3213472420319404
-0.06048428795707479
0.36381848176528153
0.04930168309011819
0.09033402458646471
0.37551851168221073
0.18748922479179936
0.2593162901872901
0.47054388346666115
0.06753870700140208
-0.2098211195049779
0.3253753987246054
-0.13937702554635353
-0.4896915021180135
0.17945623372239589
0.33495780236178463
0.4105423609229196
-0.4013192125879407
0.09098509583836585
0.3197857443058567
-0.27899265205647483
-0.2169441565854147
0.22483195981892176
-0.4543858257422482
0.3161463521378098
-0.3727695707433145
-0.034939733488071306
0.36382046165023096
-0.01382215286260097
-0.17731712337198938
-0.36392083861640606
0.017342611604515917
0.447144626148127
0.03014945136169857
-0.0312343398092734
0.3614827834952707
0.09523802532770625
0.4112872078405417
-0.32306763170055625
0.2880513448914883
-0.22274998935038823
-0.24371909263906927
0.3086256443881932
0.22274482058689865
-0.2013781239007415
-0.3977130038444739
0.39622874702366645
-0.12742389897672313
0.13214937557219922
-0.044874620979795186
0.47937825170321574
0.13400305715932828
-0.3668054438291973
-0.42676402417372655
-0.4015076487862529
0.48032507994225837
-0.01338401319233724
-0.18112321601510206
0.07913787998657933
-0.34051302484520507
0.24204080093964744
0.012697879548151022
-0.16950688056828436
-0.4360350375795275
0.060595044624160495
-0.24541289773355648
0.010287592265356907
0.3574668039989659
0.3359146345312628
-0.03551149365633684
0.1675592947109885
-0.2867903088352469
0.3552449118035904
-0.3731700574573975
0.18828676935091984
0.41652710597881226
-0.21338114569438008
0.030113832888661554
-0.4159376382824954
0.4726646176261816
-0.4261309668688916
-0.03573538845378855
-0.2513436271766818
-0.10174680265884563
-0.19148957135265307
-0.2604089990861651
-0.07309979918047475
-0.29018955582842326
0.41058117891294166
-0.20203710799508012
-0.018173708905059573
0.29430247941500737
-0.3837759206198609
0.40707629527223665
-0.2612300854052449
-0.28409615551798106
0.23963896952610647
0.2909242576184764
0.07345033309480434
-0.004160958465455781
-0.13632238449548298
-0.10678979590332921
0.24990057819684175
-0.0888615690299285
-0.4434289195239205
0.480352893778981
-0.04341647253414383
-0.3831265594380374
0.07544072421750003
0.16754916267944092
-0.4967822801130629
0.11598043172778982
-0.47729782784746316
-0.0044089717014797625
0.21430304532738148
-0.1317383758190439
-0.366161129376849
0.2398179961483489
-0.3396359593467274
0.15017893967908488
-0.42273660062926954
-0.22148597377857945
-0.4074438189314769
0.4643741601604639
-0.26159417114161665
0.4658610088326799
0.36931732846220483
-0.2972542709697127
0.44946045238799287
0.043284973424254976
0.05698801706211133
0.000994443803013369
0.18431455122437487
-0.22618522217648399
-0.3039898459941407
-0.07890647170173812
0.03742541599306696
0.12623439828668323
0.16731518944094875
0.2977511080556619
-0.2862507327966116
-0.09276374578716128
-0.4787514757198028
0.0905722612711411
-0.10168746229539098
-0.31183759023488294
0.32662980169048583
-0.3716743714726601
0.0977874706394965
-0.23531947681403134
-0.28771691594048476
-0.2564931000851772
0.47224774405522113
0.25174144862030484
0.013366018823738291
-0.484571386593905
0.45293527806413975
-0.4861479545493123
-0.042340342972463196
-0.4948070682995466
-0.3982554145523325
0.3214623456113967
0.14744338485628108
-0.25896141132234274
0.3512704026797948
-0.14260174453103597
0.2586071898378896
0.019385107160430747
0.13521780181078585
0.11167502715000244
-0.3973922039565364
-0.5013185454350682
-0.0887538157647511
-0.4722525433172502
-0.10911760505994816
-0.16698018553000027
-0.18864270147776807
-0.2873985581145123
-0.055816873568832436
-0.12289257149265995
-0.15077882952185245
0.009074983125324513
-0.0022366552062789867
0.0474861367508788
0.023263993929110632
-0.24524817270125882
0.153546205557129
-0.06742551036504286
0.4323524554637311
-0.4444275113856844
-0.15010611005208127
-0.09147606276724532
0.4757551072514267
0.15794201721468845
-0.08946573221180378
-0.32759331830952726
-0.3628455222566921
0.29400800771530883
0.32171072606035556
0.30247386902464796
0.32989096847931904
0.07110306440246307
0.3647129235622579
-0.1895485706173272
-0.06090556249646358
0.2771771680119643
0.3774887607022312
-0.10245114877879628
0.24497123866577705
0.06303651615100395
-0.1021915931704675
0.12584840563721775
-0.45344823967405684
-0.4345624596222904
-0.10729764160121276
0.0887959673946298
0.2169660577388522
0.19801079189630083
0.3753535917281783
0.4724589374133083
-0.1653853607326951
-0.4288597043111287
-0.043385475608791677
0.018488299966263676
-0.3750271250825655
-0.13784181364883485
-0.367859315420477
0.44874768237810114
-0.20375200354820455
-0.34257452926681103
0.3431452413549262
-0.48416713916351833
0.1623146748628825
-0.2767580180634342
-0.22361050783445122
0.39743589673710317
0.27315884762633347
0.4723223304712738
-0.17206149211686028
0.11626054371605095
-0.22066329698042236
0.18193447728637877
-0.24425045150653965
-0.3990188688470777
-0.2942333696871594
0.4879517856998033
-0.4041718332883153
-0.4088460200718563
0.11804031475578776
-0.42316107388508806
0.4597869680629108
-0.5065264276051461
-0.1387093341924151
-0.46650520299660797
0.14632947798592238
0.06263675037494122
0.3361142304761935
0.14266205252841418
0.17716412122069194
-0.31880594503012283
0.17655569685342296
0.41965049812754274
-0.2893769286804352
0.1093708095532853
-0.06279329012298154
0.18150480031389407
0.1212464041389728
0.24989759333979494
0.2809220353321122
-0.3824587583239557
0.07906157929155548
-0.12431073653370293
-0.2311267651639303
0.3800517731360089
-0.08858861922942084
-0.14554784751146918
-0.358641457980317
0.45860600718527605
0.16383195623782842
-0.17872089141169661
-0.22552619818536818
0.006675482982752415
-0.15710341424295898
-0.3897790800522558
0.2693895845906658
-0.13064425856370102
-0.24688478922056992
0.24581045739859095
-0.3886065586961845
0.40072697652177874
0.47174880896327315
-0.33485467275180236
-0.31590812249271283
-0.11771755343934122
0.2919587875196448
0.31120125530222575
-0.4967896964332537
-0.09131247174130211
0.16149475148196485
0.4287211772529151
0.18147882918489175
-0.2369606596749653
-0.19900383767704893
-0.03930931977200427
0.25285150306844173
0.3153085436898418
-0.06465149435575976
-0.12810920831183845
-0.12791603120560016
0.09533994023618267
0.2484377120358744
-0.07241007377774142
-0.2072353543577362
-0.2259476800977514
-0.18869539741225128
0.03829395155330608
0.16440688595111372
0.17270032539488736
0.28224078086272847
0.10913637104209237
-0.06443406176756034
-0.0643081490166929
-0.3070426513046913
0.34010343205524346
0.3510390573176308
0.4622059864593169
-0.3515630642599871
-0.4535417150511199
0.049481116149943695
0.21289744423532836
-0.19960878606341076
0.29542457982182535
0.48498991259558166
0.0809918520861531
-0.42615318363514615
0.25886234992886437
-0.0293527834582089
-0.4253734041189444
0.004277345458762969
-0.31311510025211015
0.25284596425525235
0.24928629148670292
-0.2541680920764295
-0.0643710976379555
-0.15437830397166102
0.07540705531489254
-0.3109981243053961
-0.12340015727838251
0.4624436013529405
-0.36994335324407357
-0.3570299687940624
-0.3950875890594028
-0.19491246063652443
-0.2472479399539556
-0.051567843014800135
0.4817193213156447
-0.25265882241723725
0.016369788021688512
0.02741610156161331
0.056165819010268236
-0.2803352484054604
-0.32941704084892626
-0.3882869652292863
0.3341072906474137
0.02901966268224167
-0.20642974597290656
0.4582693557310387
-0.18626361891046686
0.3063928699543869
0.04310912234465098
-0.12644959298916023
0.012210452701433032
-0.42672264386616404
-0.34366645628570835
-0.3072221113286012
-0.005744736191438653
0.10909071289826867
0.28750664448371444
-0.21246417079667146
-0.11299669472886913
-0.3570528606149837
0.021424687228623535
-0.40362544646605764
0.37866493276706553
0.22342127417776167
-0.44278836721028897
0.17472158206318528
0.34873610230952046
-0.06838045422062192
-0.041576646740393804
0.300576098316392
-0.09694063337753867
-0.1696340386901133
0.03789534534644493
-0.31133859315762474
0.08388452557113943
0.2668529805644639
0.3977663524858667
-0.4480833591963409
0.36088389038173907
-0.22719105617290036
0.4775227532842977
0.3437059899187521
0.33962324872161925
0.4492239408847505
-0.12595517072132278
-0.08334226027155468
0.38966393002651506
0.27838308624553415
0.25954568010116974
-0.35330618525539753
0.46461369484045734
-0.2721632237336551
0.11545196072357472
0.09231245628853847
0.02420329048448695
0.049573362266718976
0.22376752685695506
0.09182507833401651
-0.18165886266986364
0.0449740940053567
0.4374802905587304
-0.30182174464034445
0.03476400843299299
0.12469437831502417
-0.32626599902299175
-0.09155105669794081
0.09939037101633443
0.17230789273785235
-0.4476519437784637
0.1606388094966429
-0.060694578922557856
-0.2345153003212729
0.24509814333336638
0.2816208642284795
0.1837958767472212
-0.35783333052589394
-0.18977186052974773
-0.1336760242238003
0.0714894390355805
-0.2564802579928743
-0.10036449843996227
-0.11614125533350148
0.4019239933575502
-0.16985891117125604
0.4738870392430215
0.3389156827562001
0.4046656134286334
0.42237087940077184
0.06384220784509764
-0.47774713377513983
-0.13457598093645814
0.06728206439066932
0.3110884770213143
0.10265878461321803
-0.01208021769618456
-0.06169617401464138
-0.04520154042854853
-0.2596697360025294
-0.18968874021222418
0.15951097936212263
-0.19960753174200777
0.4766386465361545
-0.045458117583718816
0.47441774188788155
-0.16765036872660474
0.33533359032964805
-0.1711981553859117
0.25789178807315105
-0.10244886433861541
-0.1980175921101348
-0.36139759249443054
-0.34975447593758285
-0.3619226804029445
0.0931541726660487
0.16427299318161853
0.14519291237469728
-0.2640774535803924
-0.4778018939176915
-0.427053896983624
-0.065847780075543
-0.13188479542756582
0.2440957049449603
0.287129237253626
-0.2344957274663288
0.02538374556313123
-0.4305557500944674
-0.4205053322071044
-0.3850627073794296
0.03768035592565871
0.21045247752987203
-0.19070914724368368
0.13884985659931312
0.49180080275059307
-0.1852290736081764
-0.2147336934859977
0.26591915222825085
0.4792451841709015
0.1331317923717787
0.13663552687945218
0.4146207995439729
-0.0027991669343594675
0.3090132732792179
-0.12724681859020912
0.4443778484288365
-0.31615042499464024
-0.3919645218291659
0.4471577234727071
-0.022487622126811047
0.46994543575442344
0.34688325932343533
0.23207232610270082
0.15981668939108268
-0.21125222237578897
0.24036726485439738
-0.027655249166926292
0.24102443249337768
0.42610510776171734
0.10821837227487763
-0.12000051639684622
0.14145980304736908
0.4071880947378031
0.49692358412770893
-0.10819100196240607
0.07548577628781106
-0.25601525978719436
-0.36477765102867926
-0.06161276901255318
-0.11561783502977527
0.41904668304899245
0.45448679269638487
0.3757394555000184
-0.11959264061906374
0.05965941041100588
0.40428904193113746
-0.48918983133630506
0.18253313262142287
0.04186509366113847
0.40004247693401035
0.31379012902722997
0.29160989130883114
0.02402665810394463
-0.19953156232830344
-0.21311502034978136
-0.17225270107683804
-0.3208077793675957
-0.37404277772110944
-0.07567293327945673
0.014684742205616675
-0.4573917096759523
-0.07825586328494838
0.33329089517453475
-0.13096155113929028
-0.2859931491716551
0.1651102646701708
0.2903472106383614
-0.18636145498996742
-0.2531551188894371
-0.1385814164931019
0.006069827735727757
0.244579206827466
0.36539793856518055
0.02387436593386949
0.26133343322060143
0.3918385871802437
-0.03717439175770895
-0.03152430337482501
0.18674281658737613
-0.45334247989048326
-0.2755753163736037
0.38155896919213744
0.11078544735949131
0.3111389201400221
0.14474654514389526
0.2724993910398783
0.2181903991613823
-0.4621875921118581
-0.16758663789817305
-0.4221900191018097
-0.3690909602749115
-0.4194674852236866
-0.2335463087939206
0.11793250110296663
-0.007851594869763705
-0.37549265562311496
0.3321199012538199
0.4638125431665498
0.12254594954976779
0.28399318492279474
-0.43984346535233887
-0.36350500364434996
0.25689925271414055
-0.49190313600330465
0.46286460972090937
-0.2154137879804381
-0.35015299882770157
0.13856528888123287
-0.4049540957509148
0.0031412296226639175
0.1592194776775069
0.10898156920575533
-0.4180054280103555
0.07057041266145851
0.052347495612052805
-0.3919054439173303
0.3534690836125636
-0.20921579252133718
0.12464777636267753
-0.44003506692875816
0.40794216709422837
-0.46127764013097144
-0.3140311206543237
0.3965338624425814
-0.45722658595543303
0.44717838789911785
0.44269364255714694
0.02165392858076722
-0.2338763157214553
0.31470250823260465
0.16106682734375213
0.2817645992311523
0.111636779552804
0.19727377741987745
0.380093849371157
0.09235847378549167
-0.1310139754071106
0.41807081442405
0.06655239214538038
-0.19901929971214397
-0.08269355458739523
-0.10645368647658514
-0.22651927651597867
-0.35675222345395435
-0.03523715909253234
0.1423045415404689
0.44532880748313597
-0.29823024564890166
-0.36244274200882814
-0.2889793469148181
-0.4250256903981626
0.46450165105461105
0.30589103459238715
-0.39229634488113113
-0.012182927106269644
-0.05507583333113957
0.16949241189370873
-0.16031618225315275
0.002873520191631465
-0.48914631867033276
0.4041613818129951
-0.19346960121620665
0.37516974948986737
0.17299515173917993
0.22636762470978902
-0.30968328690212493
0.1894984206462482
-0.2587311944295395
0.36803406524618326
-0.17210903231991745
-0.3991610576405391
-0.4369521977205041
-0.07607407178370533
-0.016301620057677428
-0.3886885642486105
0.1300707756854269
0.4872043097572062
0.38248021944267
-0.1779257411369038
0.20699327806892173
0.3727400466826107
0.4545154806497649
0.11871121632460317
0.2343699954193212
-0.2759227725502168
-0.21591243088313644
0.3351227659279897
0.2627254849038724
0.4077191921085907
0.4603463087010597
0.23542279377830025
0.3236677691829745
0.09972610602286927
-0.1427584016239095
-0.14024163097408207
0.492671340210525
0.19018606604262547
0.20290520142803614
0.42448931022324204
-0.43856511211878546
-0.4142448497043989
0.48419794399006144
0.36788794801990277
0.17238503800625374
0.2624587371721834
-0.11588287965541269
-0.48641095075251006
-0.49317171348339905
-0.39401223048318185
0.06169271656087127
0.2051426521826164
0.10281615133244505
0.40662725321974674
0.2620536955755564
-0.48575823654082817
-0.09437621573019281
-0.4311217785670389
0.06389179287681124
-0.13081926195553184
-0.3535792524862721
-0.14992294928706654
0.06429716112892861
0.23009492953043897
0.3298820247125983
0.23831734956675912
-0.2761329259415674
-0.04116876605402837
-0.07107973742764814
0.36575408544777344
-0.0450958995408436
0.22574602655336895
0.11750179641406437
0.26836098740860365
-0.2061123185289902
-0.4578336873825119
-0.3631252472882679
-0.4649124474498604
-0.0592019818258624
-0.4522959272547926
-0.2960342448291338
-0.09153837585161681
-0.13027917414181456
-0.4414845292494298
-0.49216624001927184
0.031150985052436422
0.010996810070710773
0.10127701677614492
0.254591895636066
-0.08133471228183349
-0.0305028780780719
0.09229208833355933
-0.0890063122184222
0.38572913489140204
-0.07912606372270307
-0.3344504600126644
0.4738100365916404
-0.06682332573198375
0.2689110083229077
0.11672393779596422
0.02138163011631649
0.0014644388462869196
-0.17441174563325462
-0.3757138019590029
0.02285811071075433
0.1322491317076892
0.03402096307196339
-0.2147898244774685
-0.25262259169035345
-0.18570913622099083
0.06502971745567965
0.4770376044054385
-0.4871665879852264
-0.2880930932308524
0.1674805943226708
0.10936931919204737
-0.44117958135205415
0.2772031447183678
0.4553663845896656
-0.25848163593035234
-0.07450263277960907
0.3311409576914198
0.2589383972496154
0.375563774020064
-0.4815566661880001
0.06019247782745239
0.19545796442623115
0.4685840043384271
0.36792695524158153
0.32893929915987746
0.03360544864905335
0.06493416650509842
-0.18940269857898132
-0.46867716614466953
-0.031079966060436483
-0.19010055051402552
0.11953420765805231
-0.4644541221371702
-0.39742393483393645
0.38223611705398464
-0.2567251538294329
-0.4983516686862398
0.4434169892729329
-0.026013349122529648
0.43752703063483817
0.024060327183747614
-0.3878021617808489
-0.2325188027313932
-0.36987449957818924
-0.13780570832494143
-0.1294635929440839
-0.21425470529224172
0.20532357047682287
-0.30611626208663406
0.42349209073702393
0.45508029386200155
-0.3900458803619209
-0.11199687400604348
0.07624921014290134
-0.31724052088538107
0.12797464354102675
-0.390429055872477
0.0949721173234708
0.29405396769425796
-0.11948804566237575
-0.020840621428510585
0.11694891490685702
0.250822968824375
0.015507862298256585
-0.4064104455979695
0.056740713708668816
0.24986959539744455
0.13647583689233578
0.30259726537732984
-0.2781140039240082
-0.14050169314919086
0.14633308072417175
0.49419716143707215
0.17136544431832978
0.4201109720149641
-0.1773609045161255
0.07569660377045975
0.4511235737071907
-0.00858763006472856
0.3814865994559392
-0.22959415994745533
-0.12119153355455112
-0.3697701092281443
0.4710217806958822
0.4027254550999081
-0.25892626560166515
0.049036298198064245
-0.12615953348540118
-0.20720932863582198
-0.10017462197323365
-0.11051749774135163
0.061534130916040396
0.24097175113509567
-0.3133546391121041
-0.38684126809645
0.3058862844885194
0.4789506624936707
0.4144598118570602
0.21330455221498146
-0.4014714113179763
0.3817030475028683
0.43885388108085355
0.4494915049745516
-0.0564642004333527
0.3907596698600552
0.5041981638513587
0.40276515734467766
-0.3778691750788439
-0.003958342528605736
-0.4032606608524176
-0.28134289943436064
-0.2682408526688823
0.431477422718238
0.35222470645299997
-0.24785461180544452
0.38610828240159667
-0.17057947782113148
-0.3974305010022
-0.15260129907304967
0.28480318597919924
0.3636658889635817
0.14940546090380147
-0.18652133588780473
-0.12653688479253
-0.18602065409799587
-0.08383175418728599
-0.11444830446842037
-0.272374909699011
0.4840535396823068
-0.2897744216169848
0.4759289934363258
0.07951341972358998
-0.34644406918280696
0.34506113993627247
0.088897453266051
0.20299702997452562
0.2803118110778473
0.05113587053831248
-0.2644929160720031
-0.3549586051576266
-0.2793635063303112
0.05235585187059979
-0.053410275801540646
-0.08825249338250736
0.16563465415910017
0.43654026535693496
-0.38434726383476164
-0.1923075691517363
-0.2148762843637478
0.4205394008404467
0.07215539431879882
0.210394314188895
0.04286538531436365
-0.2271014010720157
-0.3888710671940733
-0.45898290165681627
0.27335241876215405
0.23114612267358017
-0.11319046554067953
0.25345733768289247
0.16074026822528512
-0.38027819837644933
0.44919117241762435
-0.19207919276618834
0.4965127163082518
-0.4078193935512929
0.39119502992421035
0.08979586175283903
-0.05875912536965029
0.21811400998981031
-0.054080608565909086
0.03344492459215979
-0.3351400822749551
-0.1648364378866256
-0.25467410151975717
-0.25156830682823816
0.22171164512689714
0.36082177079284267
0.17640260991757228
-0.05316385302326176
0.3355931248404498
0.043437930329590355
-0.1649559433103844
0.48123960309203845
-0.19785567205488563
0.06658366462686
-0.49778819294692933
-0.2619152504755855
-0.12410835125570327
0.3238147409570446
0.38025735259018767
-0.4367309295295835
-0.3040709672400754
0.43068117298764896
0.006470826598636175
0.29299214479666635
0.04809198930627738
0.5020346382098817
0.16928981726123601
0.008342338872444104
-0.3440727679653168
0.1316272766752417
-0.44940285434751126
0.34176069741176623
0.024900241249343508
0.04758966812327325
0.3316157784864182
0.34585382731342096
0.20438990125543519
0.2970561738391045
-0.25001644245549765
0.44002426964367036
0.46620374507310136
0.2612574475795117
0.4880206449460613
0.4479505881818045
0.04688134986126588
0.3024136350678362
0.43862386057684616
-0.43348200300301676
0.3315540555432933
0.06557118744609157
0.11012682726930854
0.06600273564689434
-0.4769970882457276
-0.1882704095229906
0.26024264205350967
0.2351305236525649
0.3353805139821295
-0.224200653963462
0.008146478872453572
0.1749402242032768
0.11580473066658019
-0.13304630776822757
-0.3780100757009647
0.29910551119728507
0.1586649917026729
0.08758640444526078
-0.12493982297291067
0.21808222556061171
0.31167810258745904
0.014995598309354752
-0.26408113360836777
0.3108473339858925
0.4187894033109535
0.24875555256402368
-0.1053806825720467
0.229473240045092
-0.031672633329200575
-0.15775999332769722
0.2766796895853465
-0.29363085103033254
0.4495239572569919
-0.15960395075412162
-0.20321934421746038
-0.21110764003193214
-0.1013121397028366
0.21356232005781084
0.3498641023664915
0.46918886728391285
0.42178279974204264
0.4144731987760676
0.4096969312440252
0.2757564511604299
-0.08497435774750028
0.06562602226481706
0.3426262844642401
-0.01759494134922336
0.18065739508563786
0.3924239300630413
-0.20270287485034827
-0.1285935641591699
-0.3598840207448343
0.006287021035346664
-0.2237079776202701
-0.21953177561451973
0.3645704795818886
0.06042228267139039
-0.37776086217231797
-0.43135162399037735
0.08109720849805306
0.21317101126024546
0.036541233444964905
-0.37977629323313894
-0.48304729205450264
0.3880600077412431
0.42684536207406937
-0.13312541507151704
0.0025170269230621097
-0.2487626747575347
-0.13786614564724065
-0.12529033959150468
-0.37685584701571717
0.29046300655731777
-0.32595393310369397
-0.11283728172650331
0.3166192699093302
-0.1354992208058964
-0.3378271900603731
-0.06666032724952255
-0.1612236422077269
-0.012518113850162922
-0.20990760433175723
0.32670760307370694
-0.49891959520252604
0.12978518122522273
0.4041158871374938
-0.29275111229831374
0.35120338701069637
0.06563774554757629
-0.24858454336835473
0.22721056857719593
-0.13555426889599892
-0.49923268404727195
-0.16942663025022428
0.2657871698501396
-0.22057236955044246
0.20215887200871596
0.3797044463413754
0.11834034131881267
0.06226884623267433
0.27276873427498327
0.2707403083099694
-0.3883629549067229
0.4880612233729753
-0.2859808475620764
-0.3596707036437469
0.13298809731131073
0.19068172924355165
0.006061377042292634
-0.010533559658510775
-0.37204437503417404
-0.07220948563377995
-0.16047585373308995
-0.2774953133735362
-0.4022659393252378
0.08553119880802769
-0.4775233471597239
-0.05976276861760172
-0.47303841118914436
-0.2906910610503821
-0.43274885173543864
-0.4395278877328883
-0.36298887280718767
-0.37971254757542794
0.2969872046835988
0.38323592329458844
0.11762607348526186
0.1067388911272261
-0.1979607411598244
-0.0945181495151249
0.3002538422297484
0.13782117459692775
0.3114971445572754
0.47536554306534234
-0.04740938262194904
0.4122239801854426
0.43051839013635823
-0.3247213365476159
-0.4661044810805696
-0.36950390677888184
-0.4129743423677997
0.28127343075155026
-0.011489681516389834
0.5091626519288293
-0.37285532019967843
-0.08723240670550846
0.3868174526710511
-0.3018127977428668
0.3484307656612135
0.02544018657539029
0.35051396125902107
0.26142602233323264
0.34288124487084426
-0.40698761746713874
-0.46711826892479746
-0.3046238456633059
0.19207358409231562
0.3618376389965401
-0.20294108279042516
0.2792976501430573
0.14119840560626268
-0.2998313184522531
-0.354686634058959
-0.22697577998082963
-0.24914853253892016
-0.4336456077990633
-0.34678003425827697
-0.15342455510803735
0.20269048672424458
0.22659425514042617
0.025218147800107577
-0.012388790214759679
-0.17181343521545406
-0.22650929940401185
-0.04309241443411839
-0.25137331206568236
0.19733007664845695
-0.17696084590981756
0.3536777864649753
0.4152678598559168
-0.427233094130791
0.4984380072030445
-0.21776666966105707
0.1624705948150893
-0.10170054403921513
-0.06103863949233921
-0.17958762564882041
0.34202877384822483
0.16931960612135744
-0.25569318029548327
0.4564031141883261
-0.37917842685690617
0.4173165224033055
0.210213501968499
-0.33436750347876326
-0.026514121702149715
0.04368660092690306
0.020267986653470016
0.16552544764387844
-0.09091128135480403
-0.4542926136904902
0.332996150202708
0.37097214161041153
-0.07271826554318644
-0.06319647769769339
-0.16845215777493236
-0.3740334525215952
-0.4878833203157929
0.401604366126499
0.19848708564094425
-0.10141408142223861
0.1924847529219274
0.3235986692761131
0.05631907388204512
0.23591708370203518
-0.16838643759279018
-0.3286540070057956
0.28548956192367825
0.1313594623506674
-0.22857458426078875
0.3651683082142402
0.1690764722851789
-0.39752025289987675
0.2121046326803737
-0.14208899868931746
0.12773430012019205
-0.307166859447573
-0.45390085188976914
-0.44045844667870276
0.36214880166309
-0.47981357832729526
-0.2262727885745093
0.4830292074297907
0.36857231792635103
-0.4154786851846053
0.29269559975215115
-0.4902419044479236
0.2790505578979476
-0.33633348724602297
-0.11188876789826527
0.35242869258032733
0.44257036881494716
0.3791867766584303
-0.10498586246374239
0.12537448918575805
-0.4454795986271317
-0.12542869422499225
-0.4478699888696346
0.21974403538074086
0.08427544688033291
0.18781602750324414
-0.41086568558971076
0.024241816571686732
0.12031863109922976
-0.17811610074895567
-0.2458718117293762
-0.056398026661672374
-0.23729443935920996
0.4418459889215863
0.15199715948985612
-0.4102838019143374
0.015589059182213691
0.3307752672591253
-0.0988771695935556
0.1481151121793175
-0.1837197294113274
0.22357195302157115
0.06720957385185355
0.2952878934758018
-0.045187520868423384
0.4467126431606703
-0.3349349515741891
0.23572031749706804
-0.11810200859513845
0.4807734044034312
0.18604050719735032
-0.027757550356154535
-0.48011905284883316
-0.012556606545441
0.3306574101459511
0.1425498699924535
0.00010255059329703243
0.22540865934456036
0.046779969054368695
0.04810463932861402
-0.47918466728095976
-0.15152159619675368
0.26005431492449277
0.39696587080319723
-0.007549972500006989
-0.1743942587979148
0.30168006374962436
0.06848059901021941
-0.3226784400305168
-0.24031379676339196
-0.35087407538443677
-0.23080639043737305
-0.0908863484909976
-0.22058877881524275
0.46611668054147126
-0.3821572598751581
0.2853022386336544
-0.3092239631536765
0.28673266701713435
0.3351208812672909
0.17005919591310661
0.04800320353034909
-0.4721241647920076
-0.1963987325229233
0.14525439066487766
-0.4485183165943313
-0.043051899486533984
0.33319224412612086
0.27891433358358625
0.26847940604435
-0.1043664237880982
0.0476559832949397
0.22945910278963028
-0.12306858891539835
-0.3041574313421434
-0.1438810812521654
0.10970437468816865
0.07094338070865984
-0.09864771753979285
-0.4675147578232753
-0.2922427006804246
-0.14848337110722554
-0.40987592430173697
-0.4714220356996499
0.27948150745839284
0.3358474819318724
-0.2790150899293182
-0.2684043533112864
0.11215378609706014
0.07213479194942585
0.17083085786392946
0.4289271858750694
0.3857059499883641
0.38139521867194404
0.4842140895320148
-0.4980312344067503
0.04670648459386257
-0.2787244891966605
0.026352106213206192
-0.15013116297850826
-0.26299501888309
0.4395990878356061
-0.20054640918897382
0.18191633432027618
-0.09575854904887977
0.0338431733836421
-0.07281357447978802
-0.47133021706210415
-0.2244894554231239
0.37612527710600663
-0.12671245880470208
0.49608031156225235
-0.05880227973057783
0.5043001590874392
0.1748535190497548
0.4666595546789678
-0.08912490853103845
0.2645699804290988
-0.11741001672939723
0.020038003488776008
0.07022408752231944
-0.4749672078803566
0.4783502167908599
0.041080049922370625
0.39885307832213523
0.1208697373174776
-0.4996774356909585
-0.19110588014922758
0.19714173342244054
-0.2371483322039358
0.2225222229319458
-0.36488096555307714
-0.22503958804519145
0.35944529552140286
0.13503363235257923
0.07740897794034836
0.41700576786852905
-0.20273205213646678
0.45383107701806746
-0.3218842276785213
-0.25357817995803633
-0.10917545814581345
0.31436965425457253
-0.1723544227356446
0.30253442064161284
-0.24902441123954017
0.07182133095148661
0.3221859237472801
0.45068386157193424
-0.23696743712952728
0.22667697796183464
0.2954727397861212
0.02423647497055344
-0.1362692583371091
-0.032945965052554246
0.26586102958726576
-0.032008200343936144
-0.3047840923089272
0.03186165422393406
-0.3578302170925653
0.2197952387237398
0.27052737442431213
0.4788425110105669
0.1783663485380314
0.18490174387861508
0.18186099392677094
-0.23807727798499256
-0.14399175098392647
0.009393383122793461
-0.018708617731882732
0.29720025114319976
0.3605245481478754
-0.47147752557138384
0.41666275770175953
0.17106350870268008
-0.08777918869957532
0.3028522553472495
-0.045395651402155374
-0.0786917990587129
-0.1763295149229267
0.1400942814017789
-0.2242957552543617
-0.004675398597527231
0.19986140430595986
0.46324309374992834
0.38835651994590825
-0.3046429312632986
-0.4889819905796042
-0.31134434277680295
0.4526795324413645
0.3145161490283116
0.42650590047858167
-0.10382848696756873
-0.2460723419778822
0.43900511565944744
-0.06101648604135536
0.33481708447808844
-0.29813584427553025
0.39436356367228537
0.304297657515561
-0.37156758723722216
-0.25027848836847433
0.4794704489605216
0.34071754832850826
-0.23447106611259522
-0.10812707243491629
0.41540181571646734
0.45977699858512233
0.3965075226422956
-0.4501144622404597
-0.2822387326527978
-0.36926961934341984
0.10146242812490001
-0.33480513324865807
-0.1574503033526569
0.3260215131924767
0.23251097228421425
0.07255653081336567
-0.30358222418848324
0.031310308994866774
0.2951695471850966
0.34095392282024584
-0.4047189777474759
-0.03449779867439064
0.22442130220378032
-0.3627988809261682
0.3809947335178266
-0.05990334547559459
0.40459278400954185
0.3880320904879379
-0.23846150404550667
-0.13639755688357308
-0.5077520178290658
-0.3973338055408537
0.4403135014183916
-0.3185481282725596
0.47862103351969343
0.03934366209548351
0.42941144860782215
-0.09852272617115625
-0.39783141258519067
-0.11524947465285906
0.13105327409455017
0.3518759452423509
-0.46418839940009193
-0.4231715563562165
0.2740137670319457
0.1422849345178634
0.15828612740331582
0.07683432087966269
-0.09599198640372217
0.4801311858168591
0.17805587501355177
0.3138232324291883
0.11625354844143612
0.2890711986721806
-0.1922505883402899
0.3273318252048468
0.49160833535436044
-0.05893838229041502
0.4952884998817551
0.3932700174663746
0.3773930111302117
-0.19894955021301833
0.08717674128924706
0.15105873703654238
-0.22224460418739883
0.16090413045704988
0.010716937719191586
-0.2967073760956367
0.23433816547080724
-0.32840489561963365
0.3121468912505821
-0.3673425937590719
-0.4539967885235411
0.30027396056558475
-0.38928981780704264
0.3097824621751862
-0.017294373884132908
-0.09464996536279335
0.2233471189822756
-0.13805257391182282
-0.297232023911318
0.013804505720944212
0.23824352793331954
0.34403716514912475
-0.0036652318036586805
-0.1491870605236747
0.0864762930797665
0.29874125168177046
-0.40696440870368583
0.11316711923091911
0.3456085963876138
-0.015159508543561039
0.01568120973500636
0.029003022699021653
0.4506709459772662
0.07763781927504855
0.04262430246014687
-0.4509843038787832
0.35654048582836684
-0.46025116810672617
0.45193174338170217
-0.40980131463729413
0.20100888634521855
-0.06854506587855355
-0.4593922879403741
-0.1671104502921254
-0.29010700061522804
0.1169569322458065
0.38539064132197415
-0.2489387214222705
-0.17420140683279575
-0.25664736354137313
0.4333640425181414
0.4083487807990484
-0.2942093848854851
0.38472413917819703
0.005479690649591994
0.29648522939282523
-0.3291357855608062
-0.3005350484596384
0.49361776937082497
0.11893334044475468
0.1602566139094756
-0.08473249733553216
-0.24003508729137285
-0.4876389730271576
-0.3479135073112932
-0.11073452932783938
-0.2367267133191306
-0.40256295128596636
-0.1795763231320382
-0.036151466143034425
-0.4977215533906246
0.4427353747636736
-0.3896544185293214
-0.27451672568715557
0.39941324123333816
0.0010266882769092017
0.10341719704231687
0.030992206050282755
0.1235546662958122
0.21728012577157915
0.3862548243489623
-0.3108709938823754
-0.03304396770854626
0.20319434668119776
-0.28850959045491775
0.344087098554687
-0.44891629742588096
0.27995108464392215
-0.40256538936701336
0.46134100612452444
-0.05683456345284947
-0.03153385837183589
-0.149579012237306
0.07670946983735638
0.4852525654254338
0.4303700833085925
0.4448329321218704
-0.11340773747488919
0.31368328446495564
-0.1297299246558125
0.21888032641389563
0.349167400854856
0.24735793443605128
-0.20695233909289806
-0.03577166071724217
0.24336686086309106
-0.3466715157909392
-0.2406867727812111
0.11881082590522267
0.18773914542702155
0.19510262921179575
0.22221509020240202
-0.3544835860383236
0.293341254151913
-0.4230518557538025
-0.06825123271039232
-0.07054246551482363
0.024571463060918567
0.05133860427674866
0.3045470005194091
-0.06856401974096261
0.19368336981809522
-0.4575407048206121
-0.29214968639651623
0.2756680372857248
0.08539772647226936
0.363048012035764
-0.12595072012443936
0.2670450487974251
-0.028890532181436283
0.29089032299402784
0.21710256804074357
-0.20399579026424722
-0.43508320120759336
-0.3368667353074321
-0.49933881217121107
0.4613118765218386
-0.43766856220958184
-0.20952346772698446
0.24631849814617965
0.28435922041282985
-0.4445914375630409
0.3219301730293216
-0.20279424843616844
0.1915124451542331
0.44397998021105406
0.1747336954979489
0.018909039192527014
0.2513239147062906
-0.18320274055636782
0.4513321847862012
-0.21271478864036836
-0.28729499620833404
-0.33974534393042854
0.03618732634568926
0.06732661052913129
-0.19137903642910511
-0.09955630419039692
-0.030824621261946083
0.22947357227157608
-0.07931786637800083
-0.08909915461396398
-0.20197875053643774
-0.012330482045371245
0.4890302035029456
-0.17201983852648478
-0.4272259287893748
-0.4528596310700409
0.2853667591424559
-0.16582588174856458
-0.4443924288494743
0.38957257202980655
-0.21665313908284925
-0.269396047266955
-0.3850050049728197
0.4150016023614364
0.15603983947997735
-0.01742363539208049
0.4862488227599567
-0.2637797073477501
-0.07504289716562686
0.01711001890377569
0.19186449433767194
-0.23678574438381095
-0.243342343981937
-0.41446171610322924
-0.18387881995325187
0.2638036890060748
-0.19740544011469618
0.008082241419722034
-0.11946618588209781
-0.18666112690215092
0.03898390176061133
0.2875362120945882
-0.26887270769065086
-0.49673654586547983
0.23888679073831143
-0.19890561841866244
-0.41367217134511264
-0.29478262281782497
-0.1963917612433501
-0.1075435961789381
-0.13474124548152838
-0.09637781133667171
0.16870936492068198
0.18548084522610342
-0.2995217568105696
0.26125676491590416
0.18418019711378186
0.4095357931064354
0.10813449123704107
-0.22932109224541397
0.1423722458802527
0.4075004567047032
0.14643122174210335
0.3275546409574524
-0.283850100292156
0.43762756084820736
-0.01611949467473543
0.33953867854473685
0.08895708967655755
0.14319691010489824
-0.39429818651539766
0.4167709413573289
0.0878264577313016
-0.26930295099429447
0.3024324870091609
-0.21056615947486226
-0.41866179318122926
0.29846271837130217
-0.1578154628011131
0.04832600776073623
0.1771375060654264
0.327580852268576
-0.15111268572498812
-0.4471066249395079
0.3934348687008368
0.2707305381121402
0.017743044025985952
0.35817900922836704
-0.30452818593471526
0.27546826283843795
0.23220058958613976
0.1444442766107148
0.07534825274687561
0.33826589740862195
-0.45389287363198355
-0.2103224992744083
0.2858832222051831
0.4674376180452155
0.46290540836596494
-0.33948669178577484
0.3845333196528731
0.14724845388066488
-0.3232124087799022
-0.3845503504228061
-0.1089590836359855
0.08541353628248555
0.192726617711806
-0.005685508207079304
0.41376371064599676
-0.08623057750507938
-0.11962031410445734
-0.47179972169086115
0.49636395273671274
-0.4211761513410957
0.33504820244025535
-0.05297824372338827
0.05762461462308824
0.12462154368841243
0.4909928883001366
-0.15742599125951012
-0.014138486764251407
-0.21550402288012147
0.40795224234748434
-0.49202677310097476
0.20911884388947463
0.009309034555205783
0.29060699613039326
-0.139862239652043
0.4246035715133771
-0.3355065643184425
0.1790595053266039
0.3597607901619316
0.42386871441861157
-0.17291093083077183
0.38774685462665864
-0.3246602185168338
0.4443182136705701
-0.4563932668623725
-0.1646756532139894
-0.2920375684274233
0.2338620183731781
-0.19653447018513412
-0.30723212310905407
-0.0828819511299199
0.018104018997294767
-0.3083064152627923
-0.0499529201481235
0.2693017933810199
0.47030650846561084
-0.29371010982294804
0.38710684431190556
0.15980600111712928
0.2311734200727156
0.042693804529065876
-0.17928495907038966
-0.022819614916352763
0.419087293943346
0.17852765992307668
0.24572452946722378
0.4103132007415022
-0.3803082007350389
-0.024741944850076695
0.40935467315140295
0.10376010951402574
-0.027774035018514324
0.06616729823501918
0.26496561948798
0.14157212988167095
-0.06316251300210868
0.38851579472971587
-0.2216241095207837
0.19966441967650528
0.29354638444687187
0.21656657508978439
-0.28283152248669047
-0.4576417752785927
0.31858577764738166
0.21252009140228884
-0.018968728993782616
-0.22002807759749984
-0.4739381483593473
-0.3212797990222388
-0.11484412296133872
0.12049296283260809
0.12912080621097594
-0.01735826059593168
0.24439630908144402
-0.37826871926418454
0.3436112970093186
-0.2125868972835555
0.298273334228461
0.12732342607782327
0.13613639440453135
-0.35723229003441137
-0.3467611337919006
0.29862192622998024
-0.0007666909547298275
0.10370446109021665
-0.0018593081041271236
0.36706234190080467
-0.17810625407921957
0.4277009315168386
0.33950378904695006
-0.19364511803371773
0.30379210298755377
-0.07636786880474075
-0.005639720858577562
-0.19850631613655975
-0.495593587549382
0.2127085932543965
-0.17847937657332338
-0.5004646825115857
0.02901574270274239
0.3977364112671907
0.2699153565550978
-0.3125136430181872
-0.09589738785872494
0.05630768006652276
-0.3472696806552948
-0.22069444392146167
-0.15205452154091223
-0.3593600820634746
-0.08550796303260162
0.46395639767339025
0.06680842969895971
-0.4834347077852639
-0.3754796439375021
-0.2794478536376384
0.10971991204389864
-0.3909700830469978
-0.1707137496267801
0.3553615745508223
-0.44530542750379226
-0.020438829361628514
0.44435739511108335
-0.0010167063250050101
-0.27030607279123176
0.27015083873329687
-0.4352376883914659
0.27817588713214003
-0.363011460174788
-0.23102667286251313
0.18134707180239756
0.1899237189396901
-0.0794878066479875
-0.1899464421432914
-0.13985331506713222
0.12680239565527135
0.2944965565256781
0.31371553365247346
-0.43642849665663297
-0.2803112899991057
0.4894139808488304
0.4918027548590053
0.15066825488510716
0.18864737276216204
-0.07517184758358783
-0.1987514315870057
-0.31815528240941066
0.40575524393512535
-0.07938251417713825
0.14732562462992535
0.48859644613109177
0.38443240622906394
0.2208267038156571
0.19358255601083432
-0.06818684289305567
0.3550090223627871
0.14582354501786415
0.4876349460683264
0.4944979573249344
-0.17301803062649884
0.07786891761378222
-0.1562095178341939
-0.3063587489022382
0.40347547249304605
-0.2945840472199151
-0.06560868149236125
-0.3410294570462685
0.1694538353128029
-0.3289682374347364
-0.4432438562782542
-0.19745216434821916
0.335199392479266
-0.1947905818036821
0.08368022857015563
0.19205265531183507
-0.35911516878648636
-0.3834989901367248
-0.3637460662640086
0.2753437744493161
-0.11866461595886357
-0.29583713085718427
0.03452563166904484
0.49083752469054004
-0.33777102673539555
0.03334364036785154
0.28114575967603467
0.2194216869612261
-0.21863574748936354
0.031151324581161904
0.3729041448140951
0.03437367563038525
-0.4769722310476389
0.4023038964996325
-0.0654527396750649
0.2873545262097873
0.1474546375408023
0.025082949816889806
-0.40026536834155513
-0.2740745293229247
-0.13700029439014752
0.02783396263433416
-0.4762546983879612
-0.33339487682453983
0.15148138473377695
-0.15708371477076113
-0.4917961969766136
-0.04280108200826218
0.2702011817944025
0.29294651390530746
0.10663494857209062
-0.057748274317496545
-0.3704088890525313
0.4348972137160441
-0.08928014450692748
-0.2382946133843543
0.4996559649914617
0.2745191373482705
-0.37182983158781074
-0.002393111139646351
0.023440142132344077
-0.36918679603509263
-0.22426985354309498
0.23160482301593258
0.20049546574453214
0.16248146257051366
-0.17848552131818582
-0.17066591979535353
-0.12187179434744548
-0.005713307557861792
0.19333799469124333
0.06902938775743116
-0.1628923486030228
-0.3956234852783979
-0.07227067798542922
0.10792020550792783
-0.14189928646480351
-0.45273648630006497
0.3602270876271715
-0.46358865345774397
0.09659625364585019
0.33911681125568444
-0.14846227256265804
0.44014231384207303
0.14597978803715989
0.044440548004005646
-0.11210384620430912
-0.10006751762455683
-0.32438543669102615
0.005115014494866547
0.1151355035939422
0.17890061109522434
-0.042264690118383345
-0.004416014508470475
-0.23161676840660309
-0.22251195382258973
0.13460973278851937
0.07659833420670689
0.3929915048777105
0.13023724450837879
-0.3770417042952535
-0.29019776656467244
0.24787680450757227
0.02271653794658401
-0.2740233747284782
0.3251340531477593
-0.1726809478603095
0.4772916765640144
-0.15599177791539628
0.11230956580734267
0.12463715621481515
0.3320424437076426
-0.11478881214203202
0.12430551192453183
0.1318715311869479
-0.4776127638321336
-0.49851114673739977
-0.25331409731680443
-0.05197556748007851
0.3724708721028034
0.005448773978208113
-0.4161436238049286
0.3081153171557933
0.42390593781817737
-0.1530864284890294
-0.17480867229122443
0.4928794152041933
-0.4407273153050576
-0.043397739604876986
0.18756913047089718
-0.1509733315881143
0.14854565824483026
-0.20073742574744674
0.09038420841115392
-0.39440674481929433
0.08649524975938055
-0.05250641456826073
0.006611052768378494
-0.46530535284747
0.18085210270030092
0.2093999116324477
-0.058236950845007594
0.24292562703776727
-0.39381906769503716
0.22606933924072595
0.006206960038415345
-0.25645693616953724
-0.14363549939176537
-0.2022084670936323
0.30890497374827497
0.43041850825478384
-0.1035795706142852
-0.07178149569930925
0.41350216540928486
0.30653132233890595
-0.08944811327998864
0.4529461560960717
-0.14036364324499306
0.4749305193902738
-0.4762816933114514
0.09504392156090187
-0.23598400137098713
0.08143846251560354
0.1864634330933257
0.4299619559129354
0.20651332103836814
-0.034910390637253395
0.36676766417005086
-0.016190558538214557
-0.49023949596806116
-0.4053815732461012
-0.17638416094242362
-0.05283857193528981
0.3427246771491149
-0.3226112328397536
-0.15936217769030822
-0.445916631582031
-0.1951260611888151
-0.08780318430958414
-0.19817503936032543
-0.07956013871351045
-0.2466601475471845
-0.10760341500551154
0.12784553311929006
0.20560325545481825
-0.13192042305081125
-0.30266445827673805
0.30875393974177806
-0.11561179873517652
0.05483053039290909
-0.19553807593905895
0.4638676856081797
-0.328761769487224
-0.08699811286621882
0.4374616780484168
0.33116726672285235
-0.10387393298249327
0.3729753084689596
0.061280498434622424
-0.3376505056193201
0.29632188196042475
-0.45856319292208925
-0.24236830270626558
0.12461484241892767
0.1276508521609196
0.4870330598945883
0.273725150890918
0.26123457218966417
0.13036114364235127
-0.28288009369477285
0.3680806817354894
-0.09592828916683446
0.3838950262996274
-0.46997724385131506
-0.11277942748713508
0.2180830996478542
-0.040964694431836306
0.38824078936372486
-0.16925463859067183
-0.04818616717849452
-0.11102237418986326
-0.41404052076494363
-0.4191262605271743
0.40394649645262465
-0.3721501477640573
0.4726229279976656
-0.30601585308337387
-0.22416201483561016
0.21112753701234635
-0.510827371675234
-0.2505240434268479
-0.10471355235705179
0.0825995824056843
-0.21586681805086536
0.017150122874749183
-0.12067802769717452
-0.4413763978722568
-0.4521259083062543
0.1425166614049481
-0.13452235927906403
0.10488844995460958
-0.08939994776418941
-0.4723725188654317
-0.4419316677330383
0.3570788718356315
0.0520721620505243
-0.3230530435357247
-0.43155184128883284
-0.21719046583099416
-0.20528310790344295
-0.2820838204895616
-0.36696668679936584
-0.49707111753901784
-0.2890637842968777
-0.4039541327808266
0.038818684785954294
-0.042334943024826675
0.38664052648559216
